{"learner":{"attributes":{"scikit_learn":"{\"_estimator_type\": \"classifier\"}"},"feature_names":["Tenure_Years","Current_Anchorings","Connection_Qty","Discount_Amount","Last_Total_Net_Paid","Auto_Renewal_Score","Renewal_Score_At_Release","Sustainability_Score","#_of_Connection","is_first_year","auto_renewal_off","anchoring_zero","anchoring_1plus","anchoring_3plus","band_enc","band_downgraded","band_upgraded","low_release_score","tenure_0_1","tenure_2_3","tenure_4_7","tenure_8plus","cc_call_count","cc_ever_suggest_leave","cc_ever_hardship","cc_ever_complained","cc_ever_platform_issues","cc_ever_login_issues","cc_ever_pricing","cc_ever_refund","cc_pct_dissatisfied","cc_avg_sentiment_delta","cc_min_overall_sentiment","cc_inbound_count","cc_inbound_ratio","cc_sentiment_worsened","cc_multiple_calls","rc_call_count","rc_max_call_number","rc_discount_requested","rc_price_discussed","rc_competitor_mentioned","rc_switching_intent","rc_rescheduled","rc_agent_flagged","rc_price_switching","rc_asked_justification","rc_discount_offered","rc_outbound_count","rc_high_friction","rc_agent_chased","any_leave_signal","any_competitor_signal","any_financial_hardship","any_complaint","total_negative_flags","total_contact_count","has_no_behavioural_data","high_friction_score","critical_risk_billing"],"feature_types":["float","int","float","float","float","int","float","float","float","int","int","int","int","int","int","int","int","int","int","int","int","int","int","float","float","float","float","float","float","float","float","float","float","float","float","float","float","int","float","float","float","float","float","float","float","float","float","float","float","float","float","int","int","int","int","float","int","int","int","int"],"gradient_booster":{"model":{"cats":{"enc":[],"feature_segments":[],"sorted_idx":[]},"gbtree_model_param":{"num_parallel_tree":"1","num_trees":"400"},"iteration_indptr":[0,1,2,3,4,5,6,7,8,9,10,11,12,13,14,15,16,17,18,19,20,21,22,23,24,25,26,27,28,29,30,31,32,33,34,35,36,37,38,39,40,41,42,43,44,45,46,47,48,49,50,51,52,53,54,55,56,57,58,59,60,61,62,63,64,65,66,67,68,69,70,71,72,73,74,75,76,77,78,79,80,81,82,83,84,85,86,87,88,89,90,91,92,93,94,95,96,97,98,99,100,101,102,103,104,105,106,107,108,109,110,111,112,113,114,115,116,117,118,119,120,121,122,123,124,125,126,127,128,129,130,131,132,133,134,135,136,137,138,139,140,141,142,143,144,145,146,147,148,149,150,151,152,153,154,155,156,157,158,159,160,161,162,163,164,165,166,167,168,169,170,171,172,173,174,175,176,177,178,179,180,181,182,183,184,185,186,187,188,189,190,191,192,193,194,195,196,197,198,199,200,201,202,203,204,205,206,207,208,209,210,211,212,213,214,215,216,217,218,219,220,221,222,223,224,225,226,227,228,229,230,231,232,233,234,235,236,237,238,239,240,241,242,243,244,245,246,247,248,249,250,251,252,253,254,255,256,257,258,259,260,261,262,263,264,265,266,267,268,269,270,271,272,273,274,275,276,277,278,279,280,281,282,283,284,285,286,287,288,289,290,291,292,293,294,295,296,297,298,299,300,301,302,303,304,305,306,307,308,309,310,311,312,313,314,315,316,317,318,319,320,321,322,323,324,325,326,327,328,329,330,331,332,333,334,335,336,337,338,339,340,341,342,343,344,345,346,347,348,349,350,351,352,353,354,355,356,357,358,359,360,361,362,363,364,365,366,367,368,369,370,371,372,373,374,375,376,377,378,379,380,381,382,383,384,385,386,387,388,389,390,391,392,393,394,395,396,397,398,399,400],"tree_info":[0,0,0,0,0,0,0,0,0,0,0,0,0,0,0,0,0,0,0,0,0,0,0,0,0,0,0,0,0,0,0,0,0,0,0,0,0,0,0,0,0,0,0,0,0,0,0,0,0,0,0,0,0,0,0,0,0,0,0,0,0,0,0,0,0,0,0,0,0,0,0,0,0,0,0,0,0,0,0,0,0,0,0,0,0,0,0,0,0,0,0,0,0,0,0,0,0,0,0,0,0,0,0,0,0,0,0,0,0,0,0,0,0,0,0,0,0,0,0,0,0,0,0,0,0,0,0,0,0,0,0,0,0,0,0,0,0,0,0,0,0,0,0,0,0,0,0,0,0,0,0,0,0,0,0,0,0,0,0,0,0,0,0,0,0,0,0,0,0,0,0,0,0,0,0,0,0,0,0,0,0,0,0,0,0,0,0,0,0,0,0,0,0,0,0,0,0,0,0,0,0,0,0,0,0,0,0,0,0,0,0,0,0,0,0,0,0,0,0,0,0,0,0,0,0,0,0,0,0,0,0,0,0,0,0,0,0,0,0,0,0,0,0,0,0,0,0,0,0,0,0,0,0,0,0,0,0,0,0,0,0,0,0,0,0,0,0,0,0,0,0,0,0,0,0,0,0,0,0,0,0,0,0,0,0,0,0,0,0,0,0,0,0,0,0,0,0,0,0,0,0,0,0,0,0,0,0,0,0,0,0,0,0,0,0,0,0,0,0,0,0,0,0,0,0,0,0,0,0,0,0,0,0,0,0,0,0,0,0,0,0,0,0,0,0,0,0,0,0,0,0,0,0,0,0,0,0,0,0,0,0,0,0,0,0,0,0,0,0,0,0,0,0,0,0,0,0,0,0,0,0,0,0,0,0,0,0,0,0,0,0,0,0,0,0,0,0,0,0,0],"trees":[{"base_weights":[2.7247194E-2,5.1967907E-1,-2.3149478E0,8.632626E-1,-6.302525E-1,4.1130155E-2,-2.3519561E0,1.0791218E0,2.6031163E-1,-1.0506691E0,3.350354E-1,-4.8776683E-1,-2.4071462E0,1.0996155E0,-9.505597E-1,3.6501312E-1,-1.656529E0,-7.402469E-1,-1.5958216E0,4.3057632E-1,-8.452332E-2,-8.8831626E-2,5.7098716E-2,-9.779567E-2,-1.1232653E0,4.5133658E-2,-1.2361808E-2,-8.8831626E-2,3.5688426E-2,7.5874375E-3,4.5153003E-2,1.0139061E-2,-9.550054E-2,-1.4034508E-2,-4.9538348E-2,-8.031468E-2,-4.080881E-2,2.3303442E-2,-3.156672E-2,6.3193147E-4,-8.807617E-2],"categories":[],"categories_nodes":[],"categories_segments":[],"categories_sizes":[],"default_left":[0,0,0,0,0,0,0,0,0,0,0,0,0,0,0,0,0,0,0,0,0,0,0,0,0,0,0,0,0,0,0,0,0,0,0,0,0,0,0,0,0],"id":0,"left_children":[1,3,5,7,9,-1,11,13,15,17,19,21,23,25,27,29,31,33,35,37,-1,-1,-1,-1,39,-1,-1,-1,-1,-1,-1,-1,-1,-1,-1,-1,-1,-1,-1,-1,-1],"loss_changes":[3.2446309E3,9.190051E2,6.301538E1,2.3259753E2,2.1765349E2,0E0,4.830005E1,5.587854E1,9.548688E1,6.1739716E1,3.8887222E1,5.374723E1,1.964795E1,5.3247192E1,3.4091843E1,5.988439E1,3.5234993E1,4.5921463E1,2.9529968E1,2.9703348E1,0E0,0E0,0E0,0E0,1.9092764E1,0E0,0E0,0E0,0E0,0E0,0E0,0E0,0E0,0E0,0E0,0E0,0E0,0E0,0E0,0E0,0E0],"parents":[2147483647,0,0,1,1,2,2,3,3,4,4,6,6,7,7,8,8,9,9,10,10,11,11,12,12,13,13,14,14,15,15,16,16,17,17,18,18,19,19,24,24],"right_children":[2,4,6,8,10,-1,12,14,16,18,20,22,24,26,28,30,32,34,36,38,-1,-1,-1,-1,40,-1,-1,-1,-1,-1,-1,-1,-1,-1,-1,-1,-1,-1,-1,-1,-1],"split_conditions":[9E0,9E0,2.05E1,2E0,1E0,4.1130155E-2,1E0,5E0,1E0,7E0,1E0,1E0,1.2E1,1.449E3,1E0,9E0,4E2,2.52E1,5E0,2E0,-8.452332E-2,-8.8831626E-2,5.7098716E-2,-9.779567E-2,1.3E1,4.5133658E-2,-1.2361808E-2,-8.8831626E-2,3.5688426E-2,7.5874375E-3,4.5153003E-2,1.0139061E-2,-9.550054E-2,-1.4034508E-2,-4.9538348E-2,-8.031468E-2,-4.080881E-2,2.3303442E-2,-3.156672E-2,6.3193147E-4,-8.807617E-2],"split_indices":[7,5,6,1,18,0,0,31,22,0,22,18,48,4,26,48,4,6,37,1,0,0,0,0,48,0,0,0,0,0,0,0,0,0,0,0,0,0,0,0,0],"split_type":[0,0,0,0,0,0,0,0,0,0,0,0,0,0,0,0,0,0,0,0,0,0,0,0,0,0,0,0,0,0,0,0,0,0,0,0,0,0,0,0,0],"sum_hessian":[2.8112832E3,2.3235847E3,4.8769836E2,1.7893024E3,5.3428235E2,5.0167356E0,4.8268164E2,1.3168931E3,4.7240927E2,3.72194E2,1.6208835E2,1.4214085E1,4.6846753E2,1.3042318E3,1.2661285E1,4.4875894E2,2.3650326E1,2.3877272E2,1.3342128E2,1.5683272E2,5.2556276E0,7.4056573E0,6.808427E0,4.54134E2,1.433353E1,1.2784315E3,2.5800354E1,7.4056573E0,5.255628E0,3.6610226E2,8.265669E1,6.688981E0,1.6961344E1,1.3509352E2,1.036792E2,7.6206604E1,5.7214676E1,1.3999081E2,1.6841898E1,7.4056573E0,6.9278727E0],"tree_param":{"num_deleted":"0","num_feature":"60","num_nodes":"41","size_leaf_vector":"1"}},{"base_weights":[-1.9904557E-3,4.7967756E-1,-2.1696465E0,8.226938E-1,-7.0667225E-1,4.267149E-2,-2.2203956E0,1.0235753E0,2.5691497E-1,-3.5502282E-1,-1.7516861E0,-4.3701276E-1,-2.2708519E0,1.0517005E0,-8.92046E-1,3.5429057E-1,-1.5437237E0,2.1523494E-2,-1.078926E0,-1.9045029E0,-6.735399E-1,5.5738375E-2,-8.406739E-2,-9.2206E-2,-1.0540783E0,4.2809807E-2,-1.1566112E-2,-8.865398E-2,3.1937256E-2,8.679578E-3,4.292906E-2,3.2662463E-3,-8.98415E-2,1.2917409E-2,-2.3449797E-2,-7.652242E-2,-3.6420047E-2,-8.119249E-2,-2.8803553E-2,3.0888805E-2,-8.5987546E-2,3.0741578E-2,-8.702711E-2],"categories":[],"categories_nodes":[],"categories_segments":[],"categories_sizes":[],"default_left":[0,0,0,0,0,0,0,0,0,0,0,0,0,0,0,0,0,0,0,0,0,0,0,0,0,0,0,0,0,0,0,0,0,0,0,0,0,0,0,0,0,0,0],"id":1,"left_children":[1,3,5,7,9,-1,11,13,15,17,19,21,23,25,27,29,31,33,35,37,39,-1,-1,-1,41,-1,-1,-1,-1,-1,-1,-1,-1,-1,-1,-1,-1,-1,-1,-1,-1,-1,-1],"loss_changes":[2.9059023E3,9.2719604E2,8.559497E1,2.0041833E2,1.8701395E2,0E0,4.359839E1,7.11792E1,8.185783E1,1.0474619E2,1.9610718E1,4.8737392E1,1.7456055E1,3.2341675E1,4.522953E1,4.3214478E1,2.775119E1,4.6576084E1,1.6441254E1,1.4858307E1,3.9285732E1,0E0,0E0,0E0,3.2898254E1,0E0,0E0,0E0,0E0,0E0,0E0,0E0,0E0,0E0,0E0,0E0,0E0,0E0,0E0,0E0,0E0,0E0,0E0],"parents":[2147483647,0,0,1,1,2,2,3,3,4,4,6,6,7,7,8,8,9,9,10,10,11,11,12,12,13,13,14,14,15,15,16,16,17,17,18,18,19,19,20,20,24,24],"right_children":[2,4,6,8,10,-1,12,14,16,18,20,22,24,26,28,30,32,34,36,38,40,-1,-1,-1,42,-1,-1,-1,-1,-1,-1,-1,-1,-1,-1,-1,-1,-1,-1,-1,-1,-1,-1],"split_conditions":[9E0,9E0,2.05E1,2E0,7E0,4.267149E-2,1E0,1E0,1E0,2.47E1,1.214E3,5.39E2,1.2E1,1.654E3,6E0,1.1E1,4E2,1E0,5.39E2,1E0,2.67E1,5.5738375E-2,-8.406739E-2,-9.2206E-2,1E0,4.2809807E-2,-1.1566112E-2,-8.865398E-2,3.1937256E-2,8.679578E-3,4.292906E-2,3.2662463E-3,-8.98415E-2,1.2917409E-2,-2.3449797E-2,-7.652242E-2,-3.6420047E-2,-8.119249E-2,-2.8803553E-2,3.0888805E-2,-8.5987546E-2,3.0741578E-2,-8.702711E-2],"split_indices":[7,5,6,1,0,0,0,22,22,6,4,4,48,4,48,56,4,44,4,47,6,0,0,0,44,0,0,0,0,0,0,0,0,0,0,0,0,0,0,0,0,0,0],"split_type":[0,0,0,0,0,0,0,0,0,0,0,0,0,0,0,0,0,0,0,0,0,0,0,0,0,0,0,0,0,0,0,0,0,0,0,0,0,0,0,0,0,0,0],"sum_hessian":[2.7810312E3,2.2760173E3,5.0501404E2,1.7658403E3,5.1017688E2,7.4571395E0,4.9755692E2,1.3024247E3,4.634157E2,3.8279947E2,1.2737742E2,1.4010148E1,4.8354675E2,1.284075E3,1.8349638E1,4.4045538E2,2.296033E1,2.5236244E2,1.3043703E2,1.1081173E2,1.6565693E1,6.721758E0,7.28839E0,4.6934045E2,1.4206304E1,1.2668306E3,1.7244484E1,1.0147926E1,8.201712E0,3.710364E2,6.941897E1,7.1512895E0,1.5809039E1,1.6912244E2,8.324001E1,2.0072819E1,1.1036421E2,9.948784E1,1.1323883E1,8.575681E0,7.990012E0,5.497843E0,8.708461E0],"tree_param":{"num_deleted":"0","num_feature":"60","num_nodes":"43","size_leaf_vector":"1"}},{"base_weights":[-4.7617727E-3,4.66835E-1,-2.0915992E0,8.003898E-1,-6.543075E-1,4.154796E-2,-2.1397514E0,1.0093446E0,2.3563088E-1,2.5700882E-1,-1.0472977E0,-3.6654368E-1,-2.1888983E0,1.0332049E0,-1.0149735E0,3.3662662E-1,-1.8025618E0,4.166402E-1,-8.698371E-1,-7.250158E-1,-1.6036286E0,4.2715482E-2,-7.869308E-2,-8.816511E-2,-1.426725E0,4.509883E-2,3.281717E-2,-8.188807E-2,2.0478835E-2,2.9807998E-2,2.1747958E-3,-8.700989E-2,-1.8690461E-2,2.8166799E-2,-3.1270494E-3,-5.9523728E-2,6.207766E-3,-1.2903002E-2,-4.9791474E-2,-7.17639E-2,-2.3421979E-2,-1.9634983E-2,-8.029267E-2],"categories":[],"categories_nodes":[],"categories_segments":[],"categories_sizes":[],"default_left":[0,0,0,0,0,0,0,0,0,0,0,0,0,0,0,0,0,0,0,0,0,0,0,0,0,0,0,0,0,0,0,0,0,0,0,0,0,0,0,0,0,0,0],"id":2,"left_children":[1,3,5,7,9,-1,11,13,15,17,19,21,23,25,27,29,31,33,35,37,39,-1,-1,-1,41,-1,-1,-1,-1,-1,-1,-1,-1,-1,-1,-1,-1,-1,-1,-1,-1,-1,-1],"loss_changes":[2.7274514E3,8.4583307E2,7.933472E1,2.0528015E2,1.8614099E2,0E0,4.281909E1,6.246753E1,9.763168E1,2.8564335E1,6.364206E1,3.6253445E1,2.1757812E0,2.40979E1,2.5267277E1,5.185029E1,9.86528E0,1.9794542E1,1.2868735E1,4.7891968E1,2.4330597E1,0E0,0E0,0E0,5.5871696E0,0E0,0E0,0E0,0E0,0E0,0E0,0E0,0E0,0E0,0E0,0E0,0E0,0E0,0E0,0E0,0E0,0E0,0E0],"parents":[2147483647,0,0,1,1,2,2,3,3,4,4,6,6,7,7,8,8,9,9,10,10,11,11,12,12,13,13,14,14,15,15,16,16,17,17,18,18,19,19,20,20,24,24],"right_children":[2,4,6,8,10,-1,12,14,16,18,20,22,24,26,28,30,32,34,36,38,40,-1,-1,-1,42,-1,-1,-1,-1,-1,-1,-1,-1,-1,-1,-1,-1,-1,-1,-1,-1,-1,-1],"split_conditions":[9E0,9E0,2.05E1,2E0,2E0,4.154796E-2,1E0,2E1,1E0,2E0,7E0,7.062E2,1.2E1,5E0,6E0,2.55E1,1E0,1E0,5E0,2.52E1,1.099E3,4.2715482E-2,-7.869308E-2,-8.816511E-2,6.54E2,4.509883E-2,3.281717E-2,-8.188807E-2,2.0478835E-2,2.9807998E-2,2.1747958E-3,-8.700989E-2,-1.8690461E-2,2.8166799E-2,-3.1270494E-3,-5.9523728E-2,6.207766E-3,-1.2903002E-2,-4.9791474E-2,-7.17639E-2,-2.3421979E-2,-1.9634983E-2,-8.029267E-2],"split_indices":[7,5,6,1,0,0,0,32,22,1,0,4,48,0,48,6,33,44,14,6,4,0,0,0,4,0,0,0,0,0,0,0,0,0,0,0,0,0,0,0,0,0,0],"split_type":[0,0,0,0,0,0,0,0,0,0,0,0,0,0,0,0,0,0,0,0,0,0,0,0,0,0,0,0,0,0,0,0,0,0,0,0,0,0,0,0,0,0,0],"sum_hessian":[2.7692322E3,2.259373E3,5.0985907E2,1.7415994E3,5.1777374E2,7.381027E0,5.0247803E2,1.2705465E3,4.710529E2,1.5603387E2,3.6173987E2,1.3834261E1,4.8864377E2,1.2562778E3,1.4268574E1,4.4965564E2,2.1397257E1,1.3730234E2,1.8731535E1,2.3062312E2,1.3111674E2,7.438866E0,6.395395E0,4.7708765E2,1.1556111E1,8.672793E2,3.889986E2,8.349206E0,5.919368E0,1.829037E2,2.6675192E2,1.617801E1,5.219246E0,8.6700874E1,5.060147E1,1.1463209E1,7.2683253E0,1.3100414E2,9.961899E1,1.097277E2,2.1389044E1,5.1969347E0,6.3591766E0],"tree_param":{"num_deleted":"0","num_feature":"60","num_nodes":"43","size_leaf_vector":"1"}},{"base_weights":[2.0978212E-2,4.7163916E-1,-1.1061423E0,6.560546E-1,-8.808517E-1,-5.8154106E-1,-1.6813362E0,7.0309573E-1,-1.4749477E0,-5.2782196E-1,-9.059552E-2,3.8898146E-1,-8.1367105E-1,1.0454037E-2,-1.718843E0,8.068496E-1,-1.2996055E-1,-8.460246E-2,-4.829516E-1,-6.915837E-1,1.0349841E0,7.250408E-1,-3.0020568E-1,-6.491957E-1,-1.7959936E0,-1.7554231E0,-1.2704675E-2,3.7770383E-2,1.8741129E-2,5.8201153E-2,-9.426211E-3,-7.6728866E-2,3.3147793E-2,-2.1151068E-2,-8.2086354E-2,5.516874E-2,1.2135367E-2,1.506633E-2,5.22824E-2,1.121508E-2,-8.1042774E-2,-1.4500739E-2,-4.8436355E-2,-8.660882E-2,-1.8758535E-2,-5.207651E-2,-7.367924E-2],"categories":[],"categories_nodes":[],"categories_segments":[],"categories_sizes":[],"default_left":[0,0,0,0,0,0,0,0,0,0,0,0,0,0,0,0,0,0,0,0,0,0,0,0,0,0,0,0,0,0,0,0,0,0,0,0,0,0,0,0,0,0,0,0,0,0,0],"id":3,"left_children":[1,3,5,7,9,11,13,15,17,19,-1,21,23,-1,25,27,29,-1,31,33,35,37,39,41,43,45,-1,-1,-1,-1,-1,-1,-1,-1,-1,-1,-1,-1,-1,-1,-1,-1,-1,-1,-1,-1,-1],"loss_changes":[1.4272482E3,5.0123572E2,2.4096246E2,1.78107E2,1.1639148E2,9.528439E1,2.8443115E1,1.496756E2,2.3130005E1,5.022014E1,0E0,1.9233631E1,5.3592346E1,0E0,1.8463623E1,7.0933716E1,3.2439877E1,0E0,3.2638058E1,3.7612427E1,4.1232357E0,1.0584438E1,2.8259703E1,4.6627396E1,2.2324173E1,1.1627563E1,0E0,0E0,0E0,0E0,0E0,0E0,0E0,0E0,0E0,0E0,0E0,0E0,0E0,0E0,0E0,0E0,0E0,0E0,0E0,0E0,0E0],"parents":[2147483647,0,0,1,1,2,2,3,3,4,4,5,5,6,6,7,7,8,8,9,9,11,11,12,12,14,14,15,15,16,16,18,18,19,19,20,20,21,21,22,22,23,23,24,24,25,25],"right_children":[2,4,6,8,10,12,14,16,18,20,-1,22,24,-1,26,28,30,-1,32,34,36,38,40,42,44,46,-1,-1,-1,-1,-1,-1,-1,-1,-1,-1,-1,-1,-1,-1,-1,-1,-1,-1,-1,-1,-1],"split_conditions":[9E0,2.72E1,2.52E1,1E0,1E1,2.25E1,1E0,1E0,1E0,1.2E1,-9.059552E-2,1E0,7E0,1.0454037E-2,1.3E1,2.52E1,2.05E1,-8.460246E-2,5E0,1E0,9.29E2,5E0,1E0,1E0,1E0,2.57E1,-1.2704675E-2,3.7770383E-2,1.8741129E-2,5.8201153E-2,-9.426211E-3,-7.6728866E-2,3.3147793E-2,-2.1151068E-2,-8.2086354E-2,5.516874E-2,1.2135367E-2,1.506633E-2,5.22824E-2,1.121508E-2,-8.1042774E-2,-1.4500739E-2,-4.8436355E-2,-8.660882E-2,-1.8758535E-2,-5.207651E-2,-7.367924E-2],"split_indices":[5,6,6,22,8,6,0,13,33,48,0,44,0,0,48,6,6,0,48,22,4,38,8,44,13,6,0,0,0,0,0,0,0,0,0,0,0,0,0,0,0,0,0,0,0,0,0],"split_type":[0,0,0,0,0,0,0,0,0,0,0,0,0,0,0,0,0,0,0,0,0,0,0,0,0,0,0,0,0,0,0,0,0,0,0,0,0,0,0,0,0,0,0,0,0,0,0],"sum_hessian":[2.8079229E3,2.0063761E3,8.015468E2,1.7661465E3,2.4022958E2,4.2035245E2,3.8119437E2,1.728703E3,3.7443527E1,1.9256512E2,4.766447E1,8.092077E1,3.3943167E2,7.056635E0,3.7413773E2,1.5373799E3,1.9132309E2,2.2008793E1,1.5434733E1,1.7486319E2,1.770193E1,5.445881E1,2.6461964E1,2.9225977E2,4.7171894E1,3.6430313E2,9.8345785E0,1.09184E3,4.4553992E2,1.11034975E1,1.8021959E2,7.1856346E0,8.249099E0,1.5748108E2,1.7382109E1,1.1342928E1,6.3590007E0,3.5204956E1,1.9253853E1,2.0384272E1,6.0776916E0,1.9471037E2,9.7549416E1,3.6350826E1,1.0821071E1,6.1143673E1,3.0315945E2],"tree_param":{"num_deleted":"0","num_feature":"60","num_nodes":"47","size_leaf_vector":"1"}},{"base_weights":[2.6691576E-2,4.6580562E-1,-1.933525E0,7.7891666E-1,-5.521167E-1,4.3808736E-2,-1.9778525E0,8.831969E-1,-2.1877006E-1,-9.05175E-1,3.1288525E-1,-7.7609813E-1,-2.0062158E0,9.1244984E-1,-6.677575E-1,5.8360454E-2,-1.8892907E0,6.565587E-1,-1.0105038E0,4.6838015E-1,-7.8846604E-1,3.3837795E-2,-7.646474E-2,-8.144407E-2,-9.60281E-1,4.013608E-2,2.1593684E-2,-7.933683E-2,2.420608E-2,8.656774E-3,-7.6359525E-2,-4.5686353E-2,-8.860872E-2,5.744561E-2,1.0912122E-2,-4.478658E-2,-4.004557E-3,2.670232E-2,4.5768803E-4,-5.6500524E-2,1.31698735E-2,2.6476081E-2,-7.911554E-2],"categories":[],"categories_nodes":[],"categories_segments":[],"categories_sizes":[],"default_left":[0,0,0,0,0,0,0,0,0,0,0,0,0,0,0,0,0,0,0,0,0,0,0,0,0,0,0,0,0,0,0,0,0,0,0,0,0,0,0,0,0,0,0],"id":4,"left_children":[1,3,5,7,9,-1,11,13,15,17,19,21,23,25,27,29,31,33,35,37,39,-1,-1,-1,41,-1,-1,-1,-1,-1,-1,-1,-1,-1,-1,-1,-1,-1,-1,-1,-1,-1,-1],"loss_changes":[2.4058252E3,7.282909E2,7.092932E1,1.8200598E2,1.6455519E2,0E0,1.5362183E1,7.240381E1,7.715365E1,6.3567047E1,2.7141386E1,2.630408E1,1.3130371E1,5.1937256E1,5.1241577E1,4.4809483E1,2.9064407E0,6.8249016E0,3.53927E1,1.2471287E1,1.4284267E1,0E0,0E0,0E0,2.7288671E1,0E0,0E0,0E0,0E0,0E0,0E0,0E0,0E0,0E0,0E0,0E0,0E0,0E0,0E0,0E0,0E0,0E0,0E0],"parents":[2147483647,0,0,1,1,2,2,3,3,4,4,6,6,7,7,8,8,9,9,10,10,11,11,12,12,13,13,14,14,15,15,16,16,17,17,18,18,19,19,20,20,24,24],"right_children":[2,4,6,8,10,-1,12,14,16,18,20,22,24,26,28,30,32,34,36,38,40,-1,-1,-1,42,-1,-1,-1,-1,-1,-1,-1,-1,-1,-1,-1,-1,-1,-1,-1,-1,-1,-1],"split_conditions":[9E0,9E0,2.05E1,2.72E1,1E0,4.3808736E-2,1E0,1E0,1E1,2.25E1,2E0,7.49E2,1.2E1,2E0,5E0,1E0,2E0,3.89E2,1E1,1E0,5E0,3.3837795E-2,-7.646474E-2,-8.144407E-2,1E0,4.013608E-2,2.1593684E-2,-7.933683E-2,2.420608E-2,8.656774E-3,-7.6359525E-2,-4.5686353E-2,-8.860872E-2,5.744561E-2,1.0912122E-2,-4.478658E-2,-4.004557E-3,2.670232E-2,4.5768803E-4,-5.6500524E-2,1.31698735E-2,2.6476081E-2,-7.911554E-2],"split_indices":[7,5,6,6,18,0,0,22,8,6,1,4,48,1,48,22,56,4,48,44,14,0,0,0,44,0,0,0,0,0,0,0,0,0,0,0,0,0,0,0,0,0,0],"split_type":[0,0,0,0,0,0,0,0,0,0,0,0,0,0,0,0,0,0,0,0,0,0,0,0,0,0,0,0,0,0,0,0,0,0,0,0,0,0,0,0,0,0,0],"sum_hessian":[2.79313E3,2.2826091E3,5.105208E2,1.745905E3,5.3670416E2,6.989493E0,5.035313E2,1.5808828E3,1.650221E2,3.8118802E2,1.5551614E2,1.2345395E1,4.911859E2,1.5520847E3,2.8798098E1,1.4231758E2,2.2704527E1,2.3693682E1,3.5749432E2,1.3685913E2,1.8657013E1,5.1523833E0,7.1930118E0,4.765276E2,1.465832E1,1.2459835E3,3.0610123E2,1.3925381E1,1.4872718E1,1.3260478E2,9.712786E0,8.357519E0,1.4347008E1,6.825363E0,1.6868319E1,3.1891495E2,3.857938E1,9.483921E1,4.2019913E1,1.1860638E1,6.796376E0,5.747472E0,8.910849E0],"tree_param":{"num_deleted":"0","num_feature":"60","num_nodes":"43","size_leaf_vector":"1"}},{"base_weights":[-8.0111055E-3,4.2811742E-1,-1.8730944E0,7.468927E-1,-5.8887273E-1,4.7424126E-2,-1.9153322E0,8.7892467E-1,2.3440069E-2,1.815604E-1,-9.431629E-1,-1.9441667E0,-1.7462049E-2,9.128689E-1,-8.518462E-1,-1.4772964E-1,1.0091592E0,3.7652233E-1,-1.2422574E0,-6.96236E-1,-1.3951067E0,-1.7134728E0,-8.103173E-2,4.3122754E-2,3.0549332E-2,-7.642319E-2,1.4828657E-2,-1.9945826E-4,-8.562474E-2,5.753138E-2,2.2960989E-2,2.8482916E-2,7.762845E-3,-3.0390393E-2,-7.7290095E-2,-4.745806E-2,3.987389E-3,-6.66152E-2,-2.9623551E-2,-4.867177E-2,-8.0128245E-2],"categories":[],"categories_nodes":[],"categories_segments":[],"categories_sizes":[],"default_left":[0,0,0,0,0,0,0,0,0,0,0,0,0,0,0,0,0,0,0,0,0,0,0,0,0,0,0,0,0,0,0,0,0,0,0,0,0,0,0,0,0],"id":5,"left_children":[1,3,5,7,9,-1,11,13,15,17,19,21,-1,23,25,27,29,31,33,35,37,39,-1,-1,-1,-1,-1,-1,-1,-1,-1,-1,-1,-1,-1,-1,-1,-1,-1,-1,-1],"loss_changes":[2.2325352E3,7.2155444E2,6.9546875E1,1.6169781E2,1.4527078E2,0E0,2.080896E1,8.4937256E1,4.4540565E1,4.7047382E1,3.9462433E1,5.6330566E0,0E0,3.361743E1,3.712133E1,6.3645027E1,6.267826E0,8.874479E0,5.0602665E0,9.2953354E1,2.1087448E1,1.715033E1,0E0,0E0,0E0,0E0,0E0,0E0,0E0,0E0,0E0,0E0,0E0,0E0,0E0,0E0,0E0,0E0,0E0,0E0,0E0],"parents":[2147483647,0,0,1,1,2,2,3,3,4,4,6,6,7,7,8,8,9,9,10,10,11,11,13,13,14,14,15,15,16,16,17,17,18,18,19,19,20,20,21,21],"right_children":[2,4,6,8,10,-1,12,14,16,18,20,22,-1,24,26,28,30,32,34,36,38,40,-1,-1,-1,-1,-1,-1,-1,-1,-1,-1,-1,-1,-1,-1,-1,-1,-1,-1,-1],"split_conditions":[9E0,9E0,2.05E1,3E0,3.52E2,4.7424126E-2,1.5E1,1E0,1.1E1,2E0,1E0,5.64E2,-1.7462049E-2,5.39E2,6E0,1.4E1,1E0,2.25E1,4E0,3E0,9.04E2,9E0,-8.103173E-2,4.3122754E-2,3.0549332E-2,-7.642319E-2,1.4828657E-2,-1.9945826E-4,-8.562474E-2,5.753138E-2,2.2960989E-2,2.8482916E-2,7.762845E-3,-3.0390393E-2,-7.7290095E-2,-4.745806E-2,3.987389E-3,-6.66152E-2,-2.9623551E-2,-4.867177E-2,-8.0128245E-2],"split_indices":[7,5,6,1,4,0,37,22,37,1,44,4,0,4,37,8,44,6,56,37,4,5,0,0,0,0,0,0,0,0,0,0,0,0,0,0,0,0,0,0,0],"split_type":[0,0,0,0,0,0,0,0,0,0,0,0,0,0,0,0,0,0,0,0,0,0,0,0,0,0,0,0,0,0,0,0,0,0,0,0,0,0,0,0,0],"sum_hessian":[2.7424775E3,2.2233008E3,5.1917676E2,1.6929957E3,5.3030505E2,6.6707425E0,5.1250604E2,1.431407E3,2.6158865E2,1.6711185E2,3.6319318E2,5.0232892E2,1.0177117E1,1.404394E3,2.7012943E1,2.2352272E2,3.806594E1,1.4769405E2,1.9417809E1,2.3665475E2,1.2653842E2,1.3735434E2,3.6497458E2,6.630373E2,7.4135675E2,1.421867E1,1.2794274E1,2.0956503E2,1.3957679E1,1.7888897E1,2.0177046E1,5.0805496E1,9.688854E1,1.2748862E1,6.6689463E0,1.4622704E2,9.042772E1,8.835593E1,3.818249E1,5.2647568E1,8.4706764E1],"tree_param":{"num_deleted":"0","num_feature":"60","num_nodes":"41","size_leaf_vector":"1"}},{"base_weights":[1.5329108E-2,4.3087718E-1,-1.0109366E0,8.072245E-1,-1.4740868E-1,3.1892252E-1,-1.1650563E0,8.352003E-1,-1.0352528E0,5.6201E-2,-1.1803433E0,5.7227796E-1,-8.136687E-2,-5.6001437E-1,-1.3216432E0,9.654499E-1,5.216732E-1,-7.1737275E-2,4.1957567E-3,-1.9055139E-1,6.87767E-1,-1.4096738E0,5.482889E-1,1.6911471E-1,4.671975E-2,7.55893E-1,-7.295678E-1,-7.955291E-1,6.1513877E-1,-6.9932073E-1,-1.404709E0,4.440429E-2,3.2592863E-2,2.4656247E-2,-1.4547885E-2,-3.7496167E-3,-6.457304E-2,3.0926572E-2,-7.493668E-2,-6.0973458E-2,1.0601465E-2,4.9381074E-2,-4.6317126E-3,1.6476648E-2,-2.8157158E-2,9.289708E-3,4.5718245E-2,-5.56795E-2,2.063157E-2,-3.6547083E-2,2.6932517E-2,3.876888E-2,-4.0025846E-3,-4.401771E-2,2.094332E-2,-5.742651E-2,-1.9283539E-2],"categories":[],"categories_nodes":[],"categories_segments":[],"categories_sizes":[],"default_left":[0,0,0,0,0,0,0,0,0,0,0,0,0,0,0,0,0,0,0,0,0,0,0,0,0,0,0,0,0,0,0,0,0,0,0,0,0,0,0,0,0,0,0,0,0,0,0,0,0,0,0,0,0,0,0,0,0],"id":6,"left_children":[1,3,5,7,9,11,13,15,17,19,21,23,25,27,29,31,33,-1,-1,35,37,39,41,43,-1,45,47,49,51,53,55,-1,-1,-1,-1,-1,-1,-1,-1,-1,-1,-1,-1,-1,-1,-1,-1,-1,-1,-1,-1,-1,-1,-1,-1,-1,-1],"loss_changes":[1.1705024E3,4.2539587E2,1.6258228E2,6.1862793E1,1.6232767E2,8.499957E0,6.625806E1,4.6991577E1,1.6002075E1,1.0068281E2,5.123555E1,1.1923887E1,1.837331E1,4.137598E1,2.7884277E1,1.6832764E1,2.917144E1,0E0,0E0,6.368872E1,4.1037605E1,2.2137375E1,7.3425784E0,6.980608E0,0E0,2.5877514E0,1.6552101E1,2.2074738E1,6.5519314E0,3.4172234E1,1.32560425E1,0E0,0E0,0E0,0E0,0E0,0E0,0E0,0E0,0E0,0E0,0E0,0E0,0E0,0E0,0E0,0E0,0E0,0E0,0E0,0E0,0E0,0E0,0E0,0E0,0E0,0E0],"parents":[2147483647,0,0,1,1,2,2,3,3,4,4,5,5,6,6,7,7,8,8,9,9,10,10,11,11,12,12,13,13,14,14,15,15,16,16,19,19,20,20,21,21,22,22,23,23,25,25,26,26,27,27,28,28,29,29,30,30],"right_children":[2,4,6,8,10,12,14,16,18,20,22,24,26,28,30,32,34,-1,-1,36,38,40,42,44,-1,46,48,50,52,54,56,-1,-1,-1,-1,-1,-1,-1,-1,-1,-1,-1,-1,-1,-1,-1,-1,-1,-1,-1,-1,-1,-1,-1,-1,-1,-1],"split_conditions":[9E0,2.55E1,2.25E1,1E0,6E0,1E0,2E0,1E0,6E0,6E0,1.1E1,5E0,2.15E1,1E1,2.35E1,3E0,2.47E1,-7.1737275E-2,4.1957567E-3,1E0,1.649E3,1E0,6E0,2.2E1,4.671975E-2,1E0,1E0,1E0,3E0,5E0,1.3E1,4.440429E-2,3.2592863E-2,2.4656247E-2,-1.4547885E-2,-3.7496167E-3,-6.457304E-2,3.0926572E-2,-7.493668E-2,-6.0973458E-2,1.0601465E-2,4.9381074E-2,-4.6317126E-3,1.6476648E-2,-2.8157158E-2,9.289708E-3,4.5718245E-2,-5.56795E-2,2.063157E-2,-3.6547083E-2,2.6932517E-2,3.876888E-2,-4.0025846E-3,-4.401771E-2,2.094332E-2,-5.742651E-2,-1.9283539E-2],"split_indices":[5,6,6,22,1,44,0,44,48,48,48,37,6,37,6,14,6,0,0,22,4,41,0,6,0,40,43,45,14,14,48,0,0,0,0,0,0,0,0,0,0,0,0,0,0,0,0,0,0,0,0,0,0,0,0,0,0],"split_type":[0,0,0,0,0,0,0,0,0,0,0,0,0,0,0,0,0,0,0,0,0,0,0,0,0,0,0,0,0,0,0,0,0,0,0,0,0,0,0,0,0,0,0,0,0,0,0,0,0,0,0,0,0,0,0,0,0],"sum_hessian":[2.7427913E3,1.9527682E3,7.9002313E2,1.1827887E3,7.6997955E2,8.1869995E1,7.0815314E2,1.1656901E3,1.7098639E1,6.439035E2,1.26076004E2,5.002671E1,3.1843287E1,1.4666476E2,5.614884E2,8.218626E2,3.4382742E2,9.978093E0,7.120546E0,4.633953E2,1.8050824E2,1.1152306E2,1.4552939E1,3.0700947E1,1.9325764E1,1.3755432E1,1.8087852E1,1.22518684E2,2.4146076E1,6.737121E1,4.941172E2,4.156528E2,4.0620978E2,3.1097083E2,3.285658E1,4.349561E2,2.8439192E1,1.7539716E2,5.1110845E0,1.0451661E2,7.006456E0,6.808681E0,7.7442584E0,2.452347E1,6.177478E0,6.6360354E0,7.119397E0,1.1782932E1,6.304921E0,1.1381027E2,8.708414E0,1.6006313E1,8.139764E0,5.086801E1,1.6503195E1,4.7743488E2,1.6682293E1],"tree_param":{"num_deleted":"0","num_feature":"60","num_nodes":"57","size_leaf_vector":"1"}},{"base_weights":[-1.9928531E-3,4.067404E-1,-1.7477196E0,6.989602E-1,-5.5223286E-1,1.2129939E-2,-1.7718545E0,7.4445075E-1,-1.1657636E0,2.4898826E-1,-9.158878E-1,-6.99517E-1,-1.7972881E0,9.0057826E-1,3.2824984E-1,-7.418625E-2,8.0567904E-2,3.322877E-1,-7.636852E-2,-1.0012053E0,4.482859E-1,3.404313E-2,-7.002651E-2,-7.292883E-2,-8.260779E-1,3.6669146E-2,-2.3759162E-2,8.155753E-3,4.055625E-2,4.9019177E-2,-3.8008742E-2,1.8532306E-2,-2.544043E-2,-2.7234148E-2,-5.5667013E-2,3.7474886E-2,-2.518403E-2,6.8631023E-3,-7.178372E-2],"categories":[],"categories_nodes":[],"categories_segments":[],"categories_sizes":[],"default_left":[0,0,0,0,0,0,0,0,0,0,0,0,0,0,0,0,0,0,0,0,0,0,0,0,0,0,0,0,0,0,0,0,0,0,0,0,0,0,0],"id":7,"left_children":[1,3,5,7,9,-1,11,13,15,17,19,21,23,25,27,-1,29,31,-1,33,35,-1,-1,-1,37,-1,-1,-1,-1,-1,-1,-1,-1,-1,-1,-1,-1,-1,-1],"loss_changes":[1.955151E3,6.22529E2,2.6416504E1,1.4520825E2,1.515087E2,0E0,1.2511353E1,1.0759235E2,3.5418423E1,2.97295E1,4.2085114E1,2.380644E1,1.0856323E1,2.9735535E1,3.8483234E1,0E0,1.943238E1,2.02673E1,0E0,4.0951202E1,1.2022516E1,0E0,0E0,0E0,1.4932548E1,0E0,0E0,0E0,0E0,0E0,0E0,0E0,0E0,0E0,0E0,0E0,0E0,0E0,0E0],"parents":[2147483647,0,0,1,1,2,2,3,3,4,4,6,6,7,7,8,8,9,9,10,10,11,11,12,12,13,13,14,14,16,16,17,17,19,19,20,20,24,24],"right_children":[2,4,6,8,10,-1,12,14,16,18,20,22,24,26,28,-1,30,32,-1,34,36,-1,-1,-1,38,-1,-1,-1,-1,-1,-1,-1,-1,-1,-1,-1,-1,-1,-1],"split_conditions":[9E0,9E0,2.1E1,1E0,2E0,1.2129939E-2,1E0,2E0,6E0,1E0,1.3E1,7.702E2,1.2E1,3E0,1E1,-7.418625E-2,7E0,2E0,-7.636852E-2,2.57E1,2E0,3.404313E-2,-7.002651E-2,-7.292883E-2,2E0,3.6669146E-2,-2.3759162E-2,8.155753E-3,4.055625E-2,4.9019177E-2,-3.8008742E-2,1.8532306E-2,-2.544043E-2,-2.7234148E-2,-5.5667013E-2,3.7474886E-2,-2.518403E-2,6.8631023E-3,-7.178372E-2],"split_indices":[7,5,6,22,0,0,0,1,48,22,48,4,48,8,48,0,37,1,0,6,55,0,0,0,1,0,0,0,0,0,0,0,0,0,0,0,0,0,0],"split_type":[0,0,0,0,0,0,0,0,0,0,0,0,0,0,0,0,0,0,0,0,0,0,0,0,0,0,0,0,0,0,0,0,0,0,0,0,0,0,0],"sum_hessian":[2.737901E3,2.2190554E3,5.1884564E2,1.7010762E3,5.179792E2,5.8518114E0,5.129938E2,1.661205E3,3.9871243E1,1.6171709E2,3.562621E2,1.2636729E1,5.003571E2,1.2070178E3,4.541871E2,2.541538E1,1.4455864E1,1.565665E2,5.150581E0,3.356118E2,2.0650307E1,5.143906E0,7.492823E0,4.863895E2,1.3967573E1,1.1945627E3,1.2455052E1,3.8568033E2,6.850679E1,6.805271E0,7.6505923E0,1.3845679E2,1.8109718E1,1.8600679E2,1.49605E2,1.436329E1,6.287017E0,7.2347455E0,6.7328277E0],"tree_param":{"num_deleted":"0","num_feature":"60","num_nodes":"39","size_leaf_vector":"1"}},{"base_weights":[-2.1631936E-2,3.7087837E-1,-9.414443E-1,7.047625E-1,-3.358798E-1,4.387905E-1,-1.1041313E0,8.4873056E-1,2.9465204E-1,3.0348754E-1,-6.7535233E-1,7.1802735E-1,4.9771454E-2,-7.4932784E-1,-1.4179156E0,8.6745465E-1,-3.860808E-2,3.6677572E-1,-8.122544E-2,2.1987982E-1,4.906197E-2,-4.8971578E-1,-1.6905214E0,-5.4949275E-3,8.906408E-1,5.574903E-1,-8.507829E-1,-6.270093E-1,-1.6539047E0,-1.46582E0,-4.380397E-2,3.907183E-2,2.3471061E-2,1.6850038E-2,-4.4297483E-2,-1.2168126E-2,1.4398969E-2,-2.4449097E-2,1.7494533E-2,-7.6994725E-2,4.6733E-4,4.3457966E-2,9.967407E-3,1.6789263E-2,2.9370079E-2,-4.1473426E-2,-1.7793162E-2,-2.9313223E-2,9.72694E-3,-7.496136E-2,-1.6734326E-2,-6.526069E-2,-5.1923074E-2,-3.0589087E-2,3.4223065E-2],"categories":[],"categories_nodes":[],"categories_segments":[],"categories_sizes":[],"default_left":[0,0,0,0,0,0,0,0,0,0,0,0,0,0,0,0,0,0,0,0,0,0,0,0,0,0,0,0,0,0,0,0,0,0,0,0,0,0,0,0,0,0,0,0,0,0,0,0,0,0,0,0,0,0,0],"id":8,"left_children":[1,3,5,7,9,11,13,15,17,19,21,23,25,27,29,31,-1,33,-1,35,-1,37,39,-1,41,43,45,47,49,51,53,-1,-1,-1,-1,-1,-1,-1,-1,-1,-1,-1,-1,-1,-1,-1,-1,-1,-1,-1,-1,-1,-1,-1,-1],"loss_changes":[9.6915936E2,4.442257E2,1.808418E2,7.510101E1,1.3138263E2,9.154627E0,7.872388E1,3.2934937E1,5.6562393E1,1.580258E1,7.3406006E1,7.497463E0,1.7303848E1,3.6302353E1,2.4803406E1,2.8003845E1,0E0,2.6471016E1,0E0,1.4358562E1,0E0,3.80775E1,2.4381165E1,0E0,4.791664E0,1.6700268E-1,4.1917992E-1,2.7925262E1,9.793816E0,7.7944946E0,9.660914E0,0E0,0E0,0E0,0E0,0E0,0E0,0E0,0E0,0E0,0E0,0E0,0E0,0E0,0E0,0E0,0E0,0E0,0E0,0E0,0E0,0E0,0E0,0E0,0E0],"parents":[2147483647,0,0,1,1,2,2,3,3,4,4,5,5,6,6,7,7,8,8,9,9,10,10,11,11,12,12,13,13,14,14,15,15,17,17,19,19,21,21,22,22,24,24,25,25,26,26,27,27,28,28,29,29,30,30],"right_children":[2,4,6,8,10,12,14,16,18,20,22,24,26,28,30,32,-1,34,-1,36,-1,38,40,-1,42,44,46,48,50,52,54,-1,-1,-1,-1,-1,-1,-1,-1,-1,-1,-1,-1,-1,-1,-1,-1,-1,-1,-1,-1,-1,-1,-1,-1],"split_conditions":[9E0,2E0,2.25E1,2.52E1,2.55E1,1E0,2.52E1,1E0,3E0,1.2E1,1E1,2E0,1E0,1E0,1.3E1,1E0,-3.860808E-2,5E0,-8.122544E-2,2E0,4.906197E-2,9E0,1.2E1,-5.4949275E-3,3E0,4E0,7E0,1E1,4E0,3E0,4E0,3.907183E-2,2.3471061E-2,1.6850038E-2,-4.4297483E-2,-1.2168126E-2,1.4398969E-2,-2.4449097E-2,1.7494533E-2,-7.6994725E-2,4.6733E-4,4.3457966E-2,9.967407E-3,1.6789263E-2,2.9370079E-2,-4.1473426E-2,-1.7793162E-2,-2.9313223E-2,9.72694E-3,-7.496136E-2,-1.6734326E-2,-6.526069E-2,-5.1923074E-2,-3.0589087E-2,3.4223065E-2],"split_indices":[5,1,6,6,6,1,6,22,8,14,8,48,55,21,48,44,0,31,0,8,0,48,37,0,14,37,48,48,1,37,8,0,0,0,0,0,0,0,0,0,0,0,0,0,0,0,0,0,0,0,0,0,0,0,0],"split_type":[0,0,0,0,0,0,0,0,0,0,0,0,0,0,0,0,0,0,0,0,0,0,0,0,0,0,0,0,0,0,0,0,0,0,0,0,0,0,0,0,0,0,0,0,0,0,0,0,0,0,0,0,0,0,0],"sum_hessian":[2.6822605E3,1.8803495E3,8.01911E2,1.2771481E3,6.0320135E2,8.431047E1,7.176005E2,9.4433044E2,3.3281766E2,2.0913153E2,3.9406985E2,4.8438587E1,3.5871887E1,3.385268E2,3.7907373E2,9.352533E2,9.077129E0,3.2366382E2,9.153836E0,1.9299707E2,1.613446E1,3.3448578E2,5.958407E1,8.070309E0,4.036828E1,2.325376E1,1.2618126E1,2.9979205E2,3.8734745E1,3.6616885E2,1.2904896E1,6.710156E2,2.6423767E2,3.128842E2,1.07796335E1,4.0311077E1,1.5268599E2,2.9612183E2,3.836394E1,5.2310314E1,7.2737556E0,3.027655E1,1.0091727E1,1.5283166E1,7.970594E0,7.4179816E0,5.200145E0,2.6753088E2,3.2261166E1,3.2369904E1,6.364841E0,1.7951779E2,1.8665106E2,7.30793E0,5.5969663E0],"tree_param":{"num_deleted":"0","num_feature":"60","num_nodes":"55","size_leaf_vector":"1"}},{"base_weights":[5.1579433E-3,3.9206725E-1,-1.6772267E0,6.649817E-1,-4.5311543E-1,1.2384255E-2,-1.7012417E0,7.5783557E-1,-2.8886265E-1,6.0153913E-2,-8.912779E-1,-3.7181604E-1,-1.7404482E0,7.866293E-1,-9.254471E-1,-7.195691E-2,-7.9057336E-2,1.412505E-1,-7.58067E-2,-1.0355989E-2,-1.0921174E0,4.0289067E-2,-6.730114E-2,-7.1869984E-2,-1.6101084E0,4.1650992E-2,2.6955025E-2,-7.19E-2,1.5333616E-2,2.482738E-3,-6.806097E-2,1.13255E-2,-2.830901E-2,1.1440181E-2,-6.74271E-2,-4.586026E-2,2.4098018E-2,-3.6696997E-2,-7.0667E-2],"categories":[],"categories_nodes":[],"categories_segments":[],"categories_sizes":[],"default_left":[0,0,0,0,0,0,0,0,0,0,0,0,0,0,0,0,0,0,0,0,0,0,0,0,0,0,0,0,0,0,0,0,0,0,0,0,0,0,0],"id":9,"left_children":[1,3,5,7,9,-1,11,13,15,17,19,21,23,25,27,29,-1,31,-1,33,35,-1,-1,-1,37,-1,-1,-1,-1,-1,-1,-1,-1,-1,-1,-1,-1,-1,-1],"loss_changes":[1.7662715E3,5.09234E2,2.4873047E1,1.4802075E2,1.2136388E2,0E0,2.5280396E1,7.4416626E1,5.405517E1,3.9588036E1,5.1356857E1,3.0159554E1,3.383789E-1,4.207074E1,3.0476887E1,2.9270355E1,0E0,2.9084309E1,0E0,2.7990215E1,2.2573792E1,0E0,0E0,0E0,1.5137787E1,0E0,0E0,0E0,0E0,0E0,0E0,0E0,0E0,0E0,0E0,0E0,0E0,0E0,0E0],"parents":[2147483647,0,0,1,1,2,2,3,3,4,4,6,6,7,7,8,8,9,9,10,10,11,11,12,12,13,13,14,14,15,15,17,17,19,19,20,20,24,24],"right_children":[2,4,6,8,10,-1,12,14,16,18,20,22,24,26,28,30,-1,32,-1,34,36,-1,-1,-1,38,-1,-1,-1,-1,-1,-1,-1,-1,-1,-1,-1,-1,-1,-1],"split_conditions":[9E0,9E0,2.1E1,2.72E1,3E0,1.2384255E-2,1E0,1E0,1.1E1,1E0,2.35E1,7.062E2,5E0,2.35E1,1.6666667E-1,1E0,-7.9057336E-2,2E0,-7.58067E-2,7E0,2E1,4.0289067E-2,-6.730114E-2,-7.1869984E-2,1E0,4.1650992E-2,2.6955025E-2,-7.19E-2,1.5333616E-2,2.482738E-3,-6.806097E-2,1.13255E-2,-2.830901E-2,1.1440181E-2,-6.74271E-2,-4.586026E-2,2.4098018E-2,-3.6696997E-2,-7.0667E-2],"split_indices":[7,5,6,6,0,0,0,22,1,22,6,4,37,6,34,22,0,1,0,0,0,0,0,0,55,0,0,0,0,0,0,0,0,0,0,0,0,0,0],"split_type":[0,0,0,0,0,0,0,0,0,0,0,0,0,0,0,0,0,0,0,0,0,0,0,0,0,0,0,0,0,0,0,0,0,0,0,0,0,0,0],"sum_hessian":[2.7116445E3,2.2053025E3,5.063419E2,1.6672645E3,5.38038E2,5.8553586E0,5.0048654E2,1.5196423E3,1.4762216E2,2.480746E2,2.8996344E2,1.47105875E1,4.8577594E2,1.4946671E3,2.4975277E1,1.3178549E2,1.5836669E1,2.391354E2,8.939193E0,5.4122215E1,2.3584122E2,7.2440925E0,7.466495E0,3.2977457E2,1.5600139E2,4.559094E2,1.0387577E3,1.4810169E1,1.0165107E1,1.2260248E2,9.183016E0,2.055643E2,3.3571117E1,4.6641106E1,7.4811106E0,2.2887756E2,6.963646E0,3.0142603E1,1.2585879E2],"tree_param":{"num_deleted":"0","num_feature":"60","num_nodes":"39","size_leaf_vector":"1"}},{"base_weights":[2.4697296E-3,3.784368E-1,-1.5625793E0,6.5737796E-1,-5.3863686E-1,4.5219924E-2,-1.5992693E0,7.453948E-1,-1.8856418E-1,-3.002783E-2,-9.5768917E-1,-2.8286656E-2,-1.649284E0,7.7109206E-1,-6.5758526E-1,9.6801095E-2,-1.6200831E0,2.4367733E-1,-6.976857E-1,-2.020399E-1,-1.1261573E0,-6.580393E-2,5.3986214E-2,-1.6738636E0,-9.430269E-1,3.3049494E-2,9.625956E-3,-6.587323E-2,1.055004E-2,9.222588E-3,-6.5373786E-2,-7.8036495E-2,-3.687955E-2,1.8111544E-2,-3.5898596E-2,-3.8254183E-2,4.837766E-2,3.5940444E-3,-6.58383E-2,-5.29625E-2,-2.1707632E-2,-6.87951E-2,-6.123121E-2,1.8037321E-2,-6.870308E-2],"categories":[],"categories_nodes":[],"categories_segments":[],"categories_sizes":[],"default_left":[0,0,0,0,0,0,0,0,0,0,0,0,0,0,0,0,0,0,0,0,0,0,0,0,0,0,0,0,0,0,0,0,0,0,0,0,0,0,0,0,0,0,0,0,0],"id":10,"left_children":[1,3,5,7,9,-1,11,13,15,17,19,21,23,25,27,29,31,33,35,37,39,-1,-1,41,43,-1,-1,-1,-1,-1,-1,-1,-1,-1,-1,-1,-1,-1,-1,-1,-1,-1,-1,-1,-1],"loss_changes":[1.55796E3,5.465469E2,5.252881E1,1.2213324E2,1.0610423E2,0E0,3.9575073E1,5.400824E1,6.363859E1,4.1568832E1,3.4410217E1,3.9464073E1,6.6781006E0,4.232837E1,2.5323212E1,3.0373419E1,3.8913956E0,3.8812504E1,3.3769608E1,2.1848623E1,2.4846375E1,0E0,0E0,1.550293E-1,2.1340387E1,0E0,0E0,0E0,0E0,0E0,0E0,0E0,0E0,0E0,0E0,0E0,0E0,0E0,0E0,0E0,0E0,0E0,0E0,0E0,0E0],"parents":[2147483647,0,0,1,1,2,2,3,3,4,4,6,6,7,7,8,8,9,9,10,10,11,11,12,12,13,13,14,14,15,15,16,16,17,17,18,18,19,19,20,20,23,23,24,24],"right_children":[2,4,6,8,10,-1,12,14,16,18,20,22,24,26,28,30,32,34,36,38,40,-1,-1,42,44,-1,-1,-1,-1,-1,-1,-1,-1,-1,-1,-1,-1,-1,-1,-1,-1,-1,-1,-1,-1],"split_conditions":[9E0,9E0,2.05E1,2.72E1,3E0,4.5219924E-2,1E0,1E0,8E0,1E0,2.35E1,1E0,1.2E1,3E0,5E0,1E0,1.749E3,2E0,2.1E1,7E0,7E0,-6.580393E-2,5.3986214E-2,1E0,1E0,3.3049494E-2,9.625956E-3,-6.587323E-2,1.055004E-2,9.222588E-3,-6.5373786E-2,-7.8036495E-2,-3.687955E-2,1.8111544E-2,-3.5898596E-2,-3.8254183E-2,4.837766E-2,3.5940444E-3,-6.58383E-2,-5.29625E-2,-2.1707632E-2,-6.87951E-2,-6.123121E-2,1.8037321E-2,-6.870308E-2],"split_indices":[7,5,6,6,0,0,0,22,1,44,6,18,37,1,37,22,4,1,37,0,37,0,0,20,44,0,0,0,0,0,0,0,0,0,0,0,0,0,0,0,0,0,0,0,0],"split_type":[0,0,0,0,0,0,0,0,0,0,0,0,0,0,0,0,0,0,0,0,0,0,0,0,0,0,0,0,0,0,0,0,0,0,0,0,0,0,0,0,0,0,0,0,0],"sum_hessian":[2.6459556E3,2.1341074E3,5.118482E2,1.6366799E3,4.9742752E2,6.442274E0,5.0540594E2,1.482653E3,1.5402701E2,2.2529474E2,2.7213278E2,1.5703926E1,4.89702E2,1.4564971E3,2.6155794E1,1.2914517E2,2.4881842E1,1.6013353E2,6.51612E1,5.0119408E1,2.2201338E2,7.1698527E0,8.534073E0,4.7177142E2,1.7930597E1,1.3186619E3,1.3783524E2,1.2285675E1,1.387012E1,1.2074029E2,8.4048815E0,1.5566809E1,9.315034E0,1.359178E2,2.421573E1,5.7863937E1,7.2972693E0,4.241387E1,7.7055364E0,1.647062E2,5.730717E1,3.4810593E2,1.2366547E2,6.507585E0,1.1423013E1],"tree_param":{"num_deleted":"0","num_feature":"60","num_nodes":"45","size_leaf_vector":"1"}},{"base_weights":[2.7040527E-3,3.6864254E-1,-1.5486652E0,4.2276692E-1,-1.5603467E0,3.4832288E-2,-1.583809E0,6.0706085E-1,1.02466166E-1,-7.322439E-2,-1.003767E0,-6.485685E-2,-1.6335753E0,7.3430777E-1,3.2667664E-1,-9.062943E-2,5.7237E-1,-6.542543E-2,1.3047129E-2,4.249718E-2,-6.242567E-2,-6.799585E-2,-1.4367464E0,4.3772634E-2,2.6071433E-2,1.8240526E-2,-1.7606998E-2,6.945219E-3,-1.8947698E-2,4.2618647E-2,6.402952E-3,-5.9987646E-2,-1.5302534E-2],"categories":[],"categories_nodes":[],"categories_segments":[],"categories_sizes":[],"default_left":[0,0,0,0,0,0,0,0,0,0,0,0,0,0,0,0,0,0,0,0,0,0,0,0,0,0,0,0,0,0,0,0,0],"id":11,"left_children":[1,3,5,7,9,-1,11,13,15,-1,17,19,21,23,25,27,29,-1,-1,-1,-1,-1,31,-1,-1,-1,-1,-1,-1,-1,-1,-1,-1],"loss_changes":[1.4894259E3,2.2220505E2,4.402722E1,1.21819214E2,6.619644E0,0E0,3.7063354E1,4.642798E1,6.869254E1,0E0,1.8587263E1,2.9994102E1,3.486084E0,2.5870941E1,4.0995018E1,5.442099E1,4.452588E1,0E0,0E0,0E0,0E0,0E0,7.6886597E0,0E0,0E0,0E0,0E0,0E0,0E0,0E0,0E0,0E0,0E0],"parents":[2147483647,0,0,1,1,2,2,3,3,4,4,6,6,7,7,8,8,10,10,11,11,12,12,13,13,14,14,15,15,16,16,22,22],"right_children":[2,4,6,8,10,-1,12,14,16,-1,18,20,22,24,26,28,30,-1,-1,-1,-1,-1,32,-1,-1,-1,-1,-1,-1,-1,-1,-1,-1],"split_conditions":[9E0,1E0,2.05E1,2.52E1,8.49E2,3.4832288E-2,1E0,1E0,6E0,-7.322439E-2,6E0,7.062E2,1E0,2.25E1,7E0,2.67E1,1E0,-6.542543E-2,1.3047129E-2,4.249718E-2,-6.242567E-2,-6.799585E-2,2.8E1,4.3772634E-2,2.6071433E-2,1.8240526E-2,-1.7606998E-2,6.945219E-3,-1.8947698E-2,4.2618647E-2,6.402952E-3,-5.9987646E-2,-1.5302534E-2],"split_indices":[7,22,6,6,4,0,0,44,48,0,48,4,20,6,0,6,44,0,0,0,0,0,6,0,0,0,0,0,0,0,0,0,0],"split_type":[0,0,0,0,0,0,0,0,0,0,0,0,0,0,0,0,0,0,0,0,0,0,0,0,0,0,0,0,0,0,0,0,0],"sum_hessian":[2.6217903E3,2.122063E3,4.9972745E2,2.0649563E3,5.7106728E1,6.773654E0,4.929538E2,1.3100024E3,7.5495374E2,3.677896E1,2.0327766E1,1.577534E1,4.7717844E2,8.9971063E2,4.102918E2,5.354981E2,2.1945564E2,1.3675673E1,6.6520944E0,9.122845E0,6.652496E0,3.5082437E2,1.2635407E2,1.6526347E2,7.3444714E2,3.5153754E2,5.875427E1,3.1705807E2,2.1844003E2,9.9103516E1,1.2035213E2,1.1874632E2,7.6077538E0],"tree_param":{"num_deleted":"0","num_feature":"60","num_nodes":"33","size_leaf_vector":"1"}},{"base_weights":[-6.0365617E-4,3.5398638E-1,-1.5148041E0,5.9938556E-1,-3.7479827E-1,1.3887124E-2,-1.5363853E0,7.694307E-1,1.6382687E-1,2.4211049E-1,-6.6534275E-1,-3.2057908E-1,-1.57184E0,7.8903407E-1,-1.0169449E0,3.004452E-1,-4.2241228E-1,3.6608997E-1,-6.534086E-1,-1.0689094E0,-3.76872E-1,4.1616846E-2,-6.0957015E-2,-6.390476E-2,-6.5998125E-1,3.2261588E-2,-1.7392093E-2,-5.9274964E-2,-9.496901E-3,7.292822E-3,3.3934847E-2,-2.5003715E-3,-5.7385575E-2,1.7250419E-2,-2.093954E-2,-0E0,-6.952717E-2,-2.9278403E-2,-6.385272E-2,-2.5571462E-2,1.1987346E-2,1.4123759E-2,-6.465733E-2],"categories":[],"categories_nodes":[],"categories_segments":[],"categories_sizes":[],"default_left":[0,0,0,0,0,0,0,0,0,0,0,0,0,0,0,0,0,0,0,0,0,0,0,0,0,0,0,0,0,0,0,0,0,0,0,0,0,0,0,0,0,0,0],"id":12,"left_children":[1,3,5,7,9,-1,11,13,15,17,19,21,23,25,27,29,31,33,35,37,39,-1,-1,-1,41,-1,-1,-1,-1,-1,-1,-1,-1,-1,-1,-1,-1,-1,-1,-1,-1,-1,-1],"loss_changes":[1.4087163E3,3.804035E2,2.0657349E1,1.1759338E2,9.626977E1,0E0,2.053125E1,4.082727E1,3.6001488E1,1.9332088E1,4.191461E1,2.6671299E1,9.958252E0,2.4635742E1,4.113427E0,2.3308914E1,3.0712708E1,9.029871E0,1.502716E1,2.5495163E1,3.8287926E1,0E0,0E0,0E0,1.5187761E1,0E0,0E0,0E0,0E0,0E0,0E0,0E0,0E0,0E0,0E0,0E0,0E0,0E0,0E0,0E0,0E0,0E0,0E0],"parents":[2147483647,0,0,1,1,2,2,3,3,4,4,6,6,7,7,8,8,9,9,10,10,11,11,12,12,13,13,14,14,15,15,16,16,17,17,18,18,19,19,20,20,24,24],"right_children":[2,4,6,8,10,-1,12,14,16,18,20,22,24,26,28,30,32,34,36,38,40,-1,-1,-1,42,-1,-1,-1,-1,-1,-1,-1,-1,-1,-1,-1,-1,-1,-1,-1,-1,-1,-1],"split_conditions":[9E0,9E0,2.1E1,2E0,3.52E2,1.3887124E-2,1E0,5E0,2.77E1,2E0,3E0,7.062E2,1.2E1,1.654E3,2.62E1,9E0,1E1,1E0,3E0,7E0,9.24E2,4.1616846E-2,-6.0957015E-2,-6.390476E-2,1.3E1,3.2261588E-2,-1.7392093E-2,-5.9274964E-2,-9.496901E-3,7.292822E-3,3.3934847E-2,-2.5003715E-3,-5.7385575E-2,1.7250419E-2,-2.093954E-2,-0E0,-6.952717E-2,-2.9278403E-2,-6.385272E-2,-2.5571462E-2,1.1987346E-2,1.4123759E-2,-6.465733E-2],"split_indices":[7,5,6,1,4,0,0,31,6,1,37,4,48,4,6,48,8,43,48,0,4,0,0,0,48,0,0,0,0,0,0,0,0,0,0,0,0,0,0,0,0,0,0],"split_type":[0,0,0,0,0,0,0,0,0,0,0,0,0,0,0,0,0,0,0,0,0,0,0,0,0,0,0,0,0,0,0,0,0,0,0,0,0,0,0,0,0,0,0],"sum_hessian":[2.621482E3,2.124641E3,4.968407E2,1.5896746E3,5.349666E2,5.466675E0,4.9137402E2,1.1425996E3,4.4707495E2,1.712265E2,3.6374014E2,1.4287653E1,4.7708636E2,1.1308047E3,1.1794972E1,3.6311255E2,8.396238E1,1.5102133E2,2.0205172E1,1.5035019E2,2.1338994E2,6.7291684E0,7.5584846E0,4.6313147E2,1.3954906E1,1.1152745E3,1.5530102E1,6.743608E0,5.0513644E0,2.9996075E2,6.315179E1,6.2795605E1,2.1166777E1,1.4129749E2,9.723835E0,1.3234821E1,6.9703493E0,9.331243E1,5.703775E1,1.5389992E2,5.9490025E1,7.032427E0,6.9224796E0],"tree_param":{"num_deleted":"0","num_feature":"60","num_nodes":"43","size_leaf_vector":"1"}},{"base_weights":[-2.3794936E-3,3.399205E-1,-1.4653167E0,5.247297E-1,-8.47541E-2,3.3693116E-2,-1.4987321E0,8.439196E-1,4.0820488E-1,-3.5225794E-1,5.416914E-1,-1.17295966E-1,-1.5455588E0,9.269704E-1,6.037724E-1,5.592155E-1,5.3138603E-2,-2.6973176E-1,-7.2285116E-2,1.0144677E0,1.126244E-1,-6.1479047E-2,5.1306233E-2,-1.3836845E0,-1.6021944E0,2.9068742E-2,4.1295394E-2,1.0259579E-2,3.920246E-2,2.3481945E-2,-4.2329583E-2,7.991124E-3,-2.2182038E-2,-7.2785392E-3,-6.57098E-2,2.833879E-2,5.1772278E-2,1.0195571E-2,-6.62014E-2,-6.239331E-2,-3.8039867E-2,-6.545104E-2,-5.323467E-2],"categories":[],"categories_nodes":[],"categories_segments":[],"categories_sizes":[],"default_left":[0,0,0,0,0,0,0,0,0,0,0,0,0,0,0,0,0,0,0,0,0,0,0,0,0,0,0,0,0,0,0,0,0,0,0,0,0,0,0,0,0,0,0],"id":13,"left_children":[1,3,5,7,9,-1,11,13,15,17,19,21,23,25,27,29,31,33,-1,35,37,-1,-1,39,41,-1,-1,-1,-1,-1,-1,-1,-1,-1,-1,-1,-1,-1,-1,-1,-1,-1,-1],"loss_changes":[1.3045275E3,1.6575867E2,3.9419067E1,5.424643E1,1.07548996E2,0E0,3.1176636E1,7.1106873E0,5.780977E1,5.3302982E1,3.8725506E1,3.6041462E1,1.8044434E0,5.180481E0,1.3212307E1,3.466841E1,2.8905188E1,5.0955795E1,0E0,6.6855927E0,2.590744E1,0E0,0E0,8.167603E0,6.906738E-1,0E0,0E0,0E0,0E0,0E0,0E0,0E0,0E0,0E0,0E0,0E0,0E0,0E0,0E0,0E0,0E0,0E0,0E0],"parents":[2147483647,0,0,1,1,2,2,3,3,4,4,6,6,7,7,8,8,9,9,10,10,11,11,12,12,13,13,14,14,15,15,16,16,17,17,19,19,20,20,23,23,24,24],"right_children":[2,4,6,8,10,-1,12,14,16,18,20,22,24,26,28,30,32,34,-1,36,38,-1,-1,40,42,-1,-1,-1,-1,-1,-1,-1,-1,-1,-1,-1,-1,-1,-1,-1,-1,-1,-1],"split_conditions":[9E0,2.57E1,2.05E1,2.3E1,6E0,3.3693116E-2,1E0,5.432E2,1E0,1.1E1,1E0,1E0,5.64E2,1E0,9.04E2,1E0,7E0,1E0,-7.2285116E-2,1E1,1E0,-6.1479047E-2,5.1306233E-2,2.6E1,1E1,2.9068742E-2,4.1295394E-2,1.0259579E-2,3.920246E-2,2.3481945E-2,-4.2329583E-2,7.991124E-3,-2.2182038E-2,-7.2785392E-3,-6.57098E-2,2.833879E-2,5.1772278E-2,1.0195571E-2,-6.62014E-2,-6.239331E-2,-3.8039867E-2,-6.545104E-2,-5.323467E-2],"split_indices":[7,6,6,6,48,0,0,4,44,8,44,18,4,11,4,22,0,22,0,48,22,0,0,6,8,0,0,0,0,0,0,0,0,0,0,0,0,0,0,0,0,0,0],"split_type":[0,0,0,0,0,0,0,0,0,0,0,0,0,0,0,0,0,0,0,0,0,0,0,0,0,0,0,0,0,0,0,0,0,0,0,0,0,0,0,0,0,0,0],"sum_hessian":[2.6028586E3,2.1098843E3,4.9297427E2,1.4701198E3,6.397645E2,6.6483054E0,4.8632596E2,3.9126077E2,1.078859E3,4.487411E2,1.9102344E2,1.6129505E1,4.7019647E2,2.8828564E2,1.0297513E2,7.5633234E2,3.225267E2,4.2583984E2,2.2901247E1,9.012259E1,1.0090084E2,7.995194E0,8.134311E0,1.2891943E2,3.41277E2,1.0246989E2,1.8581575E2,5.4564297E1,4.841083E1,7.442246E2,1.2107749E1,2.605017E2,6.202497E1,4.01387E2,2.4452835E1,4.490693E1,4.5215664E1,9.422944E1,6.671404E0,8.9604935E1,3.9314507E1,2.983962E2,4.2880825E1],"tree_param":{"num_deleted":"0","num_feature":"60","num_nodes":"43","size_leaf_vector":"1"}},{"base_weights":[4.383496E-3,3.323667E-1,-1.4364142E0,5.910169E-1,-4.7330335E-1,-1.4816622E0,-5.143898E-1,6.308843E-1,-9.4651455E-1,-2.344725E-1,-1.1977468E0,-1.3350317E0,-6.186905E-2,2.5227956E-2,-1.1409769E0,7.635398E-1,3.0127627E-1,-1.386628E0,-0E0,-1.7423381E-1,-7.0671156E-2,-1.3105359E0,3.1974025E-2,-1.4158922E0,-8.359307E-1,-6.236276E-2,-1.1948347E-2,3.619267E-2,2.5263885E-2,1.4307223E-2,-2.0320596E-2,-1.5915394E-2,-6.4477965E-2,3.7464812E-2,-2.8628383E-2,8.590303E-3,-1.6675616E-2,-2.5129619E-3,-5.4657534E-2,-3.9627902E-2,-6.1421707E-2,5.4881773E-3,-5.7887204E-2],"categories":[],"categories_nodes":[],"categories_segments":[],"categories_sizes":[],"default_left":[0,0,0,0,0,0,0,0,0,0,0,0,0,0,0,0,0,0,0,0,0,0,0,0,0,0,0,0,0,0,0,0,0,0,0,0,0,0,0,0,0,0,0],"id":14,"left_children":[1,3,5,7,9,11,13,15,17,19,21,23,-1,-1,25,27,29,31,33,35,-1,37,-1,39,41,-1,-1,-1,-1,-1,-1,-1,-1,-1,-1,-1,-1,-1,-1,-1,-1,-1,-1],"loss_changes":[1.235038E3,4.439746E2,1.9255981E1,9.9392334E1,8.91795E1,2.0480347E0,1.8209208E1,6.8405334E1,1.7160774E1,3.5573017E1,2.994307E1,4.627136E0,0E0,0E0,5.025564E0,2.0154724E1,2.0846455E1,5.410858E0,1.0073513E1,3.571566E1,0E0,8.25531E0,0E0,4.6920013E0,1.4287834E1,0E0,0E0,0E0,0E0,0E0,0E0,0E0,0E0,0E0,0E0,0E0,0E0,0E0,0E0,0E0,0E0,0E0,0E0],"parents":[2147483647,0,0,1,1,2,2,3,3,4,4,5,5,6,6,7,7,8,8,9,9,10,10,11,11,14,14,15,15,16,16,17,17,18,18,19,19,21,21,23,23,24,24],"right_children":[2,4,6,8,10,12,14,16,18,20,22,24,-1,-1,26,28,30,32,34,36,-1,38,-1,40,42,-1,-1,-1,-1,-1,-1,-1,-1,-1,-1,-1,-1,-1,-1,-1,-1,-1,-1],"split_conditions":[9E0,9E0,1.2E1,1E0,7E0,9.5E0,1E0,2E0,1.6666667E-1,1E0,2E1,5E0,-6.186905E-2,2.5227956E-2,1E0,5.076E2,1.1E1,2E1,4E2,2E0,-7.0671156E-2,3.6E2,3.1974025E-2,1E0,5E0,-6.236276E-2,-1.1948347E-2,3.619267E-2,2.5263885E-2,1.4307223E-2,-2.0320596E-2,-1.5915394E-2,-6.4477965E-2,3.7464812E-2,-2.8628383E-2,8.590303E-3,-1.6675616E-2,-2.5129619E-3,-5.4657534E-2,-3.9627902E-2,-6.1421707E-2,5.4881773E-3,-5.7887204E-2],"split_indices":[7,5,37,22,0,7,8,1,34,22,0,1,0,0,20,4,1,32,4,0,0,4,0,1,8,0,0,0,0,0,0,0,0,0,0,0,0,0,0,0,0,0,0],"split_type":[0,0,0,0,0,0,0,0,0,0,0,0,0,0,0,0,0,0,0,0,0,0,0,0,0,0,0,0,0,0,0,0,0,0,0,0,0,0,0,0,0,0,0],"sum_hessian":[2.6117424E3,2.128133E3,4.836095E2,1.6112516E3,5.168815E2,4.603048E2,2.3304693E1,1.5711667E3,4.0084812E1,3.89827E2,1.2705449E2,1.4856042E2,3.117444E2,8.183387E0,1.5121306E1,1.119135E3,4.5203177E2,2.706844E1,1.3016374E1,3.76216E2,1.3610999E1,1.20635284E2,6.419207E0,1.2609436E2,2.2466063E1,9.457132E0,5.6641736E0,5.372554E2,5.818796E2,4.2321686E2,2.8814903E1,5.619386E0,2.1449055E1,5.524408E0,7.4919653E0,1.444146E2,2.318014E2,5.340949E0,1.15294334E2,2.9912365E1,9.6182E1,8.903402E0,1.356266E1],"tree_param":{"num_deleted":"0","num_feature":"60","num_nodes":"43","size_leaf_vector":"1"}},{"base_weights":[7.917763E-3,3.2774046E-1,-1.3586144E0,3.7172604E-1,-1.0959272E0,-0E0,-1.4019064E0,5.11402E-1,2.0546528E-2,-6.4940415E-2,-3.1932977E-1,-5.8676753E-2,5.112697E-2,-1.4371918E0,-3.5131723E-1,7.4460804E-1,3.7334782E-1,-7.8170694E-2,7.549671E-1,4.2080832E-1,-6.7062676E-2,-1.4947368E0,-1.2374783E0,2.5845546E-2,-3.962577E-2,3.0581163E-2,2.0935237E-3,2.0147212E-2,3.224382E-3,4.637314E-3,-2.0807823E-2,4.8347574E-2,1.4521889E-2,4.170893E-2,-5.7522124E-3,-5.3969603E-2,-6.246084E-2,8.919249E-3,-5.3417433E-2],"categories":[],"categories_nodes":[],"categories_segments":[],"categories_sizes":[],"default_left":[0,0,0,0,0,0,0,0,0,0,0,0,0,0,0,0,0,0,0,0,0,0,0,0,0,0,0,0,0,0,0,0,0,0,0,0,0,0,0],"id":15,"left_children":[1,3,5,7,9,11,13,15,17,-1,19,-1,-1,21,23,25,27,29,31,33,-1,35,37,-1,-1,-1,-1,-1,-1,-1,-1,-1,-1,-1,-1,-1,-1,-1,-1],"loss_changes":[1.1212623E3,1.3053642E2,2.8689575E1,9.890747E1,2.4894302E1,3.1842867E1,1.679718E1,4.6077637E1,4.184289E1,0E0,2.7556292E1,0E0,0E0,3.1156616E0,1.1349009E1,7.262146E0,3.457795E1,4.368681E1,1.1565605E1,6.5490427E0,0E0,9.8986816E-1,1.5882675E1,0E0,0E0,0E0,0E0,0E0,0E0,0E0,0E0,0E0,0E0,0E0,0E0,0E0,0E0,0E0,0E0],"parents":[2147483647,0,0,1,1,2,2,3,3,4,4,5,5,6,6,7,7,8,8,10,10,13,13,14,14,15,15,16,16,17,17,18,18,19,19,21,21,22,22],"right_children":[2,4,6,8,10,12,14,16,18,-1,20,-1,-1,22,24,26,28,30,32,34,-1,36,38,-1,-1,-1,-1,-1,-1,-1,-1,-1,-1,-1,-1,-1,-1,-1,-1],"split_conditions":[9E0,1E0,1E0,2E0,5E0,1E0,1.2E1,3.79E2,1E1,-6.4940415E-2,8E0,-5.8676753E-2,5.112697E-2,5E0,1E0,2E0,1E0,1E0,1E0,1E0,-6.7062676E-2,5.64E2,2E0,2.5845546E-2,-3.962577E-2,3.0581163E-2,2.0935237E-3,2.0147212E-2,3.224382E-3,4.637314E-3,-2.0807823E-2,4.8347574E-2,1.4521889E-2,4.170893E-2,-5.7522124E-3,-5.3969603E-2,-6.246084E-2,8.919249E-3,-5.3417433E-2],"split_indices":[7,22,0,1,48,18,48,4,48,0,37,0,0,1,44,8,44,44,44,44,0,4,8,0,0,0,0,0,0,0,0,0,0,0,0,0,0,0,0],"split_type":[0,0,0,0,0,0,0,0,0,0,0,0,0,0,0,0,0,0,0,0,0,0,0,0,0,0,0,0,0,0,0,0,0,0,0,0,0,0,0],"sum_hessian":[2.5637527E3,2.0782039E3,4.8554874E2,2.0167051E3,6.1498875E1,1.4988248E1,4.705605E2,1.4423088E3,5.743961E2,3.5894535E1,2.560434E1,6.8913326E0,8.096916E0,4.548215E2,1.5738995E1,5.3442365E2,9.0788525E2,5.070045E2,6.739166E1,1.696768E1,8.636661E0,3.476619E2,1.0715961E2,6.082391E0,9.656604E0,5.1923315E2,1.5190496E1,6.2746436E2,2.804209E2,3.5265628E2,1.5434819E2,3.0149115E1,3.7242554E1,7.755458E0,9.212221E0,1.16517105E2,2.3114479E2,6.5913496E0,1.0056826E2],"tree_param":{"num_deleted":"0","num_feature":"60","num_nodes":"39","size_leaf_vector":"1"}},{"base_weights":[2.096373E-2,3.211289E-1,-1.3621565E0,3.6878726E-1,-1.3032492E0,-1.4102777E0,-1.5687853E-1,5.514621E-1,4.9785595E-2,-1.5226122E0,1.286326E-2,-1.8476564E-2,-1.4334067E0,4.5259774E-1,-5.584974E-2,8.368962E-1,4.2638582E-1,-1.22039475E-1,5.084042E-1,-6.5927655E-2,-1.7845722E-2,-3.3320375E-2,-1.4420377E0,6.1741355E-3,3.0183133E-2,4.233996E-2,3.0133372E-2,1.3727351E-2,3.3276476E-2,-2.7481576E-3,-5.4051016E-2,4.080606E-2,1.0636382E-2,-5.893784E-2,-5.0063405E-2],"categories":[],"categories_nodes":[],"categories_segments":[],"categories_sizes":[],"default_left":[0,0,0,0,0,0,0,0,0,0,0,0,0,0,0,0,0,0,0,0,0,0,0,0,0,0,0,0,0,0,0,0,0,0,0],"id":16,"left_children":[1,3,5,7,9,11,13,15,17,19,-1,-1,21,23,-1,25,27,29,31,-1,-1,-1,33,-1,-1,-1,-1,-1,-1,-1,-1,-1,-1,-1,-1],"loss_changes":[1.068098E3,1.6405446E2,2.6229675E1,1.19648895E2,2.2145386E1,8.82019E0,1.494057E1,4.6151154E1,5.916172E1,6.282402E0,0E0,0E0,7.9888916E-1,9.918871E-1,0E0,6.3674927E0,3.0318954E1,3.5553036E1,2.499284E1,0E0,0E0,0E0,4.0899658E-1,0E0,0E0,0E0,0E0,0E0,0E0,0E0,0E0,0E0,0E0,0E0,0E0],"parents":[2147483647,0,0,1,1,2,2,3,3,4,4,5,5,6,6,7,7,8,8,9,9,12,12,13,13,15,15,16,16,17,17,18,18,22,22],"right_children":[2,4,6,8,10,12,14,16,18,20,-1,-1,22,24,-1,26,28,30,32,-1,-1,-1,34,-1,-1,-1,-1,-1,-1,-1,-1,-1,-1,-1,-1],"split_conditions":[9E0,1E0,1.2E1,2.55E1,1E0,1E0,2E0,2.3E1,6E0,1E0,1.286326E-2,-1.8476564E-2,2.2E1,4E0,-5.584974E-2,2.15E1,1E0,1.1E1,1E0,-6.5927655E-2,-1.7845722E-2,-3.3320375E-2,1E0,6.1741355E-3,3.0183133E-2,4.233996E-2,3.0133372E-2,1.3727351E-2,3.3276476E-2,-2.7481576E-3,-5.4051016E-2,4.080606E-2,1.0636382E-2,-5.893784E-2,-5.0063405E-2],"split_indices":[7,22,48,6,10,0,8,6,48,26,0,0,6,14,0,6,10,8,55,0,0,0,11,0,0,0,0,0,0,0,0,0,0,0,0],"split_type":[0,0,0,0,0,0,0,0,0,0,0,0,0,0,0,0,0,0,0,0,0,0,0,0,0,0,0,0,0,0,0,0,0,0,0],"sum_hessian":[2.5709072E3,2.1131506E3,4.5775647E2,2.05373E3,5.9420746E1,4.399387E2,1.7817785E1,1.305245E3,7.484849E2,5.246242E1,6.958322E0,1.107613E1,4.2886258E2,1.2315555E1,5.50223E0,3.9571082E2,9.095342E2,5.448634E2,2.0362152E2,4.6422802E1,6.0396185E0,7.6238456E0,4.212387E2,7.1229844E0,5.1925707E0,1.04833206E2,2.9087762E2,7.564299E2,1.5310431E2,5.232953E2,2.1568106E1,6.430227E1,1.3931924E2,3.5537134E2,6.5867386E1],"tree_param":{"num_deleted":"0","num_feature":"60","num_nodes":"35","size_leaf_vector":"1"}},{"base_weights":[1.3293158E-2,3.1060106E-1,-1.3155721E0,5.424494E-1,-3.5699213E-1,-1.3605099E0,-2.2579937E-1,6.239178E-1,-1.6148844E-1,7.1509534E-1,-5.359577E-1,-1.3887504E0,-1.0379881E0,1.9859867E-2,-3.3772428E-2,7.4167615E-1,3.590957E-1,-1.4711023E-2,-6.663083E-2,9.0163565E-1,3.7880775E-1,-7.047723E-1,4.0337794E-2,-1.2001307E0,-5.8641978E-2,1.1340582E-2,-1.2461852E0,2.4645576E-2,3.960596E-2,7.27552E-4,2.2275409E-2,3.9435187E-3,-5.7245713E-2,4.4184122E-2,1.7534385E-2,2.8509948E-2,-2.9667135E-2,-3.569613E-2,-6.8582795E-3,-3.184504E-3,4.7092505E-2,-2.892378E-2,-5.927372E-2,-1.5464154E-2,-5.612793E-2],"categories":[],"categories_nodes":[],"categories_segments":[],"categories_sizes":[],"default_left":[0,0,0,0,0,0,0,0,0,0,0,0,0,0,0,0,0,0,0,0,0,0,0,0,0,0,0,0,0,0,0,0,0,0,0,0,0,0,0,0,0,0,0,0,0],"id":17,"left_children":[1,3,5,7,9,11,13,15,17,19,21,23,25,-1,-1,27,29,31,-1,33,35,37,39,41,-1,-1,43,-1,-1,-1,-1,-1,-1,-1,-1,-1,-1,-1,-1,-1,-1,-1,-1,-1,-1],"loss_changes":[9.926722E2,3.1804443E2,2.2029541E1,8.75827E1,1.020174E2,2.3312988E0,9.156091E0,4.2247925E1,3.48727E1,4.3066444E0,4.432814E1,3.8371582E0,1.138332E1,0E0,0E0,2.870343E1,2.8448078E1,2.3666756E1,0E0,3.8802834E0,1.1407241E1,3.494847E1,1.4362885E1,1.5208557E1,0E0,0E0,3.9458923E0,0E0,0E0,0E0,0E0,0E0,0E0,0E0,0E0,0E0,0E0,0E0,0E0,0E0,0E0,0E0,0E0,0E0,0E0],"parents":[2147483647,0,0,1,1,2,2,3,3,4,4,5,5,6,6,7,7,8,8,9,9,10,10,11,11,12,12,15,15,16,16,17,17,19,19,20,20,21,21,22,22,23,23,26,26],"right_children":[2,4,6,8,10,12,14,16,18,20,22,24,26,-1,-1,28,30,32,-1,34,36,38,40,42,-1,-1,44,-1,-1,-1,-1,-1,-1,-1,-1,-1,-1,-1,-1,-1,-1,-1,-1,-1,-1],"split_conditions":[9E0,9E0,1.2E1,2.72E1,2.25E1,1E1,5.432E2,1E0,1.3E1,1E0,1E0,5.64E2,8.44E2,1.9859867E-2,-3.3772428E-2,4E0,5E0,1E0,-6.663083E-2,3.89E2,1E0,9.24E2,1.6E1,9E0,-5.8641978E-2,1.1340582E-2,2.7E1,2.4645576E-2,3.960596E-2,7.27552E-4,2.2275409E-2,3.9435187E-3,-5.7245713E-2,4.4184122E-2,1.7534385E-2,2.8509948E-2,-2.9667135E-2,-3.569613E-2,-6.8582795E-3,-3.184504E-3,4.7092505E-2,-2.892378E-2,-5.927372E-2,-1.5464154E-2,-5.612793E-2],"split_indices":[7,5,48,6,6,1,4,44,1,1,18,4,4,0,0,48,48,22,0,4,44,4,37,5,0,0,6,0,0,0,0,0,0,0,0,0,0,0,0,0,0,0,0,0,0],"split_type":[0,0,0,0,0,0,0,0,0,0,0,0,0,0,0,0,0,0,0,0,0,0,0,0,0,0,0,0,0,0,0,0,0,0,0,0,0,0,0,0,0,0,0,0,0],"sum_hessian":[2.5107917E3,2.0524397E3,4.5835214E2,1.523634E3,5.2880554E2,4.3987335E2,1.8478779E1,1.3658202E3,1.5781387E2,7.5138176E1,4.5366736E2,4.0113354E2,3.8739834E1,8.540636E0,9.938143E0,9.439128E2,4.2190738E2,1.4476497E2,1.3048904E1,4.7056953E1,2.8081226E1,3.5084476E2,1.0282259E2,1.2178413E2,2.793494E2,5.1580057E0,3.3581825E1,6.296666E2,3.142462E2,1.5549545E2,2.6641196E2,1.3483911E2,9.925852E0,3.1608612E1,1.5448339E1,2.1982788E1,6.0984383E0,2.5889832E2,9.1946434E1,9.3771736E1,9.050855E0,4.6672764E1,7.511137E1,5.819828E0,2.7762E1],"tree_param":{"num_deleted":"0","num_feature":"60","num_nodes":"45","size_leaf_vector":"1"}},{"base_weights":[-7.1688456E-4,2.863236E-1,-1.305415E0,5.0238764E-1,-6.92457E-2,-1.3511407E0,-1.9696353E-1,6.3135016E-1,2.2615668E-1,-2.4729276E-3,-1.3442861E0,-4.8912874E-1,-1.3742377E0,3.118064E-1,-5.3463E-2,4.002376E-1,8.1123555E-1,6.33652E-1,4.3480735E-2,-1.5652153E-1,5.556137E-1,-3.2871272E-3,-6.134816E-2,2.672928E-2,-5.3695545E-2,-2.3904834E-2,-1.384678E0,3.302103E-2,-4.4972133E-3,2.4022251E-2,6.919997E-3,3.5181127E-2,1.7105114E-2,6.461596E-3,3.2747667E-2,1.0943172E-2,-8.103155E-3,-4.0032063E-3,-5.468365E-2,4.280027E-2,5.8401544E-3,-5.770382E-2,-4.8450906E-2],"categories":[],"categories_nodes":[],"categories_segments":[],"categories_sizes":[],"default_left":[0,0,0,0,0,0,0,0,0,0,0,0,0,0,0,0,0,0,0,0,0,0,0,0,0,0,0,0,0,0,0,0,0,0,0,0,0,0,0,0,0,0,0],"id":18,"left_children":[1,3,5,7,9,11,13,15,17,19,21,23,25,27,-1,29,31,33,35,37,39,-1,-1,-1,-1,-1,41,-1,-1,-1,-1,-1,-1,-1,-1,-1,-1,-1,-1,-1,-1,-1,-1],"loss_changes":[9.3794305E2,1.5776956E2,2.247113E1,4.5264496E1,6.59745E1,7.7724E0,1.1622873E1,3.5714844E1,3.0295261E1,6.3577892E1,8.932274E0,1.3780509E1,2.3921509E0,3.2131124E0,0E0,1.724873E1,1.2274597E1,1.0787952E1,1.6092913E1,3.934806E1,3.341997E1,0E0,0E0,0E0,0E0,0E0,2.1556396E0,0E0,0E0,0E0,0E0,0E0,0E0,0E0,0E0,0E0,0E0,0E0,0E0,0E0,0E0,0E0,0E0],"parents":[2147483647,0,0,1,1,2,2,3,3,4,4,5,5,6,6,7,7,8,8,9,9,10,10,11,11,12,12,13,13,15,15,16,16,17,17,18,18,19,19,20,20,26,26],"right_children":[2,4,6,8,10,12,14,16,18,20,22,24,26,28,-1,30,32,34,36,38,40,-1,-1,-1,-1,-1,42,-1,-1,-1,-1,-1,-1,-1,-1,-1,-1,-1,-1,-1,-1,-1,-1],"split_conditions":[9E0,2.52E1,1.2E1,1E0,5E0,1E0,2E0,2E0,2.3E1,7E0,4E2,7.49E2,2.2E1,1E0,-5.3463E-2,2.4E1,6E0,5E0,3E0,1.1E1,1E0,-3.2871272E-3,-6.134816E-2,2.672928E-2,-5.3695545E-2,-2.3904834E-2,1E0,3.302103E-2,-4.4972133E-3,2.4022251E-2,6.919997E-3,3.5181127E-2,1.7105114E-2,6.461596E-3,3.2747667E-2,1.0943172E-2,-8.103155E-3,-4.0032063E-3,-5.468365E-2,4.280027E-2,5.8401544E-3,-5.770382E-2,-4.8450906E-2],"split_indices":[7,6,48,44,31,0,8,48,6,48,4,4,6,44,0,6,0,37,0,8,44,0,0,0,0,0,20,0,0,0,0,0,0,0,0,0,0,0,0,0,0,0,0],"split_type":[0,0,0,0,0,0,0,0,0,0,0,0,0,0,0,0,0,0,0,0,0,0,0,0,0,0,0,0,0,0,0,0,0,0,0,0,0,0,0,0,0,0,0],"sum_hessian":[2.5022424E3,2.0515864E3,4.5065598E2,1.276053E3,7.7553357E2,4.3250516E2,1.8150814E1,8.687953E2,4.072577E2,7.379672E2,3.7566345E1,1.1977907E1,4.2052725E2,1.2990126E1,5.160689E0,3.819087E2,4.8688657E2,1.2512505E2,2.8213263E2,5.79035E2,1.5893225E2,5.1582537E0,3.2408092E1,5.1254306E0,6.852477E0,6.47793E0,4.1404932E2,5.5542045E0,7.4359207E0,2.0186981E2,1.8003888E2,4.1198807E2,7.489851E1,3.5912083E1,8.921297E1,1.4594714E2,1.3618549E2,5.543542E2,2.4680826E1,6.963162E1,8.930064E1,3.044626E2,1.0958673E2],"tree_param":{"num_deleted":"0","num_feature":"60","num_nodes":"43","size_leaf_vector":"1"}},{"base_weights":[2.491642E-2,3.3934122E-1,-7.0454836E-1,5.873759E-1,-1.5716897E-1,2.7863732E-1,-8.2101536E-1,7.9283947E-1,4.0409327E-1,2.9131794E-1,-3.80099E-1,4.6924907E-1,-0E0,-3.2945067E-1,-9.554961E-1,8.155439E-1,-5.2799735E-2,4.3433243E-1,-1.1602685E0,-1.0030882E-1,4.7588435E-1,-5.073861E-1,5.412706E-1,3.116783E-1,4.961427E-2,-3.3533245E-1,4.8816588E-2,-8.916952E-2,-1.3276688E0,-1.0135487E0,-2.8511444E-1,3.92516E-2,2.7278403E-2,1.47326775E-2,4.3671392E-2,-2.2180459E-2,-6.205924E-2,3.927629E-3,-7.842525E-2,3.481551E-2,9.740608E-3,-1.47672305E-2,-6.080569E-2,3.0952524E-2,-1.5066564E-2,2.2581121E-2,-9.684568E-3,6.285945E-3,-3.7894588E-2,-9.076303E-3,3.5435464E-2,-2.5416132E-2,-6.3148685E-2,-3.1158188E-2,-4.7987737E-2,8.988367E-4,-6.56674E-2],"categories":[],"categories_nodes":[],"categories_segments":[],"categories_sizes":[],"default_left":[0,0,0,0,0,0,0,0,0,0,0,0,0,0,0,0,0,0,0,0,0,0,0,0,0,0,0,0,0,0,0,0,0,0,0,0,0,0,0,0,0,0,0,0,0,0,0,0,0,0,0,0,0,0,0,0,0],"id":19,"left_children":[1,3,5,7,9,11,13,15,17,19,21,23,25,27,29,31,-1,33,35,37,39,41,43,45,-1,47,-1,49,51,53,55,-1,-1,-1,-1,-1,-1,-1,-1,-1,-1,-1,-1,-1,-1,-1,-1,-1,-1,-1,-1,-1,-1,-1,-1,-1,-1],"loss_changes":[5.746364E2,2.1576093E2,8.669052E1,4.3542603E1,5.8502655E1,4.2704015E0,4.4179382E1,2.7379211E1,2.9741264E1,1.4129694E1,4.6084656E1,5.26663E0,1.4247607E1,3.492307E1,2.0181335E1,1.1213226E1,0E0,2.5867828E1,1.7632027E0,2.3602858E1,1.1814827E1,4.7375633E1,1.0535482E1,5.9291286E0,0E0,8.445885E0,0E0,1.6168186E1,3.6948013E0,2.011737E1,1.843885E1,0E0,0E0,0E0,0E0,0E0,0E0,0E0,0E0,0E0,0E0,0E0,0E0,0E0,0E0,0E0,0E0,0E0,0E0,0E0,0E0,0E0,0E0,0E0,0E0,0E0,0E0],"parents":[2147483647,0,0,1,1,2,2,3,3,4,4,5,5,6,6,7,7,8,8,9,9,10,10,11,11,12,12,13,13,14,14,15,15,17,17,18,18,19,19,20,20,21,21,22,22,23,23,25,25,27,27,28,28,29,29,30,30],"right_children":[2,4,6,8,10,12,14,16,18,20,22,24,26,28,30,32,-1,34,36,38,40,42,44,46,-1,48,-1,50,52,54,56,-1,-1,-1,-1,-1,-1,-1,-1,-1,-1,-1,-1,-1,-1,-1,-1,-1,-1,-1,-1,-1,-1,-1,-1,-1,-1],"split_conditions":[9E0,2E0,2.25E1,5.15E2,2.55E1,1E0,2E0,1E0,2.72E1,3E0,9E0,9E0,1E0,2E0,1E1,2.35E1,-5.2799735E-2,1E0,9E0,4E0,1E0,1.1E1,1.634E3,3.89E2,4.961427E-2,3E0,4.8816588E-2,6E0,3E0,2.57E1,1E0,3.92516E-2,2.7278403E-2,1.47326775E-2,4.3671392E-2,-2.2180459E-2,-6.205924E-2,3.927629E-3,-7.842525E-2,3.481551E-2,9.740608E-3,-1.47672305E-2,-6.080569E-2,3.0952524E-2,-1.5066564E-2,2.2581121E-2,-9.684568E-3,6.285945E-3,-3.7894588E-2,-9.076303E-3,3.5435464E-2,-2.5416132E-2,-6.3148685E-2,-3.1158188E-2,-4.7987737E-2,8.988367E-4,-6.56674E-2],"split_indices":[5,1,6,4,6,1,0,22,6,0,48,48,45,1,48,6,0,45,0,1,56,8,4,4,0,48,0,14,14,6,40,0,0,0,0,0,0,0,0,0,0,0,0,0,0,0,0,0,0,0,0,0,0,0,0,0,0],"split_type":[0,0,0,0,0,0,0,0,0,0,0,0,0,0,0,0,0,0,0,0,0,0,0,0,0,0,0,0,0,0,0,0,0,0,0,0,0,0,0,0,0,0,0,0,0,0,0,0,0,0,0,0,0,0,0,0,0],"sum_hessian":[2.5034875E3,1.7498939E3,7.5359357E2,1.1669537E3,5.8294025E2,7.9576614E1,6.7401697E2,5.483597E2,6.1859406E2,1.933024E2,3.8963785E2,4.6804375E1,3.277224E1,1.4568626E2,5.283307E2,5.4318396E2,5.1757007E0,6.076347E2,1.0959321E1,6.1891376E1,1.3141103E2,3.428333E2,4.680453E1,4.0136604E1,6.6677713E0,2.6264751E1,6.5074883E0,1.1838041E2,2.730585E1,4.8561697E2,4.271372E1,2.3924393E2,3.0394006E2,5.5374493E2,5.3889797E1,5.3493586E0,5.6099625E0,5.6731495E1,5.1598816E0,4.7534145E1,8.387688E1,3.029541E2,3.9879227E1,3.7556263E1,9.248268E0,2.7666061E1,1.2470543E1,1.4875111E1,1.1389641E1,1.04489845E2,1.3890564E1,8.31276E0,1.8993088E1,2.1737997E2,2.6823703E2,3.5560535E1,7.153185E0],"tree_param":{"num_deleted":"0","num_feature":"60","num_nodes":"57","size_leaf_vector":"1"}},{"base_weights":[-7.4111405E-3,3.0295393E-1,-7.2562695E-1,5.6098485E-1,-2.2147158E-1,2.4880263E-1,-8.3042884E-1,5.862582E-1,-1.0486758E0,4.5300505E-1,-3.570055E-1,1.5385588E-1,3.9544996E-2,-6.327563E-1,-1.0841212E0,6.2696236E-1,-1.1424632E-1,-5.4866318E-2,-6.7126728E-3,6.7889977E-1,-8.34604E-2,-4.687493E-1,4.9097675E-1,3.996043E-1,-1.5761973E-1,-5.039831E-1,-1.14949E0,2.5904775E-2,-1.1265914E0,3.3569794E-2,2.0657577E-2,8.670023E-3,-3.280329E-2,8.732513E-3,3.4761842E-2,1.5432661E-2,-7.2274014E-2,-2.2891369E-2,1.47718545E-2,4.297163E-2,9.184923E-3,9.558891E-3,3.6120914E-2,1.2808261E-2,-4.672363E-2,-3.4719896E-2,-9.878658E-3,-5.4461904E-2,-1.8084403E-2,-4.7377545E-2,6.7198053E-3],"categories":[],"categories_nodes":[],"categories_segments":[],"categories_sizes":[],"default_left":[0,0,0,0,0,0,0,0,0,0,0,0,0,0,0,0,0,0,0,0,0,0,0,0,0,0,0,0,0,0,0,0,0,0,0,0,0,0,0,0,0,0,0,0,0,0,0,0,0,0,0],"id":20,"left_children":[1,3,5,7,9,11,13,15,17,19,21,23,-1,25,27,29,31,-1,-1,33,35,37,39,41,43,45,47,-1,49,-1,-1,-1,-1,-1,-1,-1,-1,-1,-1,-1,-1,-1,-1,-1,-1,-1,-1,-1,-1,-1,-1],"loss_changes":[5.4523505E2,2.3124437E2,7.564053E1,4.714804E1,5.1686737E1,4.8158956E0,3.2578156E1,3.2285614E1,4.7360134E0,1.1585791E1,4.4773216E1,5.095228E0,0E0,2.4366104E1,2.2133759E1,2.444928E1,1.4876196E1,0E0,0E0,5.555464E0,2.4134146E1,3.6325127E1,8.0259695E0,2.664781E0,1.4650255E1,2.811792E1,1.0197792E1,0E0,2.1557098E1,0E0,0E0,0E0,0E0,0E0,0E0,0E0,0E0,0E0,0E0,0E0,0E0,0E0,0E0,0E0,0E0,0E0,0E0,0E0,0E0,0E0,0E0],"parents":[2147483647,0,0,1,1,2,2,3,3,4,4,5,5,6,6,7,7,8,8,9,9,10,10,11,11,13,13,14,14,15,15,16,16,19,19,20,20,21,21,22,22,23,23,24,24,25,25,26,26,28,28],"right_children":[2,4,6,8,10,12,14,16,18,20,22,24,-1,26,28,30,32,-1,-1,34,36,38,40,42,44,46,48,-1,50,-1,-1,-1,-1,-1,-1,-1,-1,-1,-1,-1,-1,-1,-1,-1,-1,-1,-1,-1,-1,-1,-1],"split_conditions":[9E0,2E0,2.25E1,5E0,2.42E1,1E0,2.57E1,1.149E3,1E0,3E0,1E1,1E0,3.9544996E-2,2E0,1E0,2.35E1,2.57E1,-5.4866318E-2,-6.7126728E-3,2E0,1E0,1E0,1E0,7E0,1E0,2E0,1E0,2.5904775E-2,1.3E1,3.3569794E-2,2.0657577E-2,8.670023E-3,-3.280329E-2,8.732513E-3,3.4761842E-2,1.5432661E-2,-7.2274014E-2,-2.2891369E-2,1.47718545E-2,4.297163E-2,9.184923E-3,9.558891E-3,3.6120914E-2,1.2808261E-2,-4.672363E-2,-3.4719896E-2,-9.878658E-3,-5.4461904E-2,-1.8084403E-2,-4.7377545E-2,6.7198053E-3],"split_indices":[5,1,6,31,6,45,6,4,10,1,48,1,0,55,0,6,6,0,0,8,17,10,55,37,55,37,39,0,48,0,0,0,0,0,0,0,0,0,0,0,0,0,0,0,0,0,0,0,0,0,0],"split_type":[0,0,0,0,0,0,0,0,0,0,0,0,0,0,0,0,0,0,0,0,0,0,0,0,0,0,0,0,0,0,0,0,0,0,0,0,0,0,0,0,0,0,0,0,0,0,0,0,0,0,0],"sum_hessian":[2.4438215E3,1.7067268E3,7.370948E2,1.14398E3,5.627468E2,7.135164E1,6.6574316E2,1.1269832E3,1.6996895E1,9.364546E1,4.6910135E2,6.442645E1,6.9251833E0,3.7637042E2,2.8937274E2,1.0653279E3,6.1655224E1,1.1945984E1,5.0509105E0,6.584174E1,2.7803726E1,4.149818E2,5.4119553E1,3.6034233E1,2.8392221E1,3.0302383E2,7.334657E1,6.529434E0,2.828433E2,3.621824E2,7.031455E2,4.2347767E1,1.9307453E1,2.0020523E1,4.5821217E1,2.2417557E1,5.386169E0,3.6973944E2,4.524237E1,1.5664629E1,3.8454926E1,2.8586214E1,7.4480166E0,1.9673344E1,8.718879E0,1.24263016E2,1.7876082E2,5.540376E1,1.7942816E1,2.7090073E2,1.194257E1],"tree_param":{"num_deleted":"0","num_feature":"60","num_nodes":"51","size_leaf_vector":"1"}},{"base_weights":[1.0007347E-2,2.811229E-1,-1.2344011E0,5.1632273E-1,-4.4279328E-1,3.380617E-2,-1.2686336E0,5.499168E-1,-7.903612E-1,3.9924912E-2,-6.464327E-1,-2.4324986E-3,-1.3155144E0,5.7205105E-1,-9.280554E-1,-5.7152186E-2,2.6309907E-2,1.7156044E-1,-8.723212E-1,4.4665566E-1,-7.1723014E-1,-5.489895E-2,5.0664272E-2,-1.3410586E0,-4.6403652E-1,3.4932453E-2,2.010171E-2,-7.120298E-2,2.8450374E-2,-3.2725155E-2,3.869652E-2,9.8374E-3,-2.8234055E-2,-1.7216403E-2,-6.344502E-2,-5.0026504E-3,3.138372E-2,-3.230173E-2,1.4616713E-3,-5.6049637E-2,-4.6418197E-2,2.1420598E-2,-5.6999188E-2],"categories":[],"categories_nodes":[],"categories_segments":[],"categories_sizes":[],"default_left":[0,0,0,0,0,0,0,0,0,0,0,0,0,0,0,0,0,0,0,0,0,0,0,0,0,0,0,0,0,0,0,0,0,0,0,0,0,0,0,0,0,0,0],"id":21,"left_children":[1,3,5,7,9,-1,11,13,15,17,19,21,23,25,27,-1,29,31,33,35,37,-1,-1,39,41,-1,-1,-1,-1,-1,-1,-1,-1,-1,-1,-1,-1,-1,-1,-1,-1,-1,-1],"loss_changes":[8.244943E2,3.4194293E2,3.22359E1,6.692877E1,4.850734E1,0E0,2.5421753E1,4.88468E1,2.015648E1,1.7725046E1,2.7172958E1,3.0348377E1,8.225403E0,2.993103E1,3.2272762E1,0E0,1.4892751E1,8.568245E0,4.982278E0,4.340382E0,2.230075E1,0E0,0E0,2.4909668E0,1.4042713E1,0E0,0E0,0E0,0E0,0E0,0E0,0E0,0E0,0E0,0E0,0E0,0E0,0E0,0E0,0E0,0E0,0E0,0E0],"parents":[2147483647,0,0,1,1,2,2,3,3,4,4,6,6,7,7,8,8,9,9,10,10,11,11,12,12,13,13,14,14,16,16,17,17,18,18,19,19,20,20,23,23,24,24],"right_children":[2,4,6,8,10,-1,12,14,16,18,20,22,24,26,28,-1,30,32,34,36,38,-1,-1,40,42,-1,-1,-1,-1,-1,-1,-1,-1,-1,-1,-1,-1,-1,-1,-1,-1,-1,-1],"split_conditions":[9E0,9E0,2.05E1,1E0,2E0,3.380617E-2,1E0,1.1E1,5E0,2E0,2.25E1,1E0,1.2E1,2.3E1,1.1E1,-5.7152186E-2,1E0,1E0,4E0,5E0,1E1,-5.489895E-2,5.0664272E-2,1E0,1.3E1,3.4932453E-2,2.010171E-2,-7.120298E-2,2.8450374E-2,-3.2725155E-2,3.869652E-2,9.8374E-3,-2.8234055E-2,-1.7216403E-2,-6.344502E-2,-5.0026504E-3,3.138372E-2,-3.230173E-2,1.4616713E-3,-5.6049637E-2,-4.6418197E-2,2.1420598E-2,-5.6999188E-2],"split_indices":[7,5,6,22,0,0,0,1,48,1,6,18,48,6,37,0,33,43,56,37,48,0,0,20,48,0,0,0,0,0,0,0,0,0,0,0,0,0,0,0,0,0,0],"split_type":[0,0,0,0,0,0,0,0,0,0,0,0,0,0,0,0,0,0,0,0,0,0,0,0,0,0,0,0,0,0,0,0,0,0,0,0,0,0,0,0,0,0,0],"sum_hessian":[2.4420803E3,2.0059125E3,4.3616772E2,1.514332E3,4.915805E2,6.6327453E0,4.2953497E2,1.4770145E3,3.7317432E1,1.459427E2,3.4563782E2,1.5449332E1,4.1408563E2,1.4558916E3,2.112299E1,2.0592152E1,1.6725283E1,1.2834439E2,1.7598316E1,2.061578E1,3.2502203E2,7.4277287E0,8.021604E0,4.013527E2,1.2732952E1,2.7049963E2,1.185392E3,1.3882711E1,7.2402773E0,8.8282385E0,7.897044E0,1.1908382E2,9.260568E0,1.1945818E1,5.6524973E0,7.7828193E0,1.283296E1,2.9030093E2,3.4721085E1,2.9555347E2,1.0579923E2,6.4070935E0,6.3258586E0],"tree_param":{"num_deleted":"0","num_feature":"60","num_nodes":"43","size_leaf_vector":"1"}},{"base_weights":[2.0836763E-2,2.8151926E-1,-5.752226E-1,4.012378E-1,-5.251012E-1,3.3735535E-1,-6.805998E-1,4.7565305E-1,-8.303426E-2,-3.0035487E-1,-5.9378956E-2,8.4827435E-1,1.0634038E-1,-2.5554907E-1,-7.999796E-1,5.840774E-1,2.4095164E-1,-1.1975747E0,1.8092944E-1,-4.3755934E-1,9.357329E-1,6.636697E-1,4.7688387E-2,2.782932E-1,-2.1913141E-2,-1.7748506E-1,-5.813058E-2,-1.0798578E0,-5.864747E-1,2.4714708E-2,-7.880138E-3,4.7036707E-3,3.4183405E-2,4.169238E-2,-6.613092E-2,2.9579082E-3,3.166929E-2,-5.1078815E-2,-9.734604E-3,4.63427E-2,1.2363581E-2,4.3852586E-2,6.0399272E-3,1.05974E-6,3.810215E-2,-1.0597434E-2,3.7831392E-2,-3.709611E-2,-5.8838524E-2,-2.1191319E-3,-3.9115682E-2],"categories":[],"categories_nodes":[],"categories_segments":[],"categories_sizes":[],"default_left":[0,0,0,0,0,0,0,0,0,0,0,0,0,0,0,0,0,0,0,0,0,0,0,0,0,0,0,0,0,0,0,0,0,0,0,0,0,0,0,0,0,0,0,0,0,0,0,0,0,0,0],"id":22,"left_children":[1,3,5,7,9,11,13,15,17,19,-1,21,23,25,27,29,31,33,35,37,39,41,-1,43,-1,45,-1,47,49,-1,-1,-1,-1,-1,-1,-1,-1,-1,-1,-1,-1,-1,-1,-1,-1,-1,-1,-1,-1,-1,-1],"loss_changes":[3.7748126E2,1.634336E2,7.134343E1,5.3146835E1,4.6549454E1,8.912698E0,3.3335114E1,3.2267273E1,5.8221386E1,3.0649426E1,0E0,5.294533E-1,6.2404127E0,1.3327436E1,3.009436E1,2.3187225E1,3.0493301E1,4.0460415E1,1.0305151E1,2.5864662E1,2.0211096E0,3.6761742E0,0E0,8.128395E0,0E0,1.386256E1,0E0,1.1653137E1,6.1587555E1,0E0,0E0,0E0,0E0,0E0,0E0,0E0,0E0,0E0,0E0,0E0,0E0,0E0,0E0,0E0,0E0,0E0,0E0,0E0,0E0,0E0,0E0],"parents":[2147483647,0,0,1,1,2,2,3,3,4,4,5,5,6,6,7,7,8,8,9,9,11,11,12,12,13,13,14,14,15,15,16,16,17,17,18,18,19,19,20,20,21,21,23,23,25,25,27,27,28,28],"right_children":[2,4,6,8,10,12,14,16,18,20,-1,22,24,26,28,30,32,34,36,38,40,42,-1,44,-1,46,-1,48,50,-1,-1,-1,-1,-1,-1,-1,-1,-1,-1,-1,-1,-1,-1,-1,-1,-1,-1,-1,-1,-1,-1],"split_conditions":[9E0,2.72E1,2.25E1,1E0,1E1,2.1E1,2E0,1E0,3E0,1.3E1,-5.9378956E-2,9E0,3.89E2,1E0,1E0,1.449E3,1E0,2.05E1,1.1E1,7.222E2,1.099E3,3E0,4.7688387E-2,1E0,-2.1913141E-2,1.3E1,-5.813058E-2,1E0,1E0,2.4714708E-2,-7.880138E-3,4.7036707E-3,3.4183405E-2,4.169238E-2,-6.613092E-2,2.9579082E-3,3.166929E-2,-5.1078815E-2,-9.734604E-3,4.63427E-2,1.2363581E-2,4.3852586E-2,6.0399272E-3,1.05974E-6,3.810215E-2,-1.0597434E-2,3.7831392E-2,-3.709611E-2,-5.8838524E-2,-2.1191319E-3,-3.9115682E-2],"split_indices":[5,6,6,13,8,6,0,44,8,48,0,37,4,22,58,4,45,6,37,4,4,37,0,47,0,48,0,13,44,0,0,0,0,0,0,0,0,0,0,0,0,0,0,0,0,0,0,0,0,0,0],"split_type":[0,0,0,0,0,0,0,0,0,0,0,0,0,0,0,0,0,0,0,0,0,0,0,0,0,0,0,0,0,0,0,0,0,0,0,0,0,0,0,0,0,0,0,0,0,0,0,0,0,0,0],"sum_hessian":[2.4275186E3,1.6893766E3,7.381419E2,1.47159E3,2.1778667E2,7.6085236E1,6.6205664E2,1.2757736E3,1.9581642E2,1.7759897E2,4.0187702E1,2.2723812E1,5.336142E1,1.4604459E2,5.160121E2,8.7133203E2,4.0444153E2,3.6891304E1,1.5892511E2,1.6050949E2,1.7089474E1,1.6882599E1,5.841213E0,4.2830563E1,1.0530858E1,1.3826454E2,7.7800474E0,2.2133868E2,2.946734E2,8.355235E2,3.5808548E1,3.378729E2,6.656862E1,5.9818964E0,3.0909407E1,1.3633151E2,2.2593597E1,2.9012276E1,1.3149722E2,1.1862674E1,5.226799E0,8.432714E0,8.449883E0,3.1131128E1,1.1699435E1,1.2906918E2,9.195357E0,1.6186838E2,5.947031E1,1.2529241E2,1.6938098E2],"tree_param":{"num_deleted":"0","num_feature":"60","num_nodes":"51","size_leaf_vector":"1"}},{"base_weights":[-1.7799346E-3,2.6773122E-1,-1.2421815E0,4.6839654E-1,-2.805604E-1,3.7055604E-2,-1.2766848E0,5.0331706E-1,-9.4312316E-1,-5.4793596E-1,2.996777E-1,-8.6615086E-2,-1.3101132E0,5.2408856E-1,-1.2391121E0,-5.7112653E-2,-4.437309E-2,-8.663568E-1,-3.2721418E-1,4.923862E-1,1.7506545E-2,4.6734978E-2,-5.2302193E-2,-1.3349195E0,-5.4624665E-1,2.5380678E-2,1.11495815E-2,-1.436284E-2,-6.317132E-2,3.4762196E-2,-2.8298276E-2,-4.4927802E-2,-1.8955946E-2,5.3183436E-3,-2.6929997E-2,1.0405815E-2,3.2392036E-2,-2.8967636E-2,1.6863208E-2,-4.70932E-2,-5.5626545E-2,3.1011717E-2,-5.645691E-2],"categories":[],"categories_nodes":[],"categories_segments":[],"categories_sizes":[],"default_left":[0,0,0,0,0,0,0,0,0,0,0,0,0,0,0,0,0,0,0,0,0,0,0,0,0,0,0,0,0,0,0,0,0,0,0,0,0,0,0,0,0,0,0],"id":23,"left_children":[1,3,5,7,9,-1,11,13,15,17,19,21,23,25,27,-1,29,31,33,35,37,-1,-1,39,41,-1,-1,-1,-1,-1,-1,-1,-1,-1,-1,-1,-1,-1,-1,-1,-1,-1,-1],"loss_changes":[8.024422E2,2.1707187E2,3.327649E1,7.160022E1,8.221789E1,0E0,1.6543701E1,5.1600006E1,1.5095808E1,2.5068909E1,9.038472E0,2.0983652E1,6.8616333E0,3.7496857E1,4.282751E0,0E0,8.723703E0,1.41838455E1,3.4513077E1,6.9928665E0,2.0997807E1,0E0,0E0,1.5916748E0,1.8001822E1,0E0,0E0,0E0,0E0,0E0,0E0,0E0,0E0,0E0,0E0,0E0,0E0,0E0,0E0,0E0,0E0,0E0,0E0],"parents":[2147483647,0,0,1,1,2,2,3,3,4,4,6,6,7,7,8,8,9,9,10,10,11,11,12,12,13,13,14,14,16,16,17,17,18,18,19,19,20,20,23,23,24,24],"right_children":[2,4,6,8,10,-1,12,14,16,18,20,22,24,26,28,-1,30,32,34,36,38,-1,-1,40,42,-1,-1,-1,-1,-1,-1,-1,-1,-1,-1,-1,-1,-1,-1,-1,-1,-1,-1],"split_conditions":[9E0,9E0,2.05E1,1E0,1E0,3.7055604E-2,1E0,1.4E1,6E0,1E0,3E0,5.39E2,1.2E1,1E0,1.184E3,-5.7112653E-2,1E0,8.14E2,1E0,5E0,4E0,4.6734978E-2,-5.2302193E-2,5.64E2,1E0,2.5380678E-2,1.11495815E-2,-1.436284E-2,-6.317132E-2,3.4762196E-2,-2.8298276E-2,-4.4927802E-2,-1.8955946E-2,5.3183436E-3,-2.6929997E-2,1.0405815E-2,3.2392036E-2,-2.8967636E-2,1.6863208E-2,-4.70932E-2,-5.5626545E-2,3.1011717E-2,-5.645691E-2],"split_indices":[7,5,6,22,18,0,0,8,48,58,14,4,48,44,4,0,44,4,44,48,14,0,0,4,44,0,0,0,0,0,0,0,0,0,0,0,0,0,0,0,0,0,0],"split_type":[0,0,0,0,0,0,0,0,0,0,0,0,0,0,0,0,0,0,0,0,0,0,0,0,0,0,0,0,0,0,0,0,0,0,0,0,0,0,0,0,0,0,0],"sum_hessian":[2.3980642E3,1.9706008E3,4.2746338E2,1.4428651E3,5.277357E2,6.244429E0,4.2121893E2,1.4087279E3,3.4137165E1,3.6142017E2,1.6631557E2,1.1688407E1,4.0953052E2,1.39288E3,1.5847906E1,2.1722403E1,1.2414762E1,1.4658028E2,2.148399E2,9.817065E1,6.814492E1,5.7446737E0,5.943733E0,3.957986E2,1.3731909E1,9.591743E2,4.337057E2,5.0730844E0,1.0774821E1,5.0275908E0,7.387171E0,8.731896E1,5.9261314E1,9.2352486E1,1.2248741E2,5.792422E1,4.024642E1,2.3665678E1,4.4479244E1,1.096711E2,2.8612753E2,5.4284163E0,8.303493E0],"tree_param":{"num_deleted":"0","num_feature":"60","num_nodes":"43","size_leaf_vector":"1"}},{"base_weights":[1.0882486E-2,2.6697466E-1,-5.8439773E-1,5.054956E-1,-1.9709167E-1,-2.8461707E-1,-9.536134E-1,5.28878E-1,-1.222915E0,6.171827E-1,-2.8708947E-1,-1.6711295E-1,-1.0912001E0,-9.980699E-1,1.0223915E-1,5.5248004E-1,-1.0009954E0,-7.586425E-2,2.1488161E-3,4.7338773E-2,4.4339463E-1,-2.2004E-1,-1.2090839E0,-4.921123E-2,-7.5987947E-1,-6.2333684E-2,4.9160287E-1,-9.038229E-1,-5.75606E-2,4.1018154E-2,-2.5887353E-2,2.9221153E-2,1.5292442E-2,-5.2871745E-2,-8.436843E-3,2.830727E-2,-3.3836015E-2,-1.1808698E-2,1.8264838E-2,-1.2771832E-2,-5.4428086E-2,6.0709887E-3,-1.6979381E-2,-6.290144E-2,-9.122929E-3,-1.431648E-2,4.660772E-2,-2.7332952E-2,-4.5288462E-2],"categories":[],"categories_nodes":[],"categories_segments":[],"categories_sizes":[],"default_left":[0,0,0,0,0,0,0,0,0,0,0,0,0,0,0,0,0,0,0,0,0,0,0,0,0,0,0,0,0,0,0,0,0,0,0,0,0,0,0,0,0,0,0,0,0,0,0,0,0],"id":24,"left_children":[1,3,5,7,9,11,13,15,17,19,21,23,25,27,29,31,33,-1,-1,-1,35,37,39,41,43,-1,45,47,-1,-1,-1,-1,-1,-1,-1,-1,-1,-1,-1,-1,-1,-1,-1,-1,-1,-1,-1,-1,-1],"loss_changes":[3.6234787E2,1.8411337E2,7.87343E1,4.496411E1,4.1538795E1,3.723606E1,1.5202057E1,3.9663513E1,1.3104885E1,4.8655434E0,3.1083977E1,2.4136478E1,3.790311E1,1.122522E1,1.020552E1,3.1986938E1,3.8174706E0,0E0,0E0,0E0,1.5887287E1,2.4343998E1,4.013035E0,2.2016476E1,2.4253803E1,0E0,7.435485E0,1.1929306E1,0E0,0E0,0E0,0E0,0E0,0E0,0E0,0E0,0E0,0E0,0E0,0E0,0E0,0E0,0E0,0E0,0E0,0E0,0E0,0E0,0E0],"parents":[2147483647,0,0,1,1,2,2,3,3,4,4,5,5,6,6,7,7,8,8,9,9,10,10,11,11,12,12,13,13,14,14,15,15,16,16,20,20,21,21,22,22,23,23,24,24,26,26,27,27],"right_children":[2,4,6,8,10,12,14,16,18,20,22,24,26,28,30,32,34,-1,-1,-1,36,38,40,42,44,-1,46,48,-1,-1,-1,-1,-1,-1,-1,-1,-1,-1,-1,-1,-1,-1,-1,-1,-1,-1,-1,-1,-1],"split_conditions":[9E0,2E0,2.52E1,3E0,2.4E1,7E0,1.3E1,5E0,6E0,2.05E1,1E0,2E0,4E0,1E0,1.4E1,3E0,1E0,-7.586425E-2,2.1488161E-3,4.7338773E-2,3E0,1.1E1,2.52E1,1E0,2E0,-6.2333684E-2,5E0,1E0,-5.75606E-2,4.1018154E-2,-2.5887353E-2,2.9221153E-2,1.5292442E-2,-5.2871745E-2,-8.436843E-3,2.830727E-2,-3.3836015E-2,-1.1808698E-2,1.8264838E-2,-1.2771832E-2,-5.4428086E-2,6.0709887E-3,-1.6979381E-2,-6.290144E-2,-9.122929E-3,-1.431648E-2,4.660772E-2,-2.7332952E-2,-4.5288462E-2],"split_indices":[5,1,6,8,6,0,37,31,37,6,22,1,1,16,37,0,10,0,0,0,1,37,6,44,0,0,37,55,0,0,0,0,0,0,0,0,0,0,0,0,0,0,0,0,0,0,0,0,0],"split_type":[0,0,0,0,0,0,0,0,0,0,0,0,0,0,0,0,0,0,0,0,0,0,0,0,0,0,0,0,0,0,0,0,0,0,0,0,0,0,0,0,0,0,0,0,0,0,0,0,0],"sum_hessian":[2.3750686E3,1.6611528E3,7.139158E2,1.0972925E3,5.638605E2,3.9513324E2,3.187825E2,1.083388E3,1.3904466E1,5.542471E1,5.0843573E2,3.460512E2,4.908204E1,3.0604593E2,1.273657E1,1.0676215E3,1.5766476E1,8.834911E0,5.069555E0,1.1515688E1,4.390902E1,4.7522354E2,3.32122E1,2.8968448E2,5.6366745E1,3.7957924E1,1.1124115E1,2.5485097E2,5.1194965E1,5.601361E0,7.13521E0,5.198347E2,5.4778674E2,1.0644757E1,5.121718E0,3.687819E1,7.030832E0,4.2834555E2,4.687798E1,5.3835764E0,2.7828625E1,1.8886351E2,1.0082095E2,2.1447567E1,3.4919178E1,5.061222E0,6.0628924E0,1.3191891E2,1.2293205E2],"tree_param":{"num_deleted":"0","num_feature":"60","num_nodes":"49","size_leaf_vector":"1"}},{"base_weights":[1.6457846E-2,2.597847E-1,-5.554723E-1,4.7300443E-1,-1.5118803E-1,3.2571742E-1,-6.673375E-1,6.8874204E-1,2.9174894E-1,2.336957E-1,-3.5109207E-1,5.3463316E-1,2.1404375E-3,-6.168587E-1,-5.6521647E-2,7.8714E-1,4.411773E-1,2.3351769E-1,9.418594E-1,1.6478114E-1,4.6708707E-2,-4.730865E-1,4.7306612E-1,2.837211E-1,4.0829215E-2,-3.748367E-2,3.144187E-1,-6.7820317E-1,-2.2045756E-2,3.243254E-2,-1.1844409E-2,2.322496E-2,-2.2223022E-2,1.4692797E-2,-2.9443337E-3,4.221833E-2,-8.121713E-6,-9.029083E-4,2.1711137E-2,-2.3469502E-2,1.7709745E-2,2.9825892E-2,-2.2560861E-2,2.090548E-2,-2.8167188E-2,2.5604865E-2,-2.6443342E-2,-2.982427E-2,-1.7647585E-3,2.4895618E-2,-1.6934242E-2],"categories":[],"categories_nodes":[],"categories_segments":[],"categories_sizes":[],"default_left":[0,0,0,0,0,0,0,0,0,0,0,0,0,0,0,0,0,0,0,0,0,0,0,0,0,0,0,0,0,0,0,0,0,0,0,0,0,0,0,0,0,0,0,0,0,0,0,0,0,0,0],"id":25,"left_children":[1,3,5,7,9,11,13,15,17,19,21,23,25,27,-1,29,31,33,35,37,-1,39,41,43,-1,-1,45,47,49,-1,-1,-1,-1,-1,-1,-1,-1,-1,-1,-1,-1,-1,-1,-1,-1,-1,-1,-1,-1,-1,-1],"loss_changes":[3.3067993E2,1.4619435E2,7.015585E1,4.264009E1,4.395671E1,5.384001E0,2.262851E1,1.1718765E1,2.2328033E1,1.2246019E1,3.800609E1,5.519558E0,9.840174E0,2.1504303E1,0E0,9.433533E0,2.046216E1,2.2698029E1,5.322666E0,1.3035112E1,0E0,3.440747E1,1.4247271E1,8.2897E0,0E0,0E0,8.495206E0,2.2803925E1,1.4856032E1,0E0,0E0,0E0,0E0,0E0,0E0,0E0,0E0,0E0,0E0,0E0,0E0,0E0,0E0,0E0,0E0,0E0,0E0,0E0,0E0,0E0,0E0],"parents":[2147483647,0,0,1,1,2,2,3,3,4,4,5,5,6,6,7,7,8,8,9,9,10,10,11,11,12,12,13,13,15,15,16,16,17,17,18,18,19,19,21,21,22,22,23,23,26,26,27,27,28,28],"right_children":[2,4,6,8,10,12,14,16,18,20,22,24,26,28,-1,30,32,34,36,38,-1,40,42,44,-1,-1,46,48,50,-1,-1,-1,-1,-1,-1,-1,-1,-1,-1,-1,-1,-1,-1,-1,-1,-1,-1,-1,-1,-1,-1],"split_conditions":[9E0,2E0,2.25E1,5.076E2,2.55E1,1E0,1E0,1E0,1E0,1.2E1,9E0,5E0,2E0,1E1,-5.6521647E-2,8E0,2.47E1,1E0,1E1,1E0,4.6708707E-2,1E0,1.449E3,2.2E1,4.0829215E-2,-3.748367E-2,3E0,1E0,1E0,3.243254E-2,-1.1844409E-2,2.322496E-2,-2.2223022E-2,1.4692797E-2,-2.9443337E-3,4.221833E-2,-8.121713E-6,-9.029083E-4,2.1711137E-2,-2.3469502E-2,1.7709745E-2,2.9825892E-2,-2.2560861E-2,2.090548E-2,-2.8167188E-2,2.5604865E-2,-2.6443342E-2,-2.982427E-2,-1.7647585E-3,2.4895618E-2,-1.6934242E-2],"split_indices":[5,1,6,4,6,44,22,44,45,14,48,37,55,48,0,14,6,44,37,57,0,10,4,6,0,0,14,47,44,0,0,0,0,0,0,0,0,0,0,0,0,0,0,0,0,0,0,0,0,0,0],"split_type":[0,0,0,0,0,0,0,0,0,0,0,0,0,0,0,0,0,0,0,0,0,0,0,0,0,0,0,0,0,0,0,0,0,0,0,0,0,0,0,0,0,0,0,0,0,0,0,0,0,0,0],"sum_hessian":[2.3743306E3,1.6661782E3,7.0815247E2,1.0970844E3,5.690939E2,7.9455574E1,6.2869684E2,4.9936652E2,5.9771783E2,1.9431046E2,3.7478345E2,4.769819E1,3.1757387E1,5.906738E2,3.8023052E1,3.5548907E2,1.4387744E2,5.4996936E2,4.7748466E1,1.8215414E2,1.2156319E1,3.2693658E2,4.7846844E1,3.2639717E1,1.5058473E1,7.3449874E0,2.44124E1,5.35172E2,5.550184E1,3.4822275E2,7.266309E0,1.2667351E2,1.7203934E1,3.8316824E2,1.6680112E2,4.2597603E1,5.150863E0,1.2224119E2,5.991295E1,2.9126077E2,3.567583E1,3.818737E1,9.659473E0,2.6744064E1,5.895653E0,1.8636364E1,5.7760367E0,4.8344754E2,5.1724422E1,2.0992065E1,3.4509773E1],"tree_param":{"num_deleted":"0","num_feature":"60","num_nodes":"51","size_leaf_vector":"1"}},{"base_weights":[1.5761463E-2,2.7151847E-1,-1.2324737E0,4.4827783E-1,-2.0794164E-1,3.0897494E-2,-1.2665757E0,4.756895E-1,-9.41873E-1,1.03409655E-1,-4.805845E-1,-3.4292117E-1,-1.290921E0,5.158952E-1,-2.4691778E-1,-5.5053964E-2,-1.8030084E-3,1.6687734E-1,-5.8703627E-2,-6.5958697E-1,1.6483791E-3,2.3411455E-2,-4.7811102E-2,-1.1468344E0,-5.3505465E-2,1.8859752E-2,3.9444916E-2,-6.005921E-2,-1.5077498E-3,1.0744372E-2,-1.794431E-2,2.7555766E-2,-2.9251026E-2,1.53032895E-2,-4.3224238E-2,-3.539416E-2,-5.2957937E-2],"categories":[],"categories_nodes":[],"categories_segments":[],"categories_sizes":[],"default_left":[0,0,0,0,0,0,0,0,0,0,0,0,0,0,0,0,0,0,0,0,0,0,0,0,0,0,0,0,0,0,0,0,0,0,0,0,0],"id":26,"left_children":[1,3,5,7,9,-1,11,13,15,17,19,21,23,25,27,-1,-1,29,-1,31,33,-1,-1,35,-1,-1,-1,-1,-1,-1,-1,-1,-1,-1,-1,-1,-1],"loss_changes":[7.5140607E2,1.656926E2,2.839264E1,5.4814545E1,4.4804825E1,0E0,8.253052E0,4.085901E1,1.0657787E1,2.4701283E1,2.4340149E1,9.925964E0,7.980957E-1,2.7109222E1,1.9315908E1,0E0,0E0,1.5002813E1,0E0,2.0347641E1,3.2075485E1,0E0,0E0,3.3127594E0,0E0,0E0,0E0,0E0,0E0,0E0,0E0,0E0,0E0,0E0,0E0,0E0,0E0],"parents":[2147483647,0,0,1,1,2,2,3,3,4,4,6,6,7,7,8,8,9,9,10,10,11,11,12,12,13,13,14,14,17,17,19,19,20,20,23,23],"right_children":[2,4,6,8,10,-1,12,14,16,18,20,22,24,26,28,-1,-1,30,-1,32,34,-1,-1,36,-1,-1,-1,-1,-1,-1,-1,-1,-1,-1,-1,-1,-1],"split_conditions":[9E0,9E0,2.05E1,2E1,3E0,3.0897494E-2,1E0,2.77E1,1E0,2E1,9.29E2,8.09E2,3E0,1E0,4E0,-5.5053964E-2,-1.8030084E-3,2E0,-5.8703627E-2,2.25E1,2.72E1,2.3411455E-2,-4.7811102E-2,9E0,-5.3505465E-2,1.8859752E-2,3.9444916E-2,-6.005921E-2,-1.5077498E-3,1.0744372E-2,-1.794431E-2,2.7555766E-2,-2.9251026E-2,1.53032895E-2,-4.3224238E-2,-3.539416E-2,-5.2957937E-2],"split_indices":[7,5,6,32,0,0,0,6,33,32,4,4,14,45,8,0,0,1,0,6,6,0,0,5,0,0,0,0,0,0,0,0,0,0,0,0,0],"split_type":[0,0,0,0,0,0,0,0,0,0,0,0,0,0,0,0,0,0,0,0,0,0,0,0,0,0,0,0,0,0,0,0,0,0,0,0,0],"sum_hessian":[2.351951E3,1.9527126E3,3.9923825E2,1.4269296E3,5.257831E2,6.2660136E0,3.9297223E2,1.4000525E3,2.6877142E1,2.4558505E2,2.8019803E2,1.058469E1,3.8238754E2,1.3266617E3,7.339074E1,1.767015E1,9.206992E0,2.3696906E2,8.616011E0,2.0422887E2,7.5969154E1,5.160723E0,5.4239664E0,1.0040275E2,2.819848E2,1.2142236E3,1.1243808E2,9.538857E0,6.385188E1,2.039798E2,3.2989246E1,9.804245E0,1.9442462E2,5.6737484E1,1.9231668E1,4.314496E1,5.7257786E1],"tree_param":{"num_deleted":"0","num_feature":"60","num_nodes":"37","size_leaf_vector":"1"}},{"base_weights":[1.8005291E-2,2.569103E-1,-1.1646874E0,4.405294E-1,-2.6469925E-1,-1.1969552E0,-3.0263495E-1,5.59857E-1,1.683151E-1,-2.0911959E-1,-5.7988938E-2,-1.4815205E-2,-1.21783E0,2.9332569E-2,-3.6750216E-2,5.764679E-1,-6.836357E-2,3.4208223E-1,-1.5712325E-1,-3.2010254E-2,-5.4988754E-1,-1.2708651E0,-1.018693E0,2.7015869E-2,1.4153858E-2,2.1461413E-4,2.4075814E-2,-2.8385337E-2,7.200208E-3,-1.3680682E-2,1.6748833E-2,-3.1215645E-2,7.319962E-3,-4.4277843E-2,-5.397007E-2,-4.8501704E-2,-1.7041938E-2],"categories":[],"categories_nodes":[],"categories_segments":[],"categories_sizes":[],"default_left":[0,0,0,0,0,0,0,0,0,0,0,0,0,0,0,0,0,0,0,0,0,0,0,0,0,0,0,0,0,0,0,0,0,0,0,0,0],"id":27,"left_children":[1,3,5,7,9,11,13,15,17,19,-1,-1,21,-1,-1,23,-1,25,27,29,31,33,35,-1,-1,-1,-1,-1,-1,-1,-1,-1,-1,-1,-1,-1,-1],"loss_changes":[6.695032E2,1.8896587E2,1.0564087E1,4.7217102E1,3.337256E1,6.005005E0,1.0787934E1,3.906967E1,2.5308403E1,2.962075E1,0E0,0E0,2.4197388E0,0E0,0E0,2.1834137E1,0E0,2.5431953E1,2.9205189E1,4.5551285E1,2.858675E1,1.9923706E0,8.965385E0,0E0,0E0,0E0,0E0,0E0,0E0,0E0,0E0,0E0,0E0,0E0,0E0,0E0,0E0],"parents":[2147483647,0,0,1,1,2,2,3,3,4,4,5,5,6,6,7,7,8,8,9,9,12,12,15,15,17,17,18,18,19,19,20,20,21,21,22,22],"right_children":[2,4,6,8,10,12,14,16,18,20,-1,-1,22,-1,-1,24,-1,26,28,30,32,34,36,-1,-1,-1,-1,-1,-1,-1,-1,-1,-1,-1,-1,-1,-1],"split_conditions":[9E0,9E0,1.2E1,2E0,1E0,1E0,1E0,1E1,1E0,1E0,-5.7988938E-2,-1.4815205E-2,5E0,2.9332569E-2,-3.6750216E-2,1E0,-6.836357E-2,1E0,5E0,1E0,1E0,5.64E2,5E0,2.7015869E-2,1.4153858E-2,2.1461413E-4,2.4075814E-2,-2.8385337E-2,7.200208E-3,-1.3680682E-2,1.6748833E-2,-3.1215645E-2,7.319962E-3,-4.4277843E-2,-5.397007E-2,-4.8501704E-2,-1.7041938E-2],"split_indices":[7,5,48,1,22,0,44,14,44,44,0,0,1,0,0,44,0,48,48,58,47,4,48,0,0,0,0,0,0,0,0,0,0,0,0,0,0],"split_type":[0,0,0,0,0,0,0,0,0,0,0,0,0,0,0,0,0,0,0,0,0,0,0,0,0,0,0,0,0,0,0,0,0,0,0,0,0],"sum_hessian":[2.3677556E3,1.9705667E3,3.9718896E2,1.4577506E3,5.1281616E2,3.8237173E2,1.4817227E1,1.0124917E3,4.4525885E2,4.9104608E2,2.1770052E1,9.998387E0,3.7237335E2,5.3944473E0,9.422779E0,1.0059174E3,6.574285E0,2.9043683E2,1.5482202E2,3.240257E2,1.670204E2,2.8941165E2,8.296171E1,6.9471564E2,3.1120175E2,1.27109245E2,1.6332759E2,5.8363476E1,9.645854E1,1.9225697E2,1.317687E2,1.2711309E2,3.990731E1,9.893021E1,1.9048143E2,6.1598553E1,2.1363153E1],"tree_param":{"num_deleted":"0","num_feature":"60","num_nodes":"37","size_leaf_vector":"1"}},{"base_weights":[6.1803325E-3,2.4478158E-1,-1.1921824E0,4.2938918E-1,-2.6240617E-1,3.1240284E-2,-1.22747E0,5.8072215E-1,1.9531037E-1,2.4026266E-1,-4.9914816E-1,-4.0888E-1,-1.249794E0,6.846243E-1,3.3218676E-1,2.5370732E-1,-8.141583E-1,4.054618E-1,-9.9140905E-2,6.345256E-1,-5.8591515E-1,1.8194968E-2,-4.699105E-2,-1.3066607E0,-1.0718088E0,2.153105E-2,3.241395E-2,1.89706E-2,-1.7588714E-2,7.1966704E-3,2.944068E-2,1.544549E-2,-6.2141582E-2,1.9364461E-2,-1.1078115E-2,-1.5674593E-2,1.8755537E-2,5.0724175E-2,1.4267753E-2,-5.834715E-2,-1.9168597E-2,-5.3509552E-2,-3.6262468E-2,-4.64682E-2,1.2365103E-2],"categories":[],"categories_nodes":[],"categories_segments":[],"categories_sizes":[],"default_left":[0,0,0,0,0,0,0,0,0,0,0,0,0,0,0,0,0,0,0,0,0,0,0,0,0,0,0,0,0,0,0,0,0,0,0,0,0,0,0,0,0,0,0,0,0],"id":28,"left_children":[1,3,5,7,9,-1,11,13,15,17,19,21,23,25,27,29,31,33,35,37,39,-1,-1,41,43,-1,-1,-1,-1,-1,-1,-1,-1,-1,-1,-1,-1,-1,-1,-1,-1,-1,-1,-1,-1],"loss_changes":[6.609163E2,1.8064685E2,2.772644E1,4.9898712E1,6.1427673E1,0E0,6.2213745E0,2.1828125E1,3.2984528E1,9.345702E0,3.4848236E1,8.297814E0,2.074829E0,1.0539429E1,2.8198046E1,1.854535E1,2.7875933E1,6.147648E0,9.281428E0,3.8422203E0,2.9486404E1,0E0,0E0,1.9579163E0,1.221553E1,0E0,0E0,0E0,0E0,0E0,0E0,0E0,0E0,0E0,0E0,0E0,0E0,0E0,0E0,0E0,0E0,0E0,0E0,0E0,0E0],"parents":[2147483647,0,0,1,1,2,2,3,3,4,4,6,6,7,7,8,8,9,9,10,10,11,11,12,12,13,13,14,14,15,15,16,16,17,17,18,18,19,19,20,20,23,23,24,24],"right_children":[2,4,6,8,10,-1,12,14,16,18,20,22,24,26,28,30,32,34,36,38,40,-1,-1,42,44,-1,-1,-1,-1,-1,-1,-1,-1,-1,-1,-1,-1,-1,-1,-1,-1,-1,-1,-1,-1],"split_conditions":[9E0,9E0,2.05E1,2.55E1,2E0,3.1240284E-2,1E0,1E0,1E1,1E0,2.25E1,8.14E2,1E0,1E0,7E0,1E1,2.72E1,2E0,1E0,3.89E2,4.89E2,1.8194968E-2,-4.699105E-2,1E0,2.8E1,2.153105E-2,3.241395E-2,1.89706E-2,-1.7588714E-2,7.1966704E-3,2.944068E-2,1.544549E-2,-6.2141582E-2,1.9364461E-2,-1.1078115E-2,-1.5674593E-2,1.8755537E-2,5.0724175E-2,1.4267753E-2,-5.834715E-2,-1.9168597E-2,-5.3509552E-2,-3.6262468E-2,-4.64682E-2,1.2365103E-2],"split_indices":[7,5,6,6,0,0,0,44,8,44,6,4,20,50,0,38,6,8,47,4,4,0,0,46,6,0,0,0,0,0,0,0,0,0,0,0,0,0,0,0,0,0,0,0,0],"split_type":[0,0,0,0,0,0,0,0,0,0,0,0,0,0,0,0,0,0,0,0,0,0,0,0,0,0,0,0,0,0,0,0,0,0,0,0,0,0,0,0,0,0,0,0,0],"sum_hessian":[2.3097659E3,1.926973E3,3.8279276E2,1.4130117E3,5.1396136E2,6.3043313E0,3.7648843E2,8.5702997E2,5.5598175E2,1.6441837E2,3.49543E2,1.0626472E1,3.6586197E2,6.028478E2,2.5418216E2,5.263789E2,2.9602863E1,1.1065759E2,5.376077E1,2.4319935E1,3.2522308E2,5.1236744E0,5.502798E0,2.7204105E2,9.382091E1,2.813834E2,3.214644E2,2.151047E2,3.9077446E1,4.5790283E2,6.847607E1,1.1414813E1,1.818805E1,9.9614E1,1.10436E1,3.5798714E1,1.7962057E1,6.217371E0,1.8102564E1,3.394652E1,2.9127655E2,2.5002646E2,2.201459E1,8.830369E1,5.5172205E0],"tree_param":{"num_deleted":"0","num_feature":"60","num_nodes":"45","size_leaf_vector":"1"}},{"base_weights":[3.26281E-2,2.6252395E-1,-1.1220057E0,4.1988516E-1,-1.6719937E-1,3.5104297E-2,-1.1564153E0,5.496258E-1,1.5816659E-1,2.2069053E-1,-3.4234315E-1,2.1482566E-1,-1.2056409E0,5.6755877E-1,-5.76487E-2,-2.4136963E-1,4.0078297E-1,4.464642E-1,-2.9565072E-1,1.24258034E-1,-4.6888134E-1,4.5684148E-2,-2.1625662E-2,-1.2187371E0,-1.9857857E-2,1.4759341E-2,3.0126994E-2,3.4226754E-3,-3.5960265E-2,1.8745352E-2,-1.0056919E-2,2.1920651E-2,-7.101054E-3,-3.337809E-2,8.61113E-3,1.2147561E-2,-5.4913852E-2,-4.649456E-2,-1.4831266E-2,-5.0639715E-2,-4.1350707E-2],"categories":[],"categories_nodes":[],"categories_segments":[],"categories_sizes":[],"default_left":[0,0,0,0,0,0,0,0,0,0,0,0,0,0,0,0,0,0,0,0,0,0,0,0,0,0,0,0,0,0,0,0,0,0,0,0,0,0,0,0,0],"id":29,"left_children":[1,3,5,7,9,-1,11,13,15,17,19,21,23,25,-1,27,29,31,33,35,37,-1,-1,39,-1,-1,-1,-1,-1,-1,-1,-1,-1,-1,-1,-1,-1,-1,-1,-1,-1],"loss_changes":[6.107151E2,1.2985619E2,2.7327423E1,4.7550858E1,3.5067474E1,0E0,2.5740265E1,3.424402E1,4.5412487E1,1.8868963E1,2.1070126E1,1.0351576E1,2.5968628E0,3.392871E1,0E0,3.8221203E1,1.3030083E1,7.2487507E0,1.3820347E1,2.083805E1,1.845557E1,0E0,0E0,1.5714111E0,0E0,0E0,0E0,0E0,0E0,0E0,0E0,0E0,0E0,0E0,0E0,0E0,0E0,0E0,0E0,0E0,0E0],"parents":[2147483647,0,0,1,1,2,2,3,3,4,4,6,6,7,7,8,8,9,9,10,10,11,11,12,12,13,13,15,15,16,16,17,17,18,18,19,19,20,20,23,23],"right_children":[2,4,6,8,10,-1,12,14,16,18,20,22,24,26,-1,28,30,32,34,36,38,-1,-1,40,-1,-1,-1,-1,-1,-1,-1,-1,-1,-1,-1,-1,-1,-1,-1,-1,-1],"split_conditions":[9E0,9E0,2.05E1,1E0,2E0,3.5104297E-2,1E0,1.3E1,5E0,1E0,2.35E1,5.39E2,1.5E1,2E0,-5.76487E-2,7E0,2.72E1,2E0,2.4E1,7E0,2.42E1,4.5684148E-2,-2.1625662E-2,5E0,-1.9857857E-2,1.4759341E-2,3.0126994E-2,3.4226754E-3,-3.5960265E-2,1.8745352E-2,-1.0056919E-2,2.1920651E-2,-7.101054E-3,-3.337809E-2,8.61113E-3,1.2147561E-2,-5.4913852E-2,-4.649456E-2,-1.4831266E-2,-5.0639715E-2,-4.1350707E-2],"split_indices":[7,5,6,44,0,0,0,1,48,44,6,4,37,48,0,0,6,1,6,0,6,0,0,1,0,0,0,0,0,0,0,0,0,0,0,0,0,0,0,0,0],"split_type":[0,0,0,0,0,0,0,0,0,0,0,0,0,0,0,0,0,0,0,0,0,0,0,0,0,0,0,0,0,0,0,0,0,0,0,0,0,0,0,0,0],"sum_hessian":[2.2989312E3,1.9179191E3,3.8101218E2,1.4040302E3,5.1388885E2,5.9818807E0,3.750303E2,9.3770404E2,4.6632614E2,1.5959772E2,3.5429114E2,1.2809524E1,3.6222076E2,9.300911E2,7.6128707E0,1.7603232E2,2.9029382E2,1.1127221E2,4.8325516E1,7.541843E1,2.7887274E2,5.5804877E0,7.2290363E0,3.548093E2,7.4114885E0,4.5106302E2,4.7902814E2,1.1805866E2,5.7973648E1,2.633333E2,2.6960512E1,9.59403E1,1.5331906E1,2.3308249E1,2.5017267E1,6.8118256E1,7.3001666E0,3.3089497E1,2.4578323E2,2.77523E2,7.728627E1],"tree_param":{"num_deleted":"0","num_feature":"60","num_nodes":"41","size_leaf_vector":"1"}},{"base_weights":[5.3655314E-3,2.3085101E-1,-1.1685574E0,3.9815104E-1,-2.3099233E-1,-2.1509098E-1,-1.2015201E0,6.0534674E-1,1.9782232E-1,1.7942415E-1,-4.1404706E-1,4.49687E-2,-5.0562795E-2,-1.239591E0,-7.978078E-1,8.1975317E-1,4.8476025E-1,2.3208192E-1,-1.0272007E0,3.1003463E-1,-1.0974681E0,-7.56929E-1,-1.7198211E-1,-5.228692E-2,-1.0810043E0,1.1126072E-2,-4.846764E-2,3.407849E-2,1.157754E-3,1.2921522E-2,2.9648602E-2,3.3374312E-3,1.9268347E-2,-5.2410975E-2,-9.691283E-3,1.9681994E-2,-1.4846782E-3,-1.0053179E-2,-6.4204656E-2,-2.3339706E-2,-5.8263835E-2,2.0975538E-2,-1.6529439E-2,-1.4361163E-2,-4.867227E-2],"categories":[],"categories_nodes":[],"categories_segments":[],"categories_sizes":[],"default_left":[0,0,0,0,0,0,0,0,0,0,0,0,0,0,0,0,0,0,0,0,0,0,0,0,0,0,0,0,0,0,0,0,0,0,0,0,0,0,0,0,0,0,0,0,0],"id":30,"left_children":[1,3,5,7,9,11,13,15,17,19,21,-1,-1,23,25,27,29,31,33,35,37,39,41,-1,43,-1,-1,-1,-1,-1,-1,-1,-1,-1,-1,-1,-1,-1,-1,-1,-1,-1,-1,-1,-1],"loss_changes":[6.037651E2,1.479769E2,1.1150238E1,5.8133102E1,3.836617E1,2.054201E1,4.262146E0,1.7314774E1,3.0219376E1,2.6552597E1,2.9053242E1,0E0,0E0,1.8023376E0,1.5400621E1,6.170349E0,1.8087112E1,2.5790974E1,3.8802452E0,9.154179E0,5.7586536E0,1.6602448E1,3.5187935E1,0E0,9.457909E0,0E0,0E0,0E0,0E0,0E0,0E0,0E0,0E0,0E0,0E0,0E0,0E0,0E0,0E0,0E0,0E0,0E0,0E0,0E0,0E0],"parents":[2147483647,0,0,1,1,2,2,3,3,4,4,5,5,6,6,7,7,8,8,9,9,10,10,13,13,14,14,15,15,16,16,17,17,18,18,19,19,20,20,21,21,22,22,24,24],"right_children":[2,4,6,8,10,12,14,16,18,20,22,-1,-1,24,26,28,30,32,34,36,38,40,42,-1,44,-1,-1,-1,-1,-1,-1,-1,-1,-1,-1,-1,-1,-1,-1,-1,-1,-1,-1,-1,-1],"split_conditions":[9E0,9E0,1E0,5.862E2,2E0,5.39E2,1E1,2.35E1,5E0,2E0,1E0,4.49687E-2,-5.0562795E-2,5E0,1.1E1,1.1E1,5E0,5E0,1E0,1E0,3E0,3E0,1E0,-5.228692E-2,1E0,1.1126072E-2,-4.846764E-2,3.407849E-2,1.157754E-3,1.2921522E-2,2.9648602E-2,3.3374312E-3,1.9268347E-2,-5.2410975E-2,-9.691283E-3,1.9681994E-2,-1.4846782E-3,-1.0053179E-2,-6.4204656E-2,-2.3339706E-2,-5.8263835E-2,2.0975538E-2,-1.6529439E-2,-1.4361163E-2,-4.867227E-2],"split_indices":[7,5,0,4,0,4,1,6,31,1,58,0,0,38,8,38,48,48,20,44,14,8,55,0,55,0,0,0,0,0,0,0,0,0,0,0,0,0,0,0,0,0,0,0,0],"split_type":[0,0,0,0,0,0,0,0,0,0,0,0,0,0,0,0,0,0,0,0,0,0,0,0,0,0,0,0,0,0,0,0,0,0,0,0,0,0,0,0,0,0,0,0,0],"sum_hessian":[2.2792542E3,1.9127452E3,3.6650888E2,1.4043735E3,5.083716E2,1.2600146E1,3.5390872E2,6.8911536E2,7.1525824E2,1.5664357E2,3.5172803E2,5.4608374E0,7.1393085E0,3.2129205E2,3.2616676E1,2.4567332E2,4.4344202E2,6.966671E2,1.8591156E1,1.4286568E2,1.3777902E1,1.4450229E2,2.0722575E2,2.1976532E2,1.01526726E2,9.085002E0,2.3531673E1,2.35863E2,9.810322E0,2.7357394E2,1.6986807E2,4.377396E2,2.589275E2,1.3077985E1,5.5131707E0,9.363994E1,4.9225735E1,5.8009906E0,7.976911E0,1.1738203E2,2.7120262E1,5.2911247E1,1.543145E2,1.6767065E1,8.475966E1],"tree_param":{"num_deleted":"0","num_feature":"60","num_nodes":"45","size_leaf_vector":"1"}},{"base_weights":[3.8081564E-2,2.4820101E-1,-1.0981575E0,4.088113E-1,-2.0119098E-1,8.116428E-3,-1.1200964E0,5.345428E-1,1.2532099E-1,-1.4397895E-1,-5.557728E-2,-1.1461248E0,-2.1545992E-3,5.533137E-1,-6.970362E-1,1.7522097E-1,-1.0304569E0,2.4583868E-3,-5.799095E-1,-9.8075676E-1,-1.2068236E0,1.8583966E-2,3.0210847E-2,-6.449384E-2,4.7011133E-3,3.9185626E-3,2.7269049E-2,-5.3281173E-2,-7.5102025E-3,3.006925E-3,-3.26767E-2,-5.958687E-2,-1.2548745E-2,-2.2801122E-2,-5.014657E-2,-5.1612344E-2,-3.9245818E-2],"categories":[],"categories_nodes":[],"categories_segments":[],"categories_sizes":[],"default_left":[0,0,0,0,0,0,0,0,0,0,0,0,0,0,0,0,0,0,0,0,0,0,0,0,0,0,0,0,0,0,0,0,0,0,0,0,0],"id":31,"left_children":[1,3,5,7,9,-1,11,13,15,17,-1,19,-1,21,23,25,27,29,31,33,35,-1,-1,-1,-1,-1,-1,-1,-1,-1,-1,-1,-1,-1,-1,-1,-1],"loss_changes":[5.47542E2,1.3981705E2,1.0535156E1,5.0714325E1,3.432879E1,0E0,9.592651E0,2.320465E1,2.5462635E1,3.1206911E1,0E0,2.0473022E0,0E0,1.6969025E1,1.166456E1,1.639137E1,4.240141E0,2.179754E1,2.9106998E1,1.0094116E1,3.1532593E0,0E0,0E0,0E0,0E0,0E0,0E0,0E0,0E0,0E0,0E0,0E0,0E0,0E0,0E0,0E0,0E0],"parents":[2147483647,0,0,1,1,2,2,3,3,4,4,6,6,7,7,8,8,9,9,11,11,13,13,14,14,15,15,16,16,17,17,18,18,19,19,20,20],"right_children":[2,4,6,8,10,-1,12,14,16,18,-1,20,-1,22,24,26,28,30,32,34,36,-1,-1,-1,-1,-1,-1,-1,-1,-1,-1,-1,-1,-1,-1,-1,-1],"split_conditions":[9E0,9E0,2.1E1,2E0,1E0,8.116428E-3,1.5E1,1.654E3,1E0,7E0,-5.557728E-2,5.64E2,-2.1545992E-3,6E0,7E0,1E0,1E0,3E0,2.47E1,9E0,5E0,1.8583966E-2,3.0210847E-2,-6.449384E-2,4.7011133E-3,3.9185626E-3,2.7269049E-2,-5.3281173E-2,-7.5102025E-3,3.006925E-3,-3.26767E-2,-5.958687E-2,-1.2548745E-2,-2.2801122E-2,-5.014657E-2,-5.1612344E-2,-3.9245818E-2],"split_indices":[7,5,6,1,22,0,37,4,22,0,0,4,0,48,48,10,33,1,6,5,1,0,0,0,0,0,0,0,0,0,0,0,0,0,0,0,0],"split_type":[0,0,0,0,0,0,0,0,0,0,0,0,0,0,0,0,0,0,0,0,0,0,0,0,0,0,0,0,0,0,0,0,0,0,0,0,0],"sum_hessian":[2.2916233E3,1.934715E3,3.5690833E2,1.4255454E3,5.0916946E2,5.7060823E0,3.5120224E2,9.866954E2,4.3885007E2,4.8692984E2,2.2239614E1,3.4266843E2,8.533818E0,9.7250507E2,1.4190329E1,4.215834E2,1.7266678E1,3.6506317E2,1.2186667E2,9.70553E1,2.4561311E2,6.7832904E2,2.94176E2,6.2785788E0,7.91175E0,3.6699652E2,5.4586887E1,1.2201038E1,5.06564E0,3.3625302E2,2.8810158E1,2.6460505E1,9.5406166E1,4.0123753E1,5.693154E1,1.7552182E2,7.00913E1],"tree_param":{"num_deleted":"0","num_feature":"60","num_nodes":"37","size_leaf_vector":"1"}},{"base_weights":[1.0064583E-2,2.0899555E-1,-1.0406252E0,3.7484378E-1,-2.5268254E-1,3.477672E-2,-1.0759194E0,5.1404124E-1,5.9862435E-2,4.2984116E-1,-3.7014157E-1,-1.102398E0,4.211463E-3,5.382294E-1,-6.821612E-1,1.1723711E-1,-8.21634E-1,5.48801E-1,-2.810921E-2,-1.4971323E-1,-7.9947644E-1,-9.2454755E-1,-1.1691523E0,3.078445E-2,1.8751707E-2,-4.7592323E-2,5.215504E-3,1.0963286E-2,-7.6676183E-3,-5.628855E-2,4.067868E-2,3.149558E-2,5.797323E-3,-2.733048E-2,1.5584569E-2,-2.0767221E-2,1.507496E-2,-3.9939232E-2,-7.692074E-3,-1.9420473E-2,-4.9667787E-2,-4.9697116E-2,-3.8746007E-2],"categories":[],"categories_nodes":[],"categories_segments":[],"categories_sizes":[],"default_left":[0,0,0,0,0,0,0,0,0,0,0,0,0,0,0,0,0,0,0,0,0,0,0,0,0,0,0,0,0,0,0,0,0,0,0,0,0,0,0,0,0,0,0],"id":32,"left_children":[1,3,5,7,9,-1,11,13,15,17,19,21,-1,23,25,27,29,31,33,35,37,39,41,-1,-1,-1,-1,-1,-1,-1,-1,-1,-1,-1,-1,-1,-1,-1,-1,-1,-1,-1,-1],"loss_changes":[4.64003E2,1.430545E2,2.4778992E1,6.015779E1,3.974401E1,0E0,1.1083649E1,2.7915161E1,2.139316E1,4.0360613E0,3.972224E1,2.7465515E0,0E0,1.4527161E1,8.197174E0,1.9328205E1,2.9286768E1,5.386078E0,4.619388E0,5.4728962E1,1.6940598E1,1.2867538E1,2.1461487E0,0E0,0E0,0E0,0E0,0E0,0E0,0E0,0E0,0E0,0E0,0E0,0E0,0E0,0E0,0E0,0E0,0E0,0E0,0E0,0E0],"parents":[2147483647,0,0,1,1,2,2,3,3,4,4,6,6,7,7,8,8,9,9,10,10,11,11,13,13,14,14,15,15,16,16,17,17,18,18,19,19,20,20,21,21,22,22],"right_children":[2,4,6,8,10,-1,12,14,16,18,20,22,-1,24,26,28,30,32,34,36,38,40,42,-1,-1,-1,-1,-1,-1,-1,-1,-1,-1,-1,-1,-1,-1,-1,-1,-1,-1,-1,-1],"split_conditions":[9E0,9E0,2.05E1,2E0,2.25E1,3.477672E-2,1.5E1,9E0,1.1E1,4.3E2,1E0,5.64E2,4.211463E-3,2.3E1,1E0,1E0,1.4E1,1E0,6.742E2,3E0,1E0,9E0,5E0,3.078445E-2,1.8751707E-2,-4.7592323E-2,5.215504E-3,1.0963286E-2,-7.6676183E-3,-5.628855E-2,4.067868E-2,3.149558E-2,5.797323E-3,-2.733048E-2,1.5584569E-2,-2.0767221E-2,1.507496E-2,-3.9939232E-2,-7.692074E-3,-1.9420473E-2,-4.9667787E-2,-4.9697116E-2,-3.8746007E-2],"split_indices":[7,5,6,1,6,0,38,14,1,4,44,4,0,6,19,44,48,1,4,38,9,5,1,0,0,0,0,0,0,0,0,0,0,0,0,0,0,0,0,0,0,0,0],"split_type":[0,0,0,0,0,0,0,0,0,0,0,0,0,0,0,0,0,0,0,0,0,0,0,0,0,0,0,0,0,0,0,0,0,0,0,0,0,0,0,0,0,0,0],"sum_hessian":[2.2183108E3,1.8659246E3,3.523861E2,1.3730792E3,4.9284537E2,5.91313E0,3.4647296E2,9.5159717E2,4.2148206E2,7.18475E1,4.2099786E2,3.3902454E2,7.4484243E0,9.333576E2,1.8239584E1,3.966457E2,2.4836355E1,5.7048286E1,1.4799217E1,2.792219E2,1.4177597E2,9.698349E1,2.4204106E2,2.1278307E2,7.205745E2,1.1016013E1,7.223571E0,2.6336807E2,1.3327762E2,1.9056143E1,5.780213E0,3.5109703E1,2.1938581E1,5.607768E0,9.191449E0,1.6421107E2,1.150108E2,1.061693E2,3.5606667E1,4.18691E1,5.5114388E1,1.7308861E2,6.8952446E1],"tree_param":{"num_deleted":"0","num_feature":"60","num_nodes":"43","size_leaf_vector":"1"}},{"base_weights":[1.7795165E-3,2.0275931E-1,-1.088798E0,3.5483286E-1,-2.1537258E-1,-1.1424526E0,4.0044386E-2,4.2521343E-1,-2.3994337E-1,-4.8666615E-2,-6.078085E-1,-1.3906496E-2,-1.1662207E0,3.578154E-2,-2.417627E-2,3.7945947E-1,8.9452803E-1,1.4602848E-2,-6.471566E-2,1.659638E-1,-4.7792667E-1,-7.452405E-1,9.171597E-1,-2.3606898E-2,-1.1751443E0,1.9931575E-2,4.0939967E-3,4.0757727E-2,1.6585702E-2,-4.815555E-3,3.6677983E-2,-5.9782267E-3,2.284425E-2,-2.3252571E-2,5.4988798E-2,-3.5584815E-2,2.25642E-2,5.1198777E-2,1.911004E-2,-4.7933657E-2,-3.4909327E-2],"categories":[],"categories_nodes":[],"categories_segments":[],"categories_sizes":[],"default_left":[0,0,0,0,0,0,0,0,0,0,0,0,0,0,0,0,0,0,0,0,0,0,0,0,0,0,0,0,0,0,0,0,0,0,0,0,0,0,0,0,0],"id":33,"left_children":[1,3,5,7,9,11,13,15,17,19,21,-1,23,-1,-1,25,27,29,-1,31,33,35,37,-1,39,-1,-1,-1,-1,-1,-1,-1,-1,-1,-1,-1,-1,-1,-1,-1,-1],"loss_changes":[4.824129E2,1.1828991E2,2.0898956E1,5.7204437E1,3.2367302E1,5.6214294E0,9.612437E0,2.5727722E1,5.0965317E1,3.2313538E1,3.1616207E1,0E0,7.595215E-1,0E0,0E0,3.6553696E1,5.848404E0,1.5188917E1,0E0,2.9980125E1,2.3115372E1,2.6259285E1,1.2209015E0,0E0,9.2871094E-1,0E0,0E0,0E0,0E0,0E0,0E0,0E0,0E0,0E0,0E0,0E0,0E0,0E0,0E0,0E0,0E0],"parents":[2147483647,0,0,1,1,2,2,3,3,4,4,5,5,6,6,7,7,8,8,9,9,10,10,12,12,15,15,16,16,17,17,19,19,20,20,21,21,22,22,24,24],"right_children":[2,4,6,8,10,12,14,16,18,20,22,-1,24,-1,-1,26,28,30,-1,32,34,36,38,-1,40,-1,-1,-1,-1,-1,-1,-1,-1,-1,-1,-1,-1,-1,-1,-1,-1],"split_conditions":[9E0,9E0,1.2E1,2.72E1,2.57E1,1E0,1E0,1E0,8E0,1E0,1.3E1,-1.3906496E-2,2.2E1,3.578154E-2,-2.417627E-2,1E0,1E0,1.2E1,-6.471566E-2,3E0,6E0,1E0,7E0,-2.3606898E-2,1E0,1.9931575E-2,4.0939967E-3,4.0757727E-2,1.6585702E-2,-4.815555E-3,3.6677983E-2,-5.9782267E-3,2.284425E-2,-2.3252571E-2,5.4988798E-2,-3.5584815E-2,2.25642E-2,5.1198777E-2,1.911004E-2,-4.7933657E-2,-3.4909327E-2],"split_indices":[7,5,48,6,6,0,8,45,1,44,48,0,6,0,0,44,39,48,0,37,1,47,0,0,46,0,0,0,0,0,0,0,0,0,0,0,0,0,0,0,0],"split_type":[0,0,0,0,0,0,0,0,0,0,0,0,0,0,0,0,0,0,0,0,0,0,0,0,0,0,0,0,0,0,0,0,0,0,0,0,0,0,0,0,0],"sum_hessian":[2.1993457E3,1.8578694E3,3.4147632E2,1.3626628E3,4.9520654E2,3.2605524E2,1.5421083E1,1.218884E3,1.4377876E2,3.485304E2,1.4667616E2,1.004343E1,3.160118E2,6.529957E0,8.891127E0,1.1124517E3,1.064324E2,1.2213397E2,2.1644789E1,2.3260707E2,1.15923325E2,1.3507951E2,1.1596652E1,6.0158076E0,3.09996E2,7.7776984E2,3.3468182E2,8.346228E1,2.2970121E1,1.0689775E2,1.5236222E1,1.310015E2,1.01605576E2,1.1049719E2,5.426131E0,1.2202131E2,1.3058198E1,5.1795225E0,6.41713E0,