{"learner":{"attributes":{"scikit_learn":"{\"_estimator_type\": \"classifier\"}"},"feature_names":["Sustainability_Score","Auto_Renewal_Score","cc_call_count","Current_Anchorings","Renewal_Score_At_Release","rc_agent_flagged","anchoring_3plus","tenure_0_1","cc_avg_sentiment_delta","low_release_score","rc_outbound_count","rc_price_switching","tenure_8plus","cc_min_overall_sentiment","auto_renewal_off","Tenure_Years","rc_discount_offered","any_competitor_signal","rc_price_discussed","cc_ever_suggest_leave","Last_Total_Net_Paid","rc_agent_chased","high_friction_score","rc_asked_justification","#_of_Connection","rc_max_call_number","rc_discount_requested","rc_competitor_mentioned","total_contact_count","anchoring_1plus","rc_call_count","band_upgraded","band_enc","cc_ever_platform_issues","any_leave_signal","total_negative_flags","band_downgraded","critical_risk_billing","rc_rescheduled","tenure_4_7","anchoring_zero","cc_inbound_count","cc_inbound_ratio","tenure_2_3","is_first_year"],"feature_types":["float","int","int","int","float","float","int","int","float","int","float","float","int","float","int","float","float","int","float","float","float","float","int","float","float","float","float","float","int","int","int","int","int","float","int","float","int","int","float","int","int","float","float","int","int"],"gradient_booster":{"model":{"cats":{"enc":[],"feature_segments":[],"sorted_idx":[]},"gbtree_model_param":{"num_parallel_tree":"1","num_trees":"600"},"iteration_indptr":[0,1,2,3,4,5,6,7,8,9,10,11,12,13,14,15,16,17,18,19,20,21,22,23,24,25,26,27,28,29,30,31,32,33,34,35,36,37,38,39,40,41,42,43,44,45,46,47,48,49,50,51,52,53,54,55,56,57,58,59,60,61,62,63,64,65,66,67,68,69,70,71,72,73,74,75,76,77,78,79,80,81,82,83,84,85,86,87,88,89,90,91,92,93,94,95,96,97,98,99,100,101,102,103,104,105,106,107,108,109,110,111,112,113,114,115,116,117,118,119,120,121,122,123,124,125,126,127,128,129,130,131,132,133,134,135,136,137,138,139,140,141,142,143,144,145,146,147,148,149,150,151,152,153,154,155,156,157,158,159,160,161,162,163,164,165,166,167,168,169,170,171,172,173,174,175,176,177,178,179,180,181,182,183,184,185,186,187,188,189,190,191,192,193,194,195,196,197,198,199,200,201,202,203,204,205,206,207,208,209,210,211,212,213,214,215,216,217,218,219,220,221,222,223,224,225,226,227,228,229,230,231,232,233,234,235,236,237,238,239,240,241,242,243,244,245,246,247,248,249,250,251,252,253,254,255,256,257,258,259,260,261,262,263,264,265,266,267,268,269,270,271,272,273,274,275,276,277,278,279,280,281,282,283,284,285,286,287,288,289,290,291,292,293,294,295,296,297,298,299,300,301,302,303,304,305,306,307,308,309,310,311,312,313,314,315,316,317,318,319,320,321,322,323,324,325,326,327,328,329,330,331,332,333,334,335,336,337,338,339,340,341,342,343,344,345,346,347,348,349,350,351,352,353,354,355,356,357,358,359,360,361,362,363,364,365,366,367,368,369,370,371,372,373,374,375,376,377,378,379,380,381,382,383,384,385,386,387,388,389,390,391,392,393,394,395,396,397,398,399,400,401,402,403,404,405,406,407,408,409,410,411,412,413,414,415,416,417,418,419,420,421,422,423,424,425,426,427,428,429,430,431,432,433,434,435,436,437,438,439,440,441,442,443,444,445,446,447,448,449,450,451,452,453,454,455,456,457,458,459,460,461,462,463,464,465,466,467,468,469,470,471,472,473,474,475,476,477,478,479,480,481,482,483,484,485,486,487,488,489,490,491,492,493,494,495,496,497,498,499,500,501,502,503,504,505,506,507,508,509,510,511,512,513,514,515,516,517,518,519,520,521,522,523,524,525,526,527,528,529,530,531,532,533,534,535,536,537,538,539,540,541,542,543,544,545,546,547,548,549,550,551,552,553,554,555,556,557,558,559,560,561,562,563,564,565,566,567,568,569,570,571,572,573,574,575,576,577,578,579,580,581,582,583,584,585,586,587,588,589,590,591,592,593,594,595,596,597,598,599,600],"tree_info":[0,0,0,0,0,0,0,0,0,0,0,0,0,0,0,0,0,0,0,0,0,0,0,0,0,0,0,0,0,0,0,0,0,0,0,0,0,0,0,0,0,0,0,0,0,0,0,0,0,0,0,0,0,0,0,0,0,0,0,0,0,0,0,0,0,0,0,0,0,0,0,0,0,0,0,0,0,0,0,0,0,0,0,0,0,0,0,0,0,0,0,0,0,0,0,0,0,0,0,0,0,0,0,0,0,0,0,0,0,0,0,0,0,0,0,0,0,0,0,0,0,0,0,0,0,0,0,0,0,0,0,0,0,0,0,0,0,0,0,0,0,0,0,0,0,0,0,0,0,0,0,0,0,0,0,0,0,0,0,0,0,0,0,0,0,0,0,0,0,0,0,0,0,0,0,0,0,0,0,0,0,0,0,0,0,0,0,0,0,0,0,0,0,0,0,0,0,0,0,0,0,0,0,0,0,0,0,0,0,0,0,0,0,0,0,0,0,0,0,0,0,0,0,0,0,0,0,0,0,0,0,0,0,0,0,0,0,0,0,0,0,0,0,0,0,0,0,0,0,0,0,0,0,0,0,0,0,0,0,0,0,0,0,0,0,0,0,0,0,0,0,0,0,0,0,0,0,0,0,0,0,0,0,0,0,0,0,0,0,0,0,0,0,0,0,0,0,0,0,0,0,0,0,0,0,0,0,0,0,0,0,0,0,0,0,0,0,0,0,0,0,0,0,0,0,0,0,0,0,0,0,0,0,0,0,0,0,0,0,0,0,0,0,0,0,0,0,0,0,0,0,0,0,0,0,0,0,0,0,0,0,0,0,0,0,0,0,0,0,0,0,0,0,0,0,0,0,0,0,0,0,0,0,0,0,0,0,0,0,0,0,0,0,0,0,0,0,0,0,0,0,0,0,0,0,0,0,0,0,0,0,0,0,0,0,0,0,0,0,0,0,0,0,0,0,0,0,0,0,0,0,0,0,0,0,0,0,0,0,0,0,0,0,0,0,0,0,0,0,0,0,0,0,0,0,0,0,0,0,0,0,0,0,0,0,0,0,0,0,0,0,0,0,0,0,0,0,0,0,0,0,0,0,0,0,0,0,0,0,0,0,0,0,0,0,0,0,0,0,0,0,0,0,0,0,0,0,0,0,0,0,0,0,0,0,0,0,0,0,0,0,0,0,0,0,0,0,0,0,0,0,0,0,0,0,0,0,0,0,0,0,0,0,0,0,0,0,0,0,0,0,0,0,0,0,0,0,0,0,0,0,0,0,0,0,0,0,0,0,0,0,0,0,0,0,0,0,0,0,0,0,0,0,0,0,0,0,0,0,0,0,0,0,0,0,0,0,0,0,0],"trees":[{"base_weights":[1.9878354E-2,5.5838025E-1,-1.69823E0,9.917917E-1,-5.795296E-1,-4.4712722E-1,-1.7266083E0,3.804074E-2,1.05129555E-2,-2.7193E-2,1.0355337E-2,2.6538832E-2,-4.6414264E-2,-5.2349575E-2,-3.406658E-2],"categories":[],"categories_nodes":[],"categories_segments":[],"categories_sizes":[],"default_left":[0,0,0,0,0,0,0,0,0,0,0,0,0,0,0],"id":0,"left_children":[1,3,5,7,9,11,13,-1,-1,-1,-1,-1,-1,-1,-1],"loss_changes":[1.9143004E3,7.775872E2,1.6540405E1,2.01594E2,1.3189851E2,1.9568605E1,2.9696045E0,0E0,0E0,0E0,0E0,0E0,0E0,0E0,0E0],"parents":[2147483647,0,0,1,1,2,2,3,3,4,4,5,5,6,6],"right_children":[2,4,6,8,10,12,14,-1,-1,-1,-1,-1,-1,-1,-1],"split_conditions":[9E0,9E0,1E0,2E0,1E0,8.14E2,1.2E1,3.804074E-2,1.05129555E-2,-2.7193E-2,1.0355337E-2,2.6538832E-2,-4.6414264E-2,-5.2349575E-2,-3.406658E-2],"split_indices":[0,1,15,24,7,20,25,0,0,0,0,0,0,0,0],"split_type":[0,0,0,0,0,0,0,0,0,0,0,0,0,0,0],"sum_hessian":[2.0671545E3,1.5744213E3,4.9273328E2,1.1403114E3,4.341099E2,1.1378379E1,4.813549E2,7.9623914E2,3.4407227E2,3.208208E2,1.1328908E2,5.194477E0,6.1839013E0,4.6478204E2,1.6572855E1],"tree_param":{"num_deleted":"0","num_feature":"45","num_nodes":"15","size_leaf_vector":"1"}},{"base_weights":[-9.450552E-3,5.151158E-1,-1.6491622E0,9.422205E-1,-6.4888555E-1,2.4764411E-2,-1.6781863E0,3.659139E-2,7.688246E-3,-1.0241195E-2,-4.21106E-2,-1.2215318E-2,-5.1192656E-2],"categories":[],"categories_nodes":[],"categories_segments":[],"categories_sizes":[],"default_left":[0,0,0,0,0,0,0,0,0,0,0,0,0],"id":1,"left_children":[1,3,5,7,9,-1,11,-1,-1,-1,-1,-1,-1],"loss_changes":[1.7697827E3,7.7556165E2,3.729016E1,2.1668195E2,9.6587234E1,0E0,1.6797363E1,0E0,0E0,0E0,0E0,0E0,0E0],"parents":[2147483647,0,0,1,1,2,2,3,3,4,4,6,6],"right_children":[2,4,6,8,10,-1,12,-1,-1,-1,-1,-1,-1],"split_conditions":[9E0,9E0,2.1E1,2E0,7E0,2.4764411E-2,1E0,3.659139E-2,7.688246E-3,-1.0241195E-2,-4.21106E-2,-1.2215318E-2,-5.1192656E-2],"split_indices":[0,1,4,3,15,0,15,0,0,0,0,0,0],"split_type":[0,0,0,0,0,0,0,0,0,0,0,0,0],"sum_hessian":[2.0554382E3,1.5577253E3,4.9771292E2,1.1397833E3,4.1794202E2,5.4117484E0,4.9230118E2,8.1084155E2,3.2894174E2,2.980846E2,1.1985742E2,1.1110957E1,4.8119022E2],"tree_param":{"num_deleted":"0","num_feature":"45","num_nodes":"13","size_leaf_vector":"1"}},{"base_weights":[-1.2794581E-2,5.03205E-1,-1.6314435E0,8.584374E-1,-3.728188E-2,2.1200506E-2,-1.6601486E0,2.7045839E-2,-4.3253597E-2,1.999325E-3,-4.562295E-2,-5.0361224E-2,-2.4791565E-2],"categories":[],"categories_nodes":[],"categories_segments":[],"categories_sizes":[],"default_left":[0,0,0,0,0,0,0,0,0,0,0,0,0],"id":2,"left_children":[1,3,5,7,9,-1,11,-1,-1,-1,-1,-1,-1],"loss_changes":[1.7137119E3,2.9880603E2,3.455725E1,9.430542E1,9.5497635E1,0E0,5.9489746E0,0E0,0E0,0E0,0E0,0E0,0E0],"parents":[2147483647,0,0,1,1,2,2,3,3,4,4,6,6],"right_children":[2,4,6,8,10,-1,12,-1,-1,-1,-1,-1,-1],"split_conditions":[9E0,2.55E1,2.1E1,1E0,2E1,2.1200506E-2,1.2E1,2.7045839E-2,-4.3253597E-2,1.999325E-3,-4.562295E-2,-5.0361224E-2,-2.4791565E-2],"split_indices":[0,4,4,2,13,0,10,0,0,0,0,0,0],"split_type":[0,0,0,0,0,0,0,0,0,0,0,0,0],"sum_hessian":[2.0496855E3,1.5546995E3,4.9498615E2,9.378794E2,6.1682E2,5.6745324E0,4.893116E2,9.212726E2,1.6606813E1,5.77267E2,3.9553017E1,4.775485E2,1.1763119E1],"tree_param":{"num_deleted":"0","num_feature":"45","num_nodes":"13","size_leaf_vector":"1"}},{"base_weights":[1.3560865E-2,5.2095133E-1,-1.0037762E0,9.633557E-1,-2.9559058E-1,-5.67715E-1,-1.418687E0,3.0497188E-2,-4.2992525E-2,1.2429938E-2,-1.8300775E-2,1.2262078E-2,-2.2898624E-2,-4.3202523E-2,-1.1480614E-2],"categories":[],"categories_nodes":[],"categories_segments":[],"categories_sizes":[],"default_left":[0,0,0,0,0,0,0,0,0,0,0,0,0,0,0],"id":3,"left_children":[1,3,5,7,9,11,13,-1,-1,-1,-1,-1,-1,-1,-1],"loss_changes":[1.071846E3,5.008818E2,1.2401001E2,1.1606537E2,1.0911462E2,6.5024254E1,7.0980225E0,0E0,0E0,0E0,0E0,0E0,0E0,0E0,0E0],"parents":[2147483647,0,0,1,1,2,2,3,3,4,4,5,5,6,6],"right_children":[2,4,6,8,10,12,14,-1,-1,-1,-1,-1,-1,-1,-1],"split_conditions":[9E0,2E0,2.52E1,1E0,2.55E1,2.25E1,1.3E1,3.0497188E-2,-4.2992525E-2,1.2429938E-2,-1.8300775E-2,1.2262078E-2,-2.2898624E-2,-4.3202523E-2,-1.1480614E-2],"split_indices":[1,3,4,2,4,4,10,0,0,0,0,0,0,0,0],"split_type":[0,0,0,0,0,0,0,0,0,0,0,0,0,0,0],"sum_hessian":[2.0745483E3,1.3845826E3,6.8996564E2,8.979914E2,4.8659128E2,3.3768066E2,3.5228494E2,8.790872E2,1.890419E1,1.4916826E2,3.3742303E2,5.608069E1,2.8159998E2,3.4467953E2,7.605423E0],"tree_param":{"num_deleted":"0","num_feature":"45","num_nodes":"15","size_leaf_vector":"1"}},{"base_weights":[1.917427E-2,5.065396E-1,-1.5709914E0,9.0835965E-1,-5.7254E-1,-1.5980552E0,-5.8733296E-1,3.516526E-2,7.825413E-3,-2.636302E-2,9.608538E-3,-2.0772513E-2,-4.8495166E-2,2.510136E-3,-4.313329E-2],"categories":[],"categories_nodes":[],"categories_segments":[],"categories_sizes":[],"default_left":[0,0,0,0,0,0,0,0,0,0,0,0,0,0,0],"id":4,"left_children":[1,3,5,7,9,11,13,-1,-1,-1,-1,-1,-1,-1,-1],"loss_changes":[1.6020475E3,6.866612E2,1.1752197E1,1.9659119E2,1.17874435E2,6.524292E0,8.624147E0,0E0,0E0,0E0,0E0,0E0,0E0,0E0,0E0],"parents":[2147483647,0,0,1,1,2,2,3,3,4,4,5,5,6,6],"right_children":[2,4,6,8,10,12,14,-1,-1,-1,-1,-1,-1,-1,-1],"split_conditions":[9E0,9E0,1.2E1,2E0,1E0,1E0,9E0,3.516526E-2,7.825413E-3,-2.636302E-2,9.608538E-3,-2.0772513E-2,-4.8495166E-2,2.510136E-3,-4.313329E-2],"split_indices":[0,1,10,3,7,15,1,0,0,0,0,0,0,0,0],"split_type":[0,0,0,0,0,0,0,0,0,0,0,0,0,0,0],"sum_hessian":[2.0652908E3,1.5813667E3,4.839242E2,1.1524692E3,4.2889746E2,4.702595E2,1.3664718E1,8.181614E2,3.3430783E2,3.1945593E2,1.09441536E2,1.0266705E1,4.5999277E2,8.076414E0,5.588303E0],"tree_param":{"num_deleted":"0","num_feature":"45","num_nodes":"15","size_leaf_vector":"1"}},{"base_weights":[-1.6136117E-2,4.6530968E-1,-1.5510129E0,7.853601E-1,-3.5662096E-2,2.718904E-2,-1.5794251E0,2.911726E-2,1.1699309E-2,-5.1828935E-3,3.340264E-2,-4.8220675E-2,-1.6477695E-2],"categories":[],"categories_nodes":[],"categories_segments":[],"categories_sizes":[],"default_left":[0,0,0,0,0,0,0,0,0,0,0,0,0],"id":5,"left_children":[1,3,5,7,9,-1,11,-1,-1,-1,-1,-1,-1],"loss_changes":[1.5121652E3,2.4984158E2,3.5613403E1,6.909717E1,9.5885254E1,0E0,1.281189E1,0E0,0E0,0E0,0E0,0E0,0E0],"parents":[2147483647,0,0,1,1,2,2,3,3,4,4,6,6],"right_children":[2,4,6,8,10,-1,12,-1,-1,-1,-1,-1,-1],"split_conditions":[9E0,2.55E1,2.1E1,1E0,1E1,2.718904E-2,1.2E1,2.911726E-2,1.1699309E-2,-5.1828935E-3,3.340264E-2,-4.8220675E-2,-1.6477695E-2],"split_indices":[0,4,4,5,10,0,10,0,0,0,0,0,0],"split_type":[0,0,0,0,0,0,0,0,0,0,0,0,0],"sum_hessian":[2.0442189E3,1.556593E3,4.876259E2,9.495782E2,6.070148E2,5.1802344E0,4.8244565E2,6.4549274E2,3.0408545E2,5.431468E2,6.3868004E1,4.6907047E2,1.3375182E1],"tree_param":{"num_deleted":"0","num_feature":"45","num_nodes":"13","size_leaf_vector":"1"}},{"base_weights":[8.422331E-3,4.6077314E-1,-1.5169282E0,8.683319E-1,-6.554345E-1,2.0497696E-2,-1.5456833E0,3.340872E-2,8.139099E-3,1.9003304E-2,-2.4665156E-2,-1.1138149E-2,-4.724733E-2],"categories":[],"categories_nodes":[],"categories_segments":[],"categories_sizes":[],"default_left":[0,0,0,0,0,0,0,0,0,0,0,0,0],"id":6,"left_children":[1,3,5,7,9,-1,11,-1,-1,-1,-1,-1,-1],"loss_changes":[1.4125908E3,7.1897656E2,3.076648E1,1.6903772E2,9.141742E1,0E0,1.5098267E1,0E0,0E0,0E0,0E0,0E0,0E0],"parents":[2147483647,0,0,1,1,2,2,3,3,4,4,6,6],"right_children":[2,4,6,8,10,-1,12,-1,-1,-1,-1,-1,-1],"split_conditions":[9E0,9E0,2.1E1,2E0,2.25E1,2.0497696E-2,1E0,3.340872E-2,8.139099E-3,1.9003304E-2,-2.4665156E-2,-1.1138149E-2,-4.724733E-2],"split_indices":[0,1,4,3,4,0,15,0,0,0,0,0,0],"split_type":[0,0,0,0,0,0,0,0,0,0,0,0,0],"sum_hessian":[2.0453923E3,1.5781477E3,4.6724463E2,1.156272E3,4.2187573E2,5.689321E0,4.615553E2,8.188222E2,3.3744977E2,4.7935574E1,3.7394016E2,1.1623739E1,4.4993155E2],"tree_param":{"num_deleted":"0","num_feature":"45","num_nodes":"13","size_leaf_vector":"1"}},{"base_weights":[-1.0700313E-2,4.350917E-1,-1.479681E0,8.152426E-1,-6.24301E-1,-1.0230926E-2,-1.496937E0,2.8387906E-2,-7.01344E-3,7.141685E-3,-2.8701456E-2,-1.8888302E-2,-4.5433767E-2],"categories":[],"categories_nodes":[],"categories_segments":[],"categories_sizes":[],"default_left":[0,0,0,0,0,0,0,0,0,0,0,0,0],"id":7,"left_children":[1,3,5,7,9,-1,11,-1,-1,-1,-1,-1,-1],"loss_changes":[1.343479E3,6.3432654E2,8.690796E0,1.5954456E2,1.195762E2,0E0,5.9768066E0,0E0,0E0,0E0,0E0,0E0,0E0],"parents":[2147483647,0,0,1,1,2,2,3,3,4,4,6,6],"right_children":[2,4,6,8,10,-1,12,-1,-1,-1,-1,-1,-1],"split_conditions":[9E0,9E0,2.2E1,2.72E1,2E0,-1.0230926E-2,1E0,2.8387906E-2,-7.01344E-3,7.141685E-3,-2.8701456E-2,-1.8888302E-2,-4.5433767E-2],"split_indices":[0,1,4,4,15,0,15,0,0,0,0,0,0],"split_type":[0,0,0,0,0,0,0,0,0,0,0,0,0],"sum_hessian":[2.049409E3,1.572759E3,4.7664993E2,1.1576681E3,4.15091E2,7.5121818E0,4.6913776E2,1.0293035E3,1.2836464E2,1.15483604E2,2.996074E2,1.0134225E1,4.5900354E2],"tree_param":{"num_deleted":"0","num_feature":"45","num_nodes":"13","size_leaf_vector":"1"}},{"base_weights":[-3.0210821E-2,4.0669185E-1,-1.4738392E0,7.832148E-1,-5.9736E-1,2.0196488E-2,-1.5018389E0,2.7559118E-2,-1.385995E-2,2.1139316E-2,-2.3231542E-2,-1.7839912E-2,-4.560013E-2],"categories":[],"categories_nodes":[],"categories_segments":[],"categories_sizes":[],"default_left":[0,0,0,0,0,0,0,0,0,0,0,0,0],"id":8,"left_children":[1,3,5,7,9,-1,11,-1,-1,-1,-1,-1,-1],"loss_changes":[1.2760714E3,5.8759906E2,2.9352173E1,1.9101556E2,9.8289536E1,0E0,6.536865E0,0E0,0E0,0E0,0E0,0E0,0E0],"parents":[2147483647,0,0,1,1,2,2,3,3,4,4,6,6],"right_children":[2,4,6,8,10,-1,12,-1,-1,-1,-1,-1,-1],"split_conditions":[9E0,9E0,2.1E1,2.72E1,2.25E1,2.0196488E-2,1E0,2.7559118E-2,-1.385995E-2,2.1139316E-2,-2.3231542E-2,-1.7839912E-2,-4.560013E-2],"split_indices":[0,1,4,4,4,0,15,0,0,0,0,0,0],"split_type":[0,0,0,0,0,0,0,0,0,0,0,0,0],"sum_hessian":[2.0210624E3,1.5520083E3,4.6905402E2,1.1289629E3,4.2304547E2,5.695574E0,4.6335843E2,1.01853516E3,1.1042769E2,5.020991E1,3.7283557E2,9.866589E0,4.5349185E2],"tree_param":{"num_deleted":"0","num_feature":"45","num_nodes":"13","size_leaf_vector":"1"}},{"base_weights":[-3.4960783E-3,4.1292292E-1,-1.4360448E0,7.69672E-1,-5.543152E-1,-4.3904223E-2,-4.7073707E-1,2.503801E-2,-4.0852726E-2,-2.5115032E-2,7.969324E-3,4.5611514E-3,-3.989486E-2],"categories":[],"categories_nodes":[],"categories_segments":[],"categories_sizes":[],"default_left":[0,0,0,0,0,0,0,0,0,0,0,0,0],"id":9,"left_children":[1,3,5,7,9,-1,11,-1,-1,-1,-1,-1,-1],"loss_changes":[1.2172401E3,5.459083E2,1.1286011E1,1.6096887E2,9.918349E1,0E0,7.956231E0,0E0,0E0,0E0,0E0,0E0,0E0],"parents":[2147483647,0,0,1,1,2,2,3,3,4,4,6,6],"right_children":[2,4,6,8,10,-1,12,-1,-1,-1,-1,-1,-1],"split_conditions":[9E0,9E0,1.2E1,1E0,1E0,-4.3904223E-2,2E0,2.503801E-2,-4.0852726E-2,-2.5115032E-2,7.969324E-3,4.5611514E-3,-3.989486E-2],"split_indices":[0,1,10,2,7,0,24,0,0,0,0,0,0],"split_type":[0,0,0,0,0,0,0,0,0,0,0,0,0],"sum_hessian":[2.0383329E3,1.5797631E3,4.5856985E2,1.1543198E3,4.2544324E2,4.4529703E2,1.327283E1,1.1208319E3,3.3487835E1,3.1639935E2,1.09043884E2,8.104392E0,5.168439E0],"tree_param":{"num_deleted":"0","num_feature":"45","num_nodes":"13","size_leaf_vector":"1"}},{"base_weights":[-3.7789922E-3,4.027878E-1,-1.3702074E0,7.620752E-1,-6.257722E-1,2.6498308E-2,-1.3981764E0,2.7775481E-2,-1.2731289E-3,-2.6743822E-2,3.7846714E-3,-4.279459E-2,-8.982496E-3],"categories":[],"categories_nodes":[],"categories_segments":[],"categories_sizes":[],"default_left":[0,0,0,0,0,0,0,0,0,0,0,0,0],"id":10,"left_children":[1,3,5,7,9,-1,11,-1,-1,-1,-1,-1,-1],"loss_changes":[1.1112523E3,5.70121E2,3.019757E1,1.5071436E2,8.0004944E1,0E0,1.3507202E1,0E0,0E0,0E0,0E0,0E0,0E0],"parents":[2147483647,0,0,1,1,2,2,3,3,4,4,6,6],"right_children":[2,4,6,8,10,-1,12,-1,-1,-1,-1,-1,-1],"split_conditions":[9E0,9E0,2.1E1,1E0,1E0,2.6498308E-2,1.2E1,2.7775481E-2,-1.2731289E-3,-2.6743822E-2,3.7846714E-3,-4.279459E-2,-8.982496E-3],"split_indices":[0,1,4,6,44,0,10,0,0,0,0,0,0],"split_type":[0,0,0,0,0,0,0,0,0,0,0,0,0],"sum_hessian":[1.9981267E3,1.5404219E3,4.5770474E2,1.1418999E3,3.9852197E2,5.1924024E0,4.5251233E2,9.4873914E2,1.931608E2,2.9443338E2,1.04088585E2,4.407665E2,1.1745822E1],"tree_param":{"num_deleted":"0","num_feature":"45","num_nodes":"13","size_leaf_vector":"1"}},{"base_weights":[-7.6387734E-3,3.8767108E-1,-1.3682071E0,7.223806E-1,-5.224834E-1,2.2728004E-2,-1.3963389E0,2.3511844E-2,-4.366051E-2,-2.365818E-2,6.823212E-3,-4.2417478E-2,-2.049297E-2],"categories":[],"categories_nodes":[],"categories_segments":[],"categories_sizes":[],"default_left":[0,0,0,0,0,0,0,0,0,0,0,0,0],"id":11,"left_children":[1,3,5,7,9,-1,11,-1,-1,-1,-1,-1,-1],"loss_changes":[1.0701156E3,4.6999976E2,2.7910522E1,1.5171143E2,8.3051796E1,0E0,4.371887E0,0E0,0E0,0E0,0E0,0E0,0E0],"parents":[2147483647,0,0,1,1,2,2,3,3,4,4,6,6],"right_children":[2,4,6,8,10,-1,12,-1,-1,-1,-1,-1,-1],"split_conditions":[9E0,9E0,2.1E1,1E0,1E0,2.2728004E-2,1.2E1,2.3511844E-2,-4.366051E-2,-2.365818E-2,6.823212E-3,-4.2417478E-2,-2.049297E-2],"split_indices":[0,1,4,2,7,0,10,0,0,0,0,0,0],"split_type":[0,0,0,0,0,0,0,0,0,0,0,0,0],"sum_hessian":[1.9874635E3,1.5405128E3,4.469507E2,1.1265427E3,4.1397012E2,5.4523697E0,4.4149832E2,1.0963442E3,3.019843E1,3.056035E2,1.08366615E2,4.2978415E2,1.1714175E1],"tree_param":{"num_deleted":"0","num_feature":"45","num_nodes":"13","size_leaf_vector":"1"}},{"base_weights":[-1.2217622E-2,3.733453E-1,-1.3573663E0,6.8341666E-1,-4.6564674E-1,-1.3852274E0,-3.4886578E-1,2.5421493E-2,-2.8236897E-3,-2.224719E-2,8.629849E-3,-9.040467E-3,-4.2106405E-2,7.4055917E-3,-2.301967E-2],"categories":[],"categories_nodes":[],"categories_segments":[],"categories_sizes":[],"default_left":[0,0,0,0,0,0,0,0,0,0,0,0,0,0,0],"id":12,"left_children":[1,3,5,7,9,11,13,-1,-1,-1,-1,-1,-1,-1,-1],"loss_changes":[1.0346642E3,4.0365887E2,1.1831238E1,1.4453564E2,8.7322815E1,7.9855957E0,3.5772057E0,0E0,0E0,0E0,0E0,0E0,0E0,0E0,0E0],"parents":[2147483647,0,0,1,1,2,2,3,3,4,4,5,5,6,6],"right_children":[2,4,6,8,10,12,14,-1,-1,-1,-1,-1,-1,-1,-1],"split_conditions":[9E0,9E0,1.2E1,1E0,1E0,2.2E1,3E0,2.5421493E-2,-2.8236897E-3,-2.224719E-2,8.629849E-3,-9.040467E-3,-4.2106405E-2,7.4055917E-3,-2.301967E-2],"split_indices":[0,1,10,6,7,4,32,0,0,0,0,0,0,0,0],"split_type":[0,0,0,0,0,0,0,0,0,0,0,0,0,0,0],"sum_hessian":[1.9927917E3,1.549347E3,4.434446E2,1.1314827E3,4.1786435E2,4.3106323E2,1.238138E1,9.3446326E2,1.9701945E2,3.0594818E2,1.1191618E2,7.545361E0,4.2351788E2,5.1792555E0,7.2021246E0],"tree_param":{"num_deleted":"0","num_feature":"45","num_nodes":"15","size_leaf_vector":"1"}},{"base_weights":[-1.1203126E-2,3.622325E-1,-1.3268361E0,6.7741245E-1,-4.7535574E-1,-1.3535591E0,-3.34811E-1,2.7395314E-2,3.4956501E-3,-2.2800306E-2,8.057691E-3,-4.1639317E-2,-3.3669524E-2,1.269877E-2,-3.8559273E-2],"categories":[],"categories_nodes":[],"categories_segments":[],"categories_sizes":[],"default_left":[0,0,0,0,0,0,0,0,0,0,0,0,0,0,0],"id":13,"left_children":[1,3,5,7,9,11,13,-1,-1,-1,-1,-1,-1,-1,-1],"loss_changes":[9.7728284E2,4.093142E2,1.1036987E1,1.4870703E2,9.005679E1,1.5963135E0,9.97125E0,0E0,0E0,0E0,0E0,0E0,0E0,0E0,0E0],"parents":[2147483647,0,0,1,1,2,2,3,3,4,4,5,5,6,6],"right_children":[2,4,6,8,10,12,14,-1,-1,-1,-1,-1,-1,-1,-1],"split_conditions":[9E0,9E0,1.2E1,2E0,1E0,1E0,2E0,2.7395314E-2,3.4956501E-3,-2.2800306E-2,8.057691E-3,-4.1639317E-2,-3.3669524E-2,1.269877E-2,-3.8559273E-2],"split_indices":[0,1,10,3,7,7,24,0,0,0,0,0,0,0,0],"split_type":[0,0,0,0,0,0,0,0,0,0,0,0,0,0,0],"sum_hessian":[1.9869856E3,1.5481888E3,4.3879675E2,1.1251221E3,4.2306674E2,4.2683353E2,1.1963225E1,7.915822E2,3.3353983E2,3.0606894E2,1.16997795E2,3.6680368E2,6.0029842E1,6.905196E0,5.0580287E0],"tree_param":{"num_deleted":"0","num_feature":"45","num_nodes":"15","size_leaf_vector":"1"}},{"base_weights":[-5.0021173E-3,3.8196465E-1,-8.315288E-1,7.711044E-1,-1.4023349E-1,5.2677065E-1,-9.657506E-1,2.4254331E-2,-3.1107748E-2,5.3257E-3,-1.8601941E-2,2.3851726E-2,3.5996824E-3,-2.2861019E-2,-3.6152396E-2],"categories":[],"categories_nodes":[],"categories_segments":[],"categories_sizes":[],"default_left":[0,0,0,0,0,0,0,0,0,0,0,0,0,0,0],"id":14,"left_children":[1,3,5,7,9,11,13,-1,-1,-1,-1,-1,-1,-1,-1],"loss_changes":[6.395901E2,2.769148E2,1.1681799E2,5.356369E1,8.893039E1,6.135252E0,2.7201721E1,0E0,0E0,0E0,0E0,0E0,0E0,0E0,0E0],"parents":[2147483647,0,0,1,1,2,2,3,3,4,4,5,5,6,6],"right_children":[2,4,6,8,10,12,14,-1,-1,-1,-1,-1,-1,-1,-1],"split_conditions":[9E0,2.55E1,2.25E1,1E0,3E0,1E0,2.57E1,2.4254331E-2,-3.1107748E-2,5.3257E-3,-1.8601941E-2,2.3851726E-2,3.5996824E-3,-2.2861019E-2,-3.6152396E-2],"split_indices":[1,4,4,2,24,5,4,0,0,0,0,0,0,0,0],"split_type":[0,0,0,0,0,0,0,0,0,0,0,0,0,0,0],"sum_hessian":[1.9975956E3,1.3608732E3,6.367225E2,7.796192E2,5.812539E2,5.693017E1,5.797923E2,7.64426E2,1.5193147E1,3.4993765E2,2.3131627E2,3.358157E1,2.3348598E1,3.1568445E2,2.6410788E2],"tree_param":{"num_deleted":"0","num_feature":"45","num_nodes":"15","size_leaf_vector":"1"}},{"base_weights":[-1.1250124E-3,3.5999092E-1,-1.2792423E0,6.6315883E-1,-4.896669E-1,1.9395688E-1,-1.3190148E0,2.3214193E-2,-9.499666E-3,1.8835075E-2,-1.9191485E-2,2.4902197E-2,-1.4880031E-2,1.7187988E-2,-4.042689E-2],"categories":[],"categories_nodes":[],"categories_segments":[],"categories_sizes":[],"default_left":[0,0,0,0,0,0,0,0,0,0,0,0,0,0,0],"id":15,"left_children":[1,3,5,7,9,11,13,-1,-1,-1,-1,-1,-1,-1,-1],"loss_changes":[9.107856E2,3.9661612E2,2.5840454E1,1.23269684E2,6.832233E1,5.8144574E0,2.372345E1,0E0,0E0,0E0,0E0,0E0,0E0,0E0,0E0],"parents":[2147483647,0,0,1,1,2,2,3,3,4,4,5,5,6,6],"right_children":[2,4,6,8,10,12,14,-1,-1,-1,-1,-1,-1,-1,-1],"split_conditions":[9E0,9E0,1E0,2.72E1,2.25E1,2E0,2.1E1,2.3214193E-2,-9.499666E-3,1.8835075E-2,-1.9191485E-2,2.4902197E-2,-1.4880031E-2,1.7187988E-2,-4.042689E-2],"split_indices":[0,1,15,4,4,24,4,0,0,0,0,0,0,0,0],"split_type":[0,0,0,0,0,0,0,0,0,0,0,0,0,0,0],"sum_hessian":[1.9711289E3,1.5373969E3,4.33732E2,1.1333438E3,4.0405316E2,1.1233795E1,4.224982E2,1.01862555E3,1.1471819E2,4.737486E1,3.566783E2,5.814705E0,5.41909E0,5.9449244E0,4.1655328E2],"tree_param":{"num_deleted":"0","num_feature":"45","num_nodes":"15","size_leaf_vector":"1"}},{"base_weights":[1.46671515E-2,3.5677463E-1,-1.2892138E0,6.4891195E-1,-4.7202247E-1,-2.5823745E-3,-1.3196042E0,2.610366E-2,3.0690928E-3,6.0154344E-3,-2.1786483E-2,-4.0468175E-2,-1.619682E-2],"categories":[],"categories_nodes":[],"categories_segments":[],"categories_sizes":[],"default_left":[0,0,0,0,0,0,0,0,0,0,0,0,0],"id":16,"left_children":[1,3,5,7,9,-1,11,-1,-1,-1,-1,-1,-1],"loss_changes":[8.841937E2,3.8055426E2,1.4809021E1,1.4027353E2,7.024984E1,0E0,8.270203E0,0E0,0E0,0E0,0E0,0E0,0E0],"parents":[2147483647,0,0,1,1,2,2,3,3,4,4,6,6],"right_children":[2,4,6,8,10,-1,12,-1,-1,-1,-1,-1,-1],"split_conditions":[9E0,9E0,1E0,2E0,2E0,-2.5823745E-3,1.2E1,2.610366E-2,3.0690928E-3,6.0154344E-3,-2.1786483E-2,-4.0468175E-2,-1.619682E-2],"split_indices":[0,1,15,3,15,0,25,0,0,0,0,0,0],"split_type":[0,0,0,0,0,0,0,0,0,0,0,0,0],"sum_hessian":[1.9803756E3,1.5694042E3,4.1097144E2,1.1606366E3,4.0876758E2,1.03006115E1,4.006708E2,8.257034E2,3.3493314E2,1.1207119E2,2.9669638E2,3.8531577E2,1.5355048E1],"tree_param":{"num_deleted":"0","num_feature":"45","num_nodes":"13","size_leaf_vector":"1"}},{"base_weights":[3.0977041E-3,3.426285E-1,-6.992684E-1,6.6398746E-1,-2.7196443E-1,6.705336E-1,-8.4175307E-1,2.1122659E-2,-4.068252E-2,7.5039114E-3,-1.5011852E-2,2.9394655E-2,7.362869E-3,-2.6962977E-2,1.4306438E-2],"categories":[],"categories_nodes":[],"categories_segments":[],"categories_sizes":[],"default_left":[0,0,0,0,0,0,0,0,0,0,0,0,0,0,0],"id":17,"left_children":[1,3,5,7,9,11,13,-1,-1,-1,-1,-1,-1,-1,-1],"loss_changes":[4.6261008E2,2.5853647E2,1.23954834E2,7.049338E1,5.377892E1,7.531973E0,4.3553467E1,0E0,0E0,0E0,0E0,0E0,0E0,0E0,0E0],"parents":[2147483647,0,0,1,1,2,2,3,3,4,4,5,5,6,6],"right_children":[2,4,6,8,10,12,14,-1,-1,-1,-1,-1,-1,-1,-1],"split_conditions":[9E0,2E0,2.25E1,5E0,2.55E1,1E0,1.3E1,2.1122659E-2,-4.068252E-2,7.5039114E-3,-1.5011852E-2,2.9394655E-2,7.362869E-3,-2.6962977E-2,1.4306438E-2],"split_indices":[1,3,4,8,4,3,10,0,0,0,0,0,0,0,0],"split_type":[0,0,0,0,0,0,0,0,0,0,0,0,0,0,0],"sum_hessian":[1.9380137E3,1.3068998E3,6.311139E2,8.5823E2,4.486698E2,5.9047012E1,5.720669E2,8.422119E2,1.6018087E1,1.3639542E2,3.1227438E2,3.328796E1,2.5759054E1,5.4873584E2,2.3331057E1],"tree_param":{"num_deleted":"0","num_feature":"45","num_nodes":"15","size_leaf_vector":"1"}},{"base_weights":[-9.6518975E-3,3.2585493E-1,-1.2677615E0,5.917045E-1,-4.0759405E-1,-1.3066584E0,-1.5191586E-1,2.53989E-2,5.2738898E-3,-2.057992E-2,9.908477E-3,-1.4065044E-2,-3.980226E-2,2.5890067E-2,-2.5037086E-2],"categories":[],"categories_nodes":[],"categories_segments":[],"categories_sizes":[],"default_left":[0,0,0,0,0,0,0,0,0,0,0,0,0,0,0],"id":18,"left_children":[1,3,5,7,9,11,13,-1,-1,-1,-1,-1,-1,-1,-1],"loss_changes":[8.22897E2,3.003176E2,1.7470276E1,1.1955533E2,8.4463646E1,5.868469E0,1.1140382E1,0E0,0E0,0E0,0E0,0E0,0E0,0E0,0E0],"parents":[2147483647,0,0,1,1,2,2,3,3,4,4,5,5,6,6],"right_children":[2,4,6,8,10,12,14,-1,-1,-1,-1,-1,-1,-1,-1],"split_conditions":[9E0,9E0,1.2E1,2.52E1,1E0,1E0,1E0,2.53989E-2,5.2738898E-3,-2.057992E-2,9.908477E-3,-1.4065044E-2,-3.980226E-2,2.5890067E-2,-2.5037086E-2],"split_indices":[0,1,10,4,7,15,24,0,0,0,0,0,0,0,0],"split_type":[0,0,0,0,0,0,0,0,0,0,0,0,0,0,0],"sum_hessian":[1.947309E3,1.537861E3,4.094481E2,1.1289762E3,4.0888474E2,3.9540417E2,1.4043916E1,6.9915936E2,4.2981683E2,2.9702286E2,1.1186186E2,9.9428625E0,3.8546133E2,5.4824085E0,8.561507E0],"tree_param":{"num_deleted":"0","num_feature":"45","num_nodes":"15","size_leaf_vector":"1"}},{"base_weights":[1.8238893E-2,3.4997383E-1,-1.25215E0,6.2485325E-1,-9.005107E-2,2.0730449E-2,-1.2818552E0,1.9798668E-2,-3.5442445E-2,1.0978045E-4,-4.1523226E-2,-3.5670009E-3,-3.939949E-2],"categories":[],"categories_nodes":[],"categories_segments":[],"categories_sizes":[],"default_left":[0,0,0,0,0,0,0,0,0,0,0,0,0],"id":19,"left_children":[1,3,5,7,9,-1,11,-1,-1,-1,-1,-1,-1],"loss_changes":[8.2085394E2,1.8694176E2,2.4223572E1,6.102527E1,7.225448E1,0E0,1.4248657E1,0E0,0E0,0E0,0E0,0E0,0E0],"parents":[2147483647,0,0,1,1,2,2,3,3,4,4,6,6],"right_children":[2,4,6,8,10,-1,12,-1,-1,-1,-1,-1,-1],"split_conditions":[9E0,2.55E1,2.1E1,1E0,1E0,2.0730449E-2,1E0,1.9798668E-2,-3.5442445E-2,1.0978045E-4,-4.1523226E-2,-3.5670009E-3,-3.939949E-2],"split_indices":[0,4,4,2,2,0,15,0,0,0,0,0,0],"split_type":[0,0,0,0,0,0,0,0,0,0,0,0,0],"sum_hessian":[1.9459456E3,1.543656E3,4.0228955E2,9.5000433E2,5.936516E2,5.671317E0,3.9661823E2,9.325711E2,1.7433258E1,5.544224E2,3.9229168E1,1.0656576E1,3.8596164E2],"tree_param":{"num_deleted":"0","num_feature":"45","num_nodes":"13","size_leaf_vector":"1"}},{"base_weights":[-1.579672E-2,3.145669E-1,-1.2823896E0,5.869472E-1,-4.4317284E-1,-1.3144017E0,-5.0510657E-1,1.9387662E-2,-3.8999777E-2,1.6526211E-2,-1.7361233E-2,-4.0426534E-2,-3.279469E-2,-3.730412E-2,2.4110964E-2],"categories":[],"categories_nodes":[],"categories_segments":[],"categories_sizes":[],"default_left":[0,0,0,0,0,0,0,0,0,0,0,0,0,0,0],"id":20,"left_children":[1,3,5,7,9,11,13,-1,-1,-1,-1,-1,-1,-1,-1],"loss_changes":[8.017554E2,3.1388672E2,9.017334E0,1.2591803E2,5.45159E1,1.0695801E0,1.788455E1,0E0,0E0,0E0,0E0,0E0,0E0,0E0,0E0],"parents":[2147483647,0,0,1,1,2,2,3,3,4,4,5,5,6,6],"right_children":[2,4,6,8,10,12,14,-1,-1,-1,-1,-1,-1,-1,-1],"split_conditions":[9E0,9E0,1E0,1E0,2.25E1,1E0,9E0,1.9387662E-2,-3.8999777E-2,1.6526211E-2,-1.7361233E-2,-4.0426534E-2,-3.279469E-2,-3.730412E-2,2.4110964E-2],"split_indices":[0,1,17,2,4,7,10,0,0,0,0,0,0,0,0],"split_type":[0,0,0,0,0,0,0,0,0,0,0,0,0,0,0],"sum_hessian":[1.9138801E3,1.5184879E3,3.9539233E2,1.1172382E3,4.0124973E2,3.7896515E2,1.6427189E1,1.0838812E3,3.3356876E1,4.768847E1,3.5356125E2,3.2476288E2,5.4202248E1,1.0583065E1,5.8441234E0],"tree_param":{"num_deleted":"0","num_feature":"45","num_nodes":"15","size_leaf_vector":"1"}},{"base_weights":[1.7271796E-3,3.0922645E-1,-1.1954529E0,5.7532245E-1,-4.70293E-1,2.0860933E-2,-1.2253056E0,1.9010495E-2,-3.524846E-2,-6.3486546E-3,-2.9935047E-2,3.726231E-3,-3.8071204E-2],"categories":[],"categories_nodes":[],"categories_segments":[],"categories_sizes":[],"default_left":[0,0,0,0,0,0,0,0,0,0,0,0,0],"id":21,"left_children":[1,3,5,7,9,-1,11,-1,-1,-1,-1,-1,-1],"loss_changes":[7.0406586E2,3.159726E2,2.2966003E1,1.1664487E2,5.2582848E1,0E0,2.3005005E1,0E0,0E0,0E0,0E0,0E0,0E0],"parents":[2147483647,0,0,1,1,2,2,3,3,4,4,6,6],"right_children":[2,4,6,8,10,-1,12,-1,-1,-1,-1,-1,-1],"split_conditions":[9E0,9E0,2.1E1,1E0,6E0,2.0860933E-2,1E0,1.9010495E-2,-3.524846E-2,-6.3486546E-3,-2.9935047E-2,3.726231E-3,-3.8071204E-2],"split_indices":[0,1,4,2,15,0,15,0,0,0,0,0,0],"split_type":[0,0,0,0,0,0,0,0,0,0,0,0,0],"sum_hessian":[1.910773E3,1.5209402E3,3.8983276E2,1.1341709E3,3.867693E2,5.660551E0,3.841722E2,1.0982462E3,3.5924652E1,2.6058606E2,1.2618321E2,1.1929774E1,3.7224246E2],"tree_param":{"num_deleted":"0","num_feature":"45","num_nodes":"13","size_leaf_vector":"1"}},{"base_weights":[1.2140445E-2,3.0808195E-1,-1.1869347E0,5.4089844E-1,-3.4193465E-1,2.7169165E-1,-1.2311023E0,1.9468563E-2,-9.911831E-3,7.978738E-3,-1.821139E-2,5.347886E-2,-3.7167646E-2,-3.234911E-3,-3.7551608E-2],"categories":[],"categories_nodes":[],"categories_segments":[],"categories_sizes":[],"default_left":[0,0,0,0,0,0,0,0,0,0,0,0,0,0,0],"id":22,"left_children":[1,3,5,7,9,11,13,-1,-1,-1,-1,-1,-1,-1,-1],"loss_changes":[6.7613293E2,2.3150966E2,2.4728394E1,1.0624213E2,6.523475E1,2.928117E1,8.212891E0,0E0,0E0,0E0,0E0,0E0,0E0,0E0,0E0],"parents":[2147483647,0,0,1,1,2,2,3,3,4,4,5,5,6,6],"right_children":[2,4,6,8,10,12,14,-1,-1,-1,-1,-1,-1,-1,-1],"split_conditions":[9E0,9E0,1E0,2.72E1,2E0,7.062E2,2.2E1,1.9468563E-2,-9.911831E-3,7.978738E-3,-1.821139E-2,5.347886E-2,-3.7167646E-2,-3.234911E-3,-3.7551608E-2],"split_indices":[0,1,15,4,15,20,4,0,0,0,0,0,0,0,0],"split_type":[0,0,0,0,0,0,0,0,0,0,0,0,0,0,0],"sum_hessian":[1.9035894E3,1.527433E3,3.7615643E2,1.1248625E3,4.0257043E2,1.083744E1,3.65319E2,1.0010829E3,1.2377965E2,1.2213605E2,2.804344E2,5.3612094E0,5.47623E0,6.7843676E0,3.585346E2],"tree_param":{"num_deleted":"0","num_feature":"45","num_nodes":"15","size_leaf_vector":"1"}},{"base_weights":[-1.30801E-2,2.8615862E-1,-1.1927739E0,5.158153E-1,-3.325095E-1,2.6224533E-2,-1.2237191E0,1.7226411E-2,-3.8149726E-2,-1.9124188E-2,1.15737775E-2,6.8558066E-4,-3.7684496E-2],"categories":[],"categories_nodes":[],"categories_segments":[],"categories_sizes":[],"default_left":[0,0,0,0,0,0,0,0,0,0,0,0,0],"id":23,"left_children":[1,3,5,7,9,-1,11,-1,-1,-1,-1,-1,-1],"loss_changes":[6.674869E2,2.1445184E2,2.5575989E1,1.1551428E2,8.9807816E1,0E0,1.5409973E1,0E0,0E0,0E0,0E0,0E0,0E0],"parents":[2147483647,0,0,1,1,2,2,3,3,4,4,6,6],"right_children":[2,4,6,8,10,-1,12,-1,-1,-1,-1,-1,-1],"split_conditions":[9E0,9E0,2.1E1,1E0,1E0,2.6224533E-2,1E0,1.7226411E-2,-3.8149726E-2,-1.9124188E-2,1.15737775E-2,6.8558066E-4,-3.7684496E-2],"split_indices":[0,1,4,2,7,0,15,0,0,0,0,0,0],"split_type":[0,0,0,0,0,0,0,0,0,0,0,0,0],"sum_hessian":[1.8886199E3,1.5070239E3,3.8159592E2,1.0992847E3,4.077392E2,5.179228E0,3.7641672E2,1.0652178E3,3.4066963E1,2.8639755E2,1.2134164E2,9.473818E0,3.6694287E2],"tree_param":{"num_deleted":"0","num_feature":"45","num_nodes":"13","size_leaf_vector":"1"}},{"base_weights":[1.8185382E-3,2.8678092E-1,-1.1518447E0,5.185784E-1,-3.6598513E-1,2.2528945E-2,-1.1823741E0,1.7262243E-2,-3.722654E-2,-7.3539565E-4,-2.6291562E-2,6.170592E-3,-3.681607E-2],"categories":[],"categories_nodes":[],"categories_segments":[],"categories_sizes":[],"default_left":[0,0,0,0,0,0,0,0,0,0,0,0,0],"id":24,"left_children":[1,3,5,7,9,-1,11,-1,-1,-1,-1,-1,-1],"loss_changes":[6.177141E2,2.2823816E2,2.2550964E1,1.1190289E2,6.880083E1,0E0,2.3174377E1,0E0,0E0,0E0,0E0,0E0,0E0],"parents":[2147483647,0,0,1,1,2,2,3,3,4,4,6,6],"right_children":[2,4,6,8,10,-1,12,-1,-1,-1,-1,-1,-1],"split_conditions":[9E0,9E0,2.1E1,1E0,2.52E1,2.2528945E-2,1E0,1.7262243E-2,-3.722654E-2,-7.3539565E-4,-2.6291562E-2,6.170592E-3,-3.681607E-2],"split_indices":[0,1,4,2,4,0,15,0,0,0,0,0,0],"split_type":[0,0,0,0,0,0,0,0,0,0,0,0,0],"sum_hessian":[1.8772332E3,1.5060636E3,3.7116953E2,1.1116685E3,3.9439514E2,5.436782E0,3.6573273E2,1.0775927E3,3.4075855E1,2.3704765E2,1.5734749E2,1.1260012E1,3.5447272E2],"tree_param":{"num_deleted":"0","num_feature":"45","num_nodes":"13","size_leaf_vector":"1"}},{"base_weights":[6.0709734E-3,2.786259E-1,-1.1360852E0,3.3834758E-1,-1.3162875E0,2.4884008E-2,-1.1673422E0,2.401548E-2,5.159679E-3,-4.4154026E-2,9.1931183E-4,-1.4845779E-3,-3.5987657E-2],"categories":[],"categories_nodes":[],"categories_segments":[],"categories_sizes":[],"default_left":[0,0,0,0,0,0,0,0,0,0,0,0,0],"id":25,"left_children":[1,3,5,7,9,-1,11,-1,-1,-1,-1,-1,-1],"loss_changes":[5.849259E2,1.4486728E2,2.3241302E1,1.1227519E2,1.1690384E1,0E0,1.2676575E1,0E0,0E0,0E0,0E0,0E0,0E0],"parents":[2147483647,0,0,1,1,2,2,3,3,4,4,6,6],"right_children":[2,4,6,8,10,-1,12,-1,-1,-1,-1,-1,-1],"split_conditions":[9E0,1E0,2.1E1,2.35E1,1E0,2.4884008E-2,1E0,2.401548E-2,5.159679E-3,-4.4154026E-2,9.1931183E-4,-1.4845779E-3,-3.5987657E-2],"split_indices":[0,2,4,4,14,0,15,0,0,0,0,0,0],"split_type":[0,0,0,0,0,0,0,0,0,0,0,0,0],"sum_hessian":[1.8772351E3,1.5162524E3,3.6098264E2,1.4623453E3,5.3907116E1,5.2008095E0,3.5578183E2,3.8588513E2,1.0764602E3,4.8310806E1,5.596312E0,1.0133346E1,3.4564847E2],"tree_param":{"num_deleted":"0","num_feature":"45","num_nodes":"13","size_leaf_vector":"1"}},{"base_weights":[3.92375E-3,2.8056642E-1,-1.1775684E0,4.9448255E-1,-3.0139488E-1,1.5748682E-2,-1.2085234E0,2.0277265E-2,2.2352205E-3,3.5185432E-3,-1.9105088E-2,-1.0836339E-2,-3.6898423E-2],"categories":[],"categories_nodes":[],"categories_segments":[],"categories_sizes":[],"default_left":[0,0,0,0,0,0,0,0,0,0,0,0,0],"id":26,"left_children":[1,3,5,7,9,-1,11,-1,-1,-1,-1,-1,-1],"loss_changes":[6.0911127E2,1.8818561E2,1.9335327E1,8.405878E1,5.7206898E1,0E0,5.7063904E0,0E0,0E0,0E0,0E0,0E0,0E0],"parents":[2147483647,0,0,1,1,2,2,3,3,4,4,6,6],"right_children":[2,4,6,8,10,-1,12,-1,-1,-1,-1,-1,-1],"split_conditions":[9E0,9E0,2.1E1,2E0,3E0,1.5748682E-2,1E0,2.0277265E-2,2.2352205E-3,3.5185432E-3,-1.9105088E-2,-1.0836339E-2,-3.6898423E-2],"split_indices":[0,1,4,3,15,0,15,0,0,0,0,0,0],"split_type":[0,0,0,0,0,0,0,0,0,0,0,0,0],"sum_hessian":[1.8618374E3,1.5092892E3,3.5254813E2,1.1038577E3,4.0543155E2,5.952832E0,3.465953E2,7.7026227E2,3.3359537E2,1.8049713E2,2.2493443E2,9.102976E0,3.3749234E2],"tree_param":{"num_deleted":"0","num_feature":"45","num_nodes":"13","size_leaf_vector":"1"}},{"base_weights":[8.12984E-3,2.9091677E-1,-6.23791E-1,6.1185986E-1,-1.3938582E-1,3.1360352E-1,-7.2306025E-1,2.288337E-2,8.115579E-3,-1.0511364E-2,1.4731602E-2,2.208037E-2,-9.733122E-3,-2.3214173E-2,1.2408326E-2],"categories":[],"categories_nodes":[],"categories_segments":[],"categories_sizes":[],"default_left":[0,0,0,0,0,0,0,0,0,0,0,0,0,0,0],"id":27,"left_children":[1,3,5,7,9,11,13,-1,-1,-1,-1,-1,-1,-1,-1],"loss_changes":[3.3688943E2,1.800281E2,5.4498245E1,3.8143158E1,7.427316E1,1.5482533E1,3.0775635E1,0E0,0E0,0E0,0E0,0E0,0E0,0E0,0E0],"parents":[2147483647,0,0,1,1,2,2,3,3,4,4,5,5,6,6],"right_children":[2,4,6,8,10,12,14,-1,-1,-1,-1,-1,-1,-1,-1],"split_conditions":[9E0,2.55E1,2.25E1,1E0,6E0,1E0,1.3E1,2.288337E-2,8.115579E-3,-1.0511364E-2,1.4731602E-2,2.208037E-2,-9.733122E-3,-2.3214173E-2,1.2408326E-2],"split_indices":[1,4,4,5,10,29,10,0,0,0,0,0,0,0,0],"split_type":[0,0,0,0,0,0,0,0,0,0,0,0,0,0,0],"sum_hessian":[1.8834052E3,1.3016222E3,5.8178296E2,7.454417E2,5.5618054E2,5.540737E1,5.2637555E2,5.158416E2,2.296001E2,4.1716742E2,1.3901314E2,3.333887E1,2.20685E1,5.0427014E2,2.2105427E1],"tree_param":{"num_deleted":"0","num_feature":"45","num_nodes":"15","size_leaf_vector":"1"}},{"base_weights":[-2.1900733E-3,2.6425272E-1,-1.1621917E0,4.977433E-1,-9.621446E-2,1.7713765E-2,-1.193641E0,2.0087946E-2,3.7247231E-3,-6.471436E-3,2.2139026E-2,-3.6507208E-2,-1.0020495E-2],"categories":[],"categories_nodes":[],"categories_segments":[],"categories_sizes":[],"default_left":[0,0,0,0,0,0,0,0,0,0,0,0,0],"id":28,"left_children":[1,3,5,7,9,-1,11,-1,-1,-1,-1,-1,-1],"loss_changes":[5.7249457E2,1.2684192E2,1.9836517E1,5.8538483E1,5.9189606E1,0E0,6.2442627E0,0E0,0E0,0E0,0E0,0E0,0E0],"parents":[2147483647,0,0,1,1,2,2,3,3,4,4,6,6],"right_children":[2,4,6,8,10,-1,12,-1,-1,-1,-1,-1,-1],"split_conditions":[9E0,2.55E1,2.1E1,1E0,9E0,1.7713765E-2,1.2E1,2.0087946E-2,3.7247231E-3,-6.471436E-3,2.2139026E-2,-3.6507208E-2,-1.0020495E-2],"split_indices":[0,4,4,5,10,0,10,0,0,0,0,0,0],"split_type":[0,0,0,0,0,0,0,0,0,0,0,0,0],"sum_hessian":[1.8500049E3,1.5050039E3,3.4500098E2,9.1330945E2,5.9169446E2,5.7121377E0,3.3928885E2,6.248222E2,2.8848724E2,5.183062E2,7.338826E1,3.2982996E2,9.458883E0],"tree_param":{"num_deleted":"0","num_feature":"45","num_nodes":"13","size_leaf_vector":"1"}},{"base_weights":[1.9777762E-2,2.7776045E-1,-1.1086951E0,3.3481115E-1,-1.2059747E0,1.1888623E-2,-1.1557213E0,1.602748E-2,7.52405E-4,-4.0680815E-2,2.9708797E-3,2.2413969E-2,-3.5680972E-2],"categories":[],"categories_nodes":[],"categories_segments":[],"categories_sizes":[],"default_left":[0,0,0,0,0,0,0,0,0,0,0,0,0],"id":29,"left_children":[1,3,5,7,9,-1,11,-1,-1,-1,-1,-1,-1],"loss_changes":[5.3718024E2,1.2746511E2,2.4832123E1,8.933432E1,1.1180809E1,0E0,2.226706E1,0E0,0E0,0E0,0E0,0E0,0E0],"parents":[2147483647,0,0,1,1,2,2,3,3,4,4,6,6],"right_children":[2,4,6,8,10,-1,12,-1,-1,-1,-1,-1,-1],"split_conditions":[9E0,1E0,1E0,5E0,1E0,1.1888623E-2,2.15E1,1.602748E-2,7.52405E-4,-4.0680815E-2,2.9708797E-3,2.2413969E-2,-3.5680972E-2],"split_indices":[0,2,15,15,19,0,4,0,0,0,0,0,0],"split_type":[0,0,0,0,0,0,0,0,0,0,0,0,0],"sum_hessian":[1.8434058E3,1.5010824E3,3.423233E2,1.4463124E3,5.477001E1,1.0082981E1,3.3224033E2,8.7916406E2,5.671484E2,4.9155525E1,5.6144867E0,5.3522177E0,3.268881E2],"tree_param":{"num_deleted":"0","num_feature":"45","num_nodes":"13","size_leaf_vector":"1"}},{"base_weights":[-3.8328911E-3,2.502482E-1,-1.1517073E0,4.6097767E-1,-3.3951578E-1,-1.4943789E-1,-1.1852611E0,1.9661522E-2,2.7902995E-4,6.8170065E-3,-1.7313449E-2,3.271865E-2,-3.687168E-2,-3.6288872E-2,-2.7418027E-2],"categories":[],"categories_nodes":[],"categories_segments":[],"categories_sizes":[],"default_left":[0,0,0,0,0,0,0,0,0,0,0,0,0,0,0],"id":30,"left_children":[1,3,5,7,9,11,13,-1,-1,-1,-1,-1,-1,-1,-1],"loss_changes":[5.3940106E2,1.8832523E2,1.0962158E1,9.791885E1,5.3895332E1,1.7552353E1,8.249512E-1,0E0,0E0,0E0,0E0,0E0,0E0,0E0,0E0],"parents":[2147483647,0,0,1,1,2,2,3,3,4,4,5,5,6,6],"right_children":[2,4,6,8,10,12,14,-1,-1,-1,-1,-1,-1,-1,-1],"split_conditions":[9E0,9E0,1E0,2E0,2E0,8.14E2,1E1,1.9661522E-2,2.7902995E-4,6.8170065E-3,-1.7313449E-2,3.271865E-2,-3.687168E-2,-3.6288872E-2,-2.7418027E-2],"split_indices":[0,1,15,3,15,20,3,0,0,0,0,0,0,0,0],"split_type":[0,0,0,0,0,0,0,0,0,0,0,0,0,0,0],"sum_hessian":[1.8471635E3,1.5129647E3,3.3419867E2,1.1149634E3,3.9800137E2,1.1099033E1,3.2309964E2,7.7900085E2,3.3596255E2,1.1745551E2,2.8054587E2,5.1178293E0,5.9812045E0,2.9296188E2,3.0137768E1],"tree_param":{"num_deleted":"0","num_feature":"45","num_nodes":"15","size_leaf_vector":"1"}},{"base_weights":[2.6506811E-2,2.679487E-1,-1.1089917E0,4.7393265E-1,-3.1915295E-1,-1.1333278E0,2.3929388E-3,1.9832527E-2,1.1237127E-3,-2.985995E-3,-2.5984608E-2,-4.852434E-3,-3.4610894E-2],"categories":[],"categories_nodes":[],"categories_segments":[],"categories_sizes":[],"default_left":[0,0,0,0,0,0,0,0,0,0,0,0,0],"id":31,"left_children":[1,3,5,7,9,11,-1,-1,-1,-1,-1,-1,-1],"loss_changes":[5.0902158E2,1.8535876E2,9.61377E0,9.2550964E1,4.7654095E1,5.998047E0,0E0,0E0,0E0,0E0,0E0,0E0,0E0],"parents":[2147483647,0,0,1,1,2,2,3,3,4,4,5,5],"right_children":[2,4,6,8,10,12,-1,-1,-1,-1,-1,-1,-1],"split_conditions":[9E0,9E0,1.5E1,2E0,7E0,2.2E1,2.3929388E-3,1.9832527E-2,1.1237127E-3,-2.985995E-3,-2.5984608E-2,-4.852434E-3,-3.4610894E-2],"split_indices":[0,1,25,3,15,4,0,0,0,0,0,0,0],"split_type":[0,0,0,0,0,0,0,0,0,0,0,0,0],"sum_hessian":[1.8549026E3,1.5303542E3,3.2454825E2,1.1331522E3,3.972021E2,3.1816553E2,6.382707E0,7.9257074E2,3.4058148E2,2.843863E2,1.128158E2,6.8175993E0,3.1134793E2],"tree_param":{"num_deleted":"0","num_feature":"45","num_nodes":"13","size_leaf_vector":"1"}},{"base_weights":[4.7280425E-3,2.3317112E-1,-1.0567756E0,4.4072947E-1,-3.5484588E-1,3.5893318E-1,-1.105574E0,1.914818E-2,-5.953205E-4,-0E0,-2.4687821E-2,5.563795E-2,-3.527518E-2,-3.3833187E-2,-1.0054974E-2],"categories":[],"categories_nodes":[],"categories_segments":[],"categories_sizes":[],"default_left":[0,0,0,0,0,0,0,0,0,0,0,0,0,0,0],"id":32,"left_children":[1,3,5,7,9,11,13,-1,-1,-1,-1,-1,-1,-1,-1],"loss_changes":[4.3908932E2,1.8206482E2,2.2623688E1,1.0035054E2,6.4667114E1,2.8350912E1,4.782257E0,0E0,0E0,0E0,0E0,0E0,0E0,0E0,0E0],"parents":[2147483647,0,0,1,1,2,2,3,3,4,4,5,5,6,6],"right_children":[2,4,6,8,10,12,14,-1,-1,-1,-1,-1,-1,-1,-1],"split_conditions":[9E0,9E0,1E0,2E0,4E0,7.062E2,1.3E1,1.914818E-2,-5.953205E-4,-0E0,-2.4687821E-2,5.563795E-2,-3.527518E-2,-3.3833187E-2,-1.0054974E-2],"split_indices":[0,1,15,3,15,20,30,0,0,0,0,0,0,0,0],"split_type":[0,0,0,0,0,0,0,0,0,0,0,0,0,0,0],"sum_hessian":[1.8090521E3,1.4893978E3,3.196544E2,1.1011383E3,3.8825946E2,1.03710575E1,3.0928333E2,7.704977E2,3.3064062E2,2.2139273E2,1.6686674E2,5.179908E0,5.1911497E0,3.0004404E2,9.239298E0],"tree_param":{"num_deleted":"0","num_feature":"45","num_nodes":"15","size_leaf_vector":"1"}},{"base_weights":[-4.031549E-3,2.4425873E-1,-5.690931E-1,5.021381E-1,-2.598622E-1,-2.0725556E-1,-8.834503E-1,2.1421317E-2,6.477895E-3,6.213026E-3,-1.4747906E-2,-2.0288955E-3,-3.699608E-2,-2.7995229E-2,1.5792735E-2],"categories":[],"categories_nodes":[],"categories_segments":[],"categories_sizes":[],"default_left":[0,0,0,0,0,0,0,0,0,0,0,0,0,0,0],"id":33,"left_children":[1,3,5,7,9,11,13,-1,-1,-1,-1,-1,-1,-1,-1],"loss_changes":[2.531956E2,1.6311243E2,6.2377655E1,5.007686E1,4.6092224E1,3.6686188E1,2.1168594E1,0E0,0E0,0E0,0E0,0E0,0E0,0E0,0E0],"parents":[2147483647,0,0,1,1,2,2,3,3,4,4,5,5,6,6],"right_children":[2,4,6,8,10,12,14,-1,-1,-1,-1,-1,-1,-1,-1],"split_conditions":[9E0,2E0,2.47E1,5.89E2,2.55E1,7E0,1.3E1,2.1421317E-2,6.477895E-3,6.213026E-3,-1.4747906E-2,-2.0288955E-3,-3.699608E-2,-2.7995229E-2,1.5792735E-2],"split_indices":[1,3,4,20,4,15,10,0,0,0,0,0,0,0,0],"split_type":[0,0,0,0,0,0,0,0,0,0,0,0,0,0,0],"sum_hessian":[1.8024597E3,1.2524979E3,5.499618E2,8.287561E2,4.237418E2,2.5659186E2,2.933699E2,4.751301E2,3.53626E2,1.4043312E2,2.833087E2,2.2687837E2,2.9713495E1,2.837708E2,9.599084E0],"tree_param":{"num_deleted":"0","num_feature":"45","num_nodes":"15","size_leaf_vector":"1"}},{"base_weights":[-6.766586E-3,2.2151272E-1,-1.0876309E0,4.0636176E-1,-3.0014655E-1,1.8396532E-2,-1.1219255E0,1.519257E-2,-1.1400674E-2,-4.248264E-4,-2.186247E-2,-0E0,-3.4786195E-2],"categories":[],"categories_nodes":[],"categories_segments":[],"categories_sizes":[],"default_left":[0,0,0,0,0,0,0,0,0,0,0,0,0],"id":34,"left_children":[1,3,5,7,9,-1,11,-1,-1,-1,-1,-1,-1],"loss_changes":[4.3725702E2,1.411867E2,1.8764435E1,8.523312E1,4.688016E1,0E0,1.2799072E1,0E0,0E0,0E0,0E0,0E0,0E0],"parents":[2147483647,0,0,1,1,2,2,3,3,4,4,6,6],"right_children":[2,4,6,8,10,-1,12,-1,-1,-1,-1,-1,-1],"split_conditions":[9E0,9E0,2.1E1,2.72E1,2.52E1,1.8396532E-2,1E0,1.519257E-2,-1.1400674E-2,-4.248264E-4,-2.186247E-2,-0E0,-3.4786195E-2],"split_indices":[0,1,4,4,4,0,15,0,0,0,0,0,0],"split_type":[0,0,0,0,0,0,0,0,0,0,0,0,0],"sum_hessian":[1.7698169E3,1.4617886E3,3.0802826E2,1.0796346E3,3.8215393E2,5.6968093E0,3.0233145E2,9.581994E2,1.214353E2,2.2997145E2,1.5218248E2,9.841044E0,2.924904E2],"tree_param":{"num_deleted":"0","num_feature":"45","num_nodes":"13","size_leaf_vector":"1"}},{"base_weights":[1.255694E-2,2.6095238E-1,-5.682314E-1,4.4059917E-1,-4.078416E-1,3.5365146E-1,-6.840089E-1,2.0375218E-2,4.998383E-3,-1.4856704E-2,2.3934228E-2,1.871177E-2,-1.2209733E-3,-2.2647256E-2,3.2673385E-3],"categories":[],"categories_nodes":[],"categories_segments":[],"categories_sizes":[],"default_left":[0,0,0,0,0,0,0,0,0,0,0,0,0,0,0],"id":35,"left_children":[1,3,5,7,9,11,13,-1,-1,-1,-1,-1,-1,-1,-1],"loss_changes":[2.6132883E2,1.5265323E2,5.8188263E1,6.522931E1,2.8715405E1,6.591452E0,2.7271606E1,0E0,0E0,0E0,0E0,0E0,0E0,0E0,0E0],"parents":[2147483647,0,0,1,1,2,2,3,3,4,4,5,5,6,6],"right_children":[2,4,6,8,10,12,14,-1,-1,-1,-1,-1,-1,-1,-1],"split_conditions":[9E0,1E0,2.25E1,5.862E2,1.2E1,1E0,1E1,2.0375218E-2,4.998383E-3,-1.4856704E-2,2.3934228E-2,1.871177E-2,-1.2209733E-3,-2.2647256E-2,3.2673385E-3],"split_indices":[1,6,4,20,10,5,10,0,0,0,0,0,0,0,0],"split_type":[0,0,0,0,0,0,0,0,0,0,0,0,0,0,0],"sum_hessian":[1.8096328E3,1.2680342E3,5.415985E2,9.999306E2,2.6810367E2,6.0103535E1,4.81495E2,5.335211E2,4.664095E2,2.5061223E2,1.7491436E1,3.5478043E1,2.4625492E1,4.4213513E2,3.935986E1],"tree_param":{"num_deleted":"0","num_feature":"45","num_nodes":"15","size_leaf_vector":"1"}},{"base_weights":[2.9128436E-2,2.561904E-1,-1.0880765E0,3.5349786E-1,-5.768171E-1,1.5249387E-3,-1.1080815E0,1.1969984E-2,-3.0277768E-2,-2.350199E-2,3.5707563E-2,-1.1138765E-2,-3.392852E-2],"categories":[],"categories_nodes":[],"categories_segments":[],"categories_sizes":[],"default_left":[0,0,0,0,0,0,0,0,0,0,0,0,0],"id":36,"left_children":[1,3,5,7,9,-1,11,-1,-1,-1,-1,-1,-1],"loss_changes":[4.52914E2,1.2047781E2,7.032776E0,8.27856E1,5.7656956E1,0E0,4.425598E0,0E0,0E0,0E0,0E0,0E0,0E0],"parents":[2147483647,0,0,1,1,2,2,3,3,4,4,6,6],"right_children":[2,4,6,8,10,-1,12,-1,-1,-1,-1,-1,-1],"split_conditions":[9E0,2.72E1,2.15E1,1E0,1.2E1,1.5249387E-3,1E0,1.1969984E-2,-3.0277768E-2,-2.350199E-2,3.5707563E-2,-1.1138765E-2,-3.392852E-2],"split_indices":[0,4,4,2,10,0,15,0,0,0,0,0,0],"split_type":[0,0,0,0,0,0,0,0,0,0,0,0,0],"sum_hessian":[1.7836414E3,1.483079E3,3.005624E2,1.3285774E3,1.5450159E2,5.0753684E0,2.9548703E2,1.2864056E3,4.2171684E1,1.3887894E2,1.5622648E1,9.546041E0,2.85941E2],"tree_param":{"num_deleted":"0","num_feature":"45","num_nodes":"13","size_leaf_vector":"1"}},{"base_weights":[3.6008703E-4,2.109627E-1,-1.0326353E0,3.8820344E-1,-2.0214315E-1,3.35641E-1,-1.0842333E0,2.0862818E-2,6.146023E-3,-9.173298E-3,2.3368422E-2,5.3400744E-2,-3.4554023E-2,-3.3707894E-2,-6.7153703E-3],"categories":[],"categories_nodes":[],"categories_segments":[],"categories_sizes":[],"default_left":[0,0,0,0,0,0,0,0,0,0,0,0,0,0,0],"id":37,"left_children":[1,3,5,7,9,11,13,-1,-1,-1,-1,-1,-1,-1,-1],"loss_changes":[3.8151932E2,1.0678487E2,2.140506E1,5.7227386E1,4.471955E1,2.6788017E1,9.316345E0,0E0,0E0,0E0,0E0,0E0,0E0,0E0,0E0],"parents":[2147483647,0,0,1,1,2,2,3,3,4,4,5,5,6,6],"right_children":[2,4,6,8,10,12,14,-1,-1,-1,-1,-1,-1,-1,-1],"split_conditions":[9E0,2E0,1E0,3.79E2,1E0,7.062E2,1.2E1,2.0862818E-2,6.146023E-3,-9.173298E-3,2.3368422E-2,5.3400744E-2,-3.4554023E-2,-3.3707894E-2,-6.7153703E-3],"split_indices":[0,3,15,20,14,20,25,0,0,0,0,0,0,0,0],"split_type":[0,0,0,0,0,0,0,0,0,0,0,0,0,0,0],"sum_hessian":[1.7520726E3,1.4561016E3,2.9597107E2,1.0191453E3,4.369562E2,1.0485075E1,2.85486E2,3.7963547E2,6.395098E2,3.959246E2,4.1031616E1,5.2538443E0,5.231231E0,2.725926E2,1.2893392E1],"tree_param":{"num_deleted":"0","num_feature":"45","num_nodes":"15","size_leaf_vector":"1"}},{"base_weights":[-6.3890964E-4,2.131295E-1,-1.0575622E0,3.9431867E-1,-3.0464682E-1,-1.1107479E0,1.8281476E-1,2.4413923E-2,7.5832116E-3,1.3685931E-2,-1.2507839E-2,-2.7633121E-2,-3.501034E-2,3.0823022E-2,-1.7525177E-2],"categories":[],"categories_nodes":[],"categories_segments":[],"categories_sizes":[],"default_left":[0,0,0,0,0,0,0,0,0,0,0,0,0,0,0],"id":38,"left_children":[1,3,5,7,9,11,13,-1,-1,-1,-1,-1,-1,-1,-1],"loss_changes":[3.9364154E2,1.3604663E2,1.9632843E1,6.344438E1,3.2305656E1,1.7175293E0,8.957932E0,0E0,0E0,0E0,0E0,0E0,0E0,0E0,0E0],"parents":[2147483647,0,0,1,1,2,2,3,3,4,4,5,5,6,6],"right_children":[2,4,6,8,10,12,14,-1,-1,-1,-1,-1,-1,-1,-1],"split_conditions":[9E0,9E0,1.2E1,2.35E1,2.25E1,1E0,2E0,2.4413923E-2,7.5832116E-3,1.3685931E-2,-1.2507839E-2,-2.7633121E-2,-3.501034E-2,3.0823022E-2,-1.7525177E-2],"split_indices":[0,1,10,4,4,28,3,0,0,0,0,0,0,0,0],"split_type":[0,0,0,0,0,0,0,0,0,0,0,0,0,0,0],"sum_hessian":[1.7398923E3,1.4477756E3,2.9211664E2,1.072796E3,3.7497958E2,2.802836E2,1.1833049E1,2.6928735E2,8.0350867E2,4.7712753E1,3.2726685E2,6.850986E1,2.1177374E2,5.5319653E0,6.3010836E0],"tree_param":{"num_deleted":"0","num_feature":"45","num_nodes":"15","size_leaf_vector":"1"}},{"base_weights":[-2.9712603E-3,1.9589573E-1,-1.0081822E0,2.527755E-1,-1.3323354E0,2.7983278E-1,-1.0612842E0,1.3853617E-2,-2.893693E-3,-4.548069E-2,-2.4126614E-2,2.628086E-2,-1.1249674E-2,2.4226415E-3,-3.251417E-2],"categories":[],"categories_nodes":[],"categories_segments":[],"categories_sizes":[],"default_left":[0,0,0,0,0,0,0,0,0,0,0,0,0,0,0],"id":39,"left_children":[1,3,5,7,9,11,13,-1,-1,-1,-1,-1,-1,-1,-1],"loss_changes":[3.3922614E2,1.2333876E2,1.9545593E1,9.981611E1,3.488182E0,4.991131E0,7.1187744E0,0E0,0E0,0E0,0E0,0E0,0E0,0E0,0E0],"parents":[2147483647,0,0,1,1,2,2,3,3,4,4,5,5,6,6],"right_children":[2,4,6,8,10,12,14,-1,-1,-1,-1,-1,-1,-1,-1],"split_conditions":[9E0,1E0,1E0,2.55E1,9E1,2E0,2.15E1,1.3853617E-2,-2.893693E-3,-4.548069E-2,-2.4126614E-2,2.628086E-2,-1.1249674E-2,2.4226415E-3,-3.251417E-2],"split_indices":[0,2,15,4,13,24,4,0,0,0,0,0,0,0,0],"split_type":[0,0,0,0,0,0,0,0,0,0,0,0,0,0,0],"sum_hessian":[1.694557E3,1.415271E3,2.7928604E2,1.3653535E3,4.9917526E1,1.0814806E1,2.6847125E2,8.5412964E2,5.1122385E2,3.5507427E1,1.4410098E1,5.563922E0,5.250884E0,5.056111E0,2.6341513E2],"tree_param":{"num_deleted":"0","num_feature":"45","num_nodes":"15","size_leaf_vector":"1"}},{"base_weights":[1.1913701E-2,2.0421182E-1,-1.003573E0,3.8493177E-1,-3.0416662E-1,-1.0582858E0,2.8499642E-1,1.2830747E-2,-2.9680066E-2,-1.4727598E-3,-2.6462384E-2,7.107131E-4,-3.300325E-2,3.4378458E-2,-1.5659973E-2],"categories":[],"categories_nodes":[],"categories_segments":[],"categories_sizes":[],"default_left":[0,0,0,0,0,0,0,0,0,0,0,0,0,0,0],"id":40,"left_children":[1,3,5,7,9,11,13,-1,-1,-1,-1,-1,-1,-1,-1],"loss_changes":[3.4035312E2,1.3479477E2,1.9942108E1,6.394757E1,5.659161E1,1.2191681E1,9.008846E0,0E0,0E0,0E0,0E0,0E0,0E0,0E0,0E0],"parents":[2147483647,0,0,1,1,2,2,3,3,4,4,5,5,6,6],"right_children":[2,4,6,8,10,12,14,-1,-1,-1,-1,-1,-1,-1,-1],"split_conditions":[9E0,9E0,1.2E1,1E0,6E0,1E0,2E0,1.2830747E-2,-2.9680066E-2,-1.4727598E-3,-2.6462384E-2,7.107131E-4,-3.300325E-2,3.4378458E-2,-1.5659973E-2],"split_indices":[0,1,10,2,15,15,3,0,0,0,0,0,0,0,0],"split_type":[0,0,0,0,0,0,0,0,0,0,0,0,0,0,0],"sum_hessian":[1.7412919E3,1.4648057E3,2.7648624E2,1.0809763E3,3.8382935E2,2.654706E2,1.1015621E1,1.0490956E3,3.1880651E1,2.6716718E2,1.16662155E2,9.806693E0,2.5566393E2,5.186376E0,5.829245E0],"tree_param":{"num_deleted":"0","num_feature":"45","num_nodes":"15","size_leaf_vector":"1"}},{"base_weights":[-5.5488283E-3,1.8247236E-1,-1.0056021E0,4.0272844E-1,-8.512323E-3,1.0349648E-3,-1.0439771E0,1.3131228E-2,-2.0422494E-2,-5.035069E-3,1.23937875E-2,-3.2164577E-2,-8.428174E-3],"categories":[],"categories_nodes":[],"categories_segments":[],"categories_sizes":[],"default_left":[0,0,0,0,0,0,0,0,0,0,0,0,0],"id":41,"left_children":[1,3,5,7,9,-1,11,-1,-1,-1,-1,-1,-1],"loss_changes":[3.2313654E2,6.0875057E1,1.0992889E1,2.5736702E1,5.2124817E1,0E0,5.2054443E0,0E0,0E0,0E0,0E0,0E0,0E0],"parents":[2147483647,0,0,1,1,2,2,3,3,4,4,6,6],"right_children":[2,4,6,8,10,-1,12,-1,-1,-1,-1,-1,-1],"split_conditions":[9E0,5.69E2,1E0,1.3E1,6E0,1.0349648E-3,1.2E1,1.3131228E-2,-2.0422494E-2,-5.035069E-3,1.23937875E-2,-3.2164577E-2,-8.428174E-3],"split_indices":[0,20,15,15,10,0,10,0,0,0,0,0,0],"split_type":[0,0,0,0,0,0,0,0,0,0,0,0,0],"sum_hessian":[1.7161122E3,1.4451293E3,2.709829E2,6.7086206E2,7.742672E2,9.553163E0,2.6142975E2,6.50548E2,2.0314089E1,5.625407E2,2.1172647E2,2.5160304E2,9.8267145E0],"tree_param":{"num_deleted":"0","num_feature":"45","num_nodes":"13","size_leaf_vector":"1"}},{"base_weights":[-3.9203245E-2,1.51234E-1,-1.083977E0,3.2817742E-1,-3.462797E-1,3.8682699E-4,-1.1269832E0,1.3446155E-2,-6.395173E-3,4.297518E-3,-1.6241236E-2,-3.4241125E-2,-1.0301843E-2],"categories":[],"categories_nodes":[],"categories_segments":[],"categories_sizes":[],"default_left":[0,0,0,0,0,0,0,0,0,0,0,0,0],"id":42,"left_children":[1,3,5,7,9,-1,11,-1,-1,-1,-1,-1,-1],"loss_changes":[3.3517712E2,1.2552132E2,1.2377869E1,6.844326E1,3.5843758E1,0E0,2.2784119E0,0E0,0E0,0E0,0E0,0E0,0E0],"parents":[2147483647,0,0,1,1,2,2,3,3,4,4,6,6],"right_children":[2,4,6,8,10,-1,12,-1,-1,-1,-1,-1,-1],"split_conditions":[9E0,9E0,1E0,3E0,2E0,3.8682699E-4,2.1E1,1.3446155E-2,-6.395173E-3,4.297518E-3,-1.6241236E-2,-3.4241125E-2,-1.0301843E-2],"split_indices":[0,1,15,3,15,0,15,0,0,0,0,0,0],"split_type":[0,0,0,0,0,0,0,0,0,0,0,0,0],"sum_hessian":[1.6823207E3,1.4235931E3,2.5872745E2,1.0505137E3,3.730795E2,9.700147E0,2.4902728E2,8.6015704E2,1.9035666E2,1.0624461E2,2.668349E2,2.4396355E2,5.063745E0],"tree_param":{"num_deleted":"0","num_feature":"45","num_nodes":"13","size_leaf_vector":"1"}},{"base_weights":[-9.290545E-3,1.6802241E-1,-9.6876705E-1,3.4268227E-1,-3.1524718E-1,2.1703806E-2,-1.0088149E0,1.1623791E-2,-2.993272E-2,2.5977676E-3,-1.9835407E-2,-3.2933077E-3,-3.1040397E-2],"categories":[],"categories_nodes":[],"categories_segments":[],"categories_sizes":[],"default_left":[0,0,0,0,0,0,0,0,0,0,0,0,0],"id":43,"left_children":[1,3,5,7,9,-1,11,-1,-1,-1,-1,-1,-1],"loss_changes":[2.870101E2,1.2026106E2,1.8592133E1,6.311998E1,5.269517E1,0E0,5.760742E0,0E0,0E0,0E0,0E0,0E0,0E0],"parents":[2147483647,0,0,1,1,2,2,3,3,4,4,6,6],"right_children":[2,4,6,8,10,-1,12,-1,-1,-1,-1,-1,-1],"split_conditions":[9E0,9E0,2.1E1,1E0,3E0,2.1703806E-2,1E0,1.1623791E-2,-2.993272E-2,2.5977676E-3,-1.9835407E-2,-3.2933077E-3,-3.1040397E-2],"split_indices":[0,1,4,2,15,0,15,0,0,0,0,0,0],"split_type":[0,0,0,0,0,0,0,0,0,0,0,0,0],"sum_hessian":[1.6846007E3,1.4224501E3,2.6215063E2,1.0451993E3,3.7725067E2,5.6083274E0,2.565423E2,1.0121732E3,3.3026154E1,1.7473605E2,2.025146E2,7.4289875E0,2.4911331E2],"tree_param":{"num_deleted":"0","num_feature":"45","num_nodes":"13","size_leaf_vector":"1"}},{"base_weights":[3.0526603E-2,2.0385833E-1,-9.629984E-1,3.574721E-1,-2.2899283E-1,1.0779096E-2,-1.0201325E0,1.4988868E-2,1.2218704E-3,-2.9553333E-4,-2.661805E-2,-3.2020774E-2,3.2536238E-3],"categories":[],"categories_nodes":[],"categories_segments":[],"categories_sizes":[],"default_left":[0,0,0,0,0,0,0,0,0,0,0,0,0],"id":44,"left_children":[1,3,5,7,9,-1,11,-1,-1,-1,-1,-1,-1],"loss_changes":[2.954317E2,9.7240524E1,1.9683975E1,4.850505E1,5.5169594E1,0E0,1.3248688E1,0E0,0E0,0E0,0E0,0E0,0E0],"parents":[2147483647,0,0,1,1,2,2,3,3,4,4,6,6],"right_children":[2,4,6,8,10,-1,12,-1,-1,-1,-1,-1,-1],"split_conditions":[9E0,9E0,1E0,2E0,7E0,1.0779096E-2,1.2E1,1.4988868E-2,1.2218704E-3,-2.9553333E-4,-2.661805E-2,-3.2020774E-2,3.2536238E-3],"split_indices":[0,1,15,3,15,0,10,0,0,0,0,0,0],"split_type":[0,0,0,0,0,0,0,0,0,0,0,0,0],"sum_hessian":[1.7138384E3,1.4600172E3,2.5382115E2,1.0778915E3,3.8212576E2,1.0221342E1,2.4359981E2,7.433686E2,3.3452292E2,2.8756235E2,9.4563416E1,2.339527E2,9.647112E0],"tree_param":{"num_deleted":"0","num_feature":"45","num_nodes":"13","size_leaf_vector":"1"}},{"base_weights":[1.5225067E-2,1.8215625E-1,-9.3616444E-1,3.498638E-1,-3.027121E-1,2.749604E-2,-9.784205E-1,1.2282421E-2,-1.6291728E-2,-3.7201855E-3,-2.4675472E-2,7.1947887E-3,-3.109272E-2],"categories":[],"categories_nodes":[],"categories_segments":[],"categories_sizes":[],"default_left":[0,0,0,0,0,0,0,0,0,0,0,0,0],"id":45,"left_children":[1,3,5,7,9,-1,11,-1,-1,-1,-1,-1,-1],"loss_changes":[2.697138E2,1.1762774E2,2.074768E1,5.7338898E1,3.4339344E1,0E0,1.7878555E1,0E0,0E0,0E0,0E0,0E0,0E0],"parents":[2147483647,0,0,1,1,2,2,3,3,4,4,6,6],"right_children":[2,4,6,8,10,-1,12,-1,-1,-1,-1,-1,-1],"split_conditions":[9E0,9E0,2.1E1,2.77E1,7E0,2.749604E-2,1E0,1.2282421E-2,-1.6291728E-2,-3.7201855E-3,-2.4675472E-2,7.1947887E-3,-3.109272E-2],"split_indices":[0,1,4,4,15,0,15,0,0,0,0,0,0],"split_type":[0,0,0,0,0,0,0,0,0,0,0,0,0],"sum_hessian":[1.6966735E3,1.4441891E3,2.5248434E2,1.0734025E3,3.7078662E2,5.116063E0,2.4736827E2,1.00690405E3,6.649843E1,2.7698984E2,9.379678E1,1.1021661E1,2.3634662E2],"tree_param":{"num_deleted":"0","num_feature":"45","num_nodes":"13","size_leaf_vector":"1"}},{"base_weights":[1.4782543E-2,2.1347092E-1,-4.425077E-1,3.5510358E-1,-2.9976696E-1,2.7855666E-2,-6.283828E-1,1.1926937E-2,-2.9688912E-2,-4.0766243E-3,-2.7502611E-2,4.113525E-3,-3.1879082E-2,-2.6272116E-2,-1.27428295E-2],"categories":[],"categories_nodes":[],"categories_segments":[],"categories_sizes":[],"default_left":[0,0,0,0,0,0,0,0,0,0,0,0,0,0,0],"id":46,"left_children":[1,3,5,7,9,11,13,-1,-1,-1,-1,-1,-1,-1,-1],"loss_changes":[1.523533E2,8.510341E1,4.4476105E1,5.2690895E1,2.537782E1,1.7287266E1,1.7840637E1,0E0,0E0,0E0,0E0,0E0,0E0,0E0,0E0],"parents":[2147483647,0,0,1,1,2,2,3,3,4,4,5,5,6,6],"right_children":[2,4,6,8,10,12,14,-1,-1,-1,-1,-1,-1,-1,-1],"split_conditions":[9E0,1E0,2E0,1E0,1E1,1E0,1E0,1.1926937E-2,-2.9688912E-2,-4.0766243E-3,-2.7502611E-2,4.113525E-3,-3.1879082E-2,-2.6272116E-2,-1.27428295E-2],"split_indices":[1,6,15,2,24,6,22,0,0,0,0,0,0,0,0],"split_type":[0,0,0,0,0,0,0,0,0,0,0,0,0,0,0],"sum_hessian":[1.6750364E3,1.1682113E3,5.0682513E2,9.1594965E2,2.5226166E2,1.4364317E2,3.6318195E2,8.8866797E2,2.7281635E1,2.0041202E2,5.1849648E1,1.3143956E2,1.2203625E1,1.622694E2,2.0091255E2],"tree_param":{"num_deleted":"0","num_feature":"45","num_nodes":"15","size_leaf_vector":"1"}},{"base_weights":[5.3251483E-3,1.6592073E-1,-9.091055E-1,3.2678416E-1,-2.981496E-1,2.6992798E-2,-9.508691E-1,1.1092213E-2,-2.9415073E-2,-3.566144E-3,-2.4309063E-2,9.417853E-3,-3.0276826E-2],"categories":[],"categories_nodes":[],"categories_segments":[],"categories_sizes":[],"default_left":[0,0,0,0,0,0,0,0,0,0,0,0,0],"id":47,"left_children":[1,3,5,7,9,-1,11,-1,-1,-1,-1,-1,-1],"loss_changes":[2.4677635E2,1.06844055E2,1.9823761E1,5.9965034E1,3.3638996E1,0E0,1.8536163E1,0E0,0E0,0E0,0E0,0E0,0E0],"parents":[2147483647,0,0,1,1,2,2,3,3,4,4,6,6],"right_children":[2,4,6,8,10,-1,12,-1,-1,-1,-1,-1,-1],"split_conditions":[9E0,9E0,2.1E1,1E0,7E0,2.6992798E-2,1E0,1.1092213E-2,-2.9415073E-2,-3.566144E-3,-2.4309063E-2,9.417853E-3,-3.0276826E-2],"split_indices":[0,1,4,2,15,0,15,0,0,0,0,0,0],"split_type":[0,0,0,0,0,0,0,0,0,0,0,0,0],"sum_hessian":[1.6789042E3,1.428886E3,2.5001816E2,1.0614579E3,3.674281E2,5.124563E0,2.448936E2,1.0284573E3,3.300054E1,2.7321652E2,9.42116E1,1.0532422E1,2.3436118E2],"tree_param":{"num_deleted":"0","num_feature":"45","num_nodes":"13","size_leaf_vector":"1"}},{"base_weights":[6.164894E-3,1.7039093E-1,-9.569749E-1,3.2103157E-1,-2.5516227E-1,2.6275482E-2,-1.0006151E0,2.6038336E-2,6.1278134E-3,-1.2392735E-3,-2.2671917E-2,-1.6388106E-3,-3.1276118E-2],"categories":[],"categories_nodes":[],"categories_segments":[],"categories_sizes":[],"default_left":[0,0,0,0,0,0,0,0,0,0,0,0,0],"id":48,"left_children":[1,3,5,7,9,-1,11,-1,-1,-1,-1,-1,-1],"loss_changes":[2.6417154E2,9.158864E1,2.0347443E1,6.707802E1,3.9876595E1,0E0,9.277542E0,0E0,0E0,0E0,0E0,0E0,0E0],"parents":[2147483647,0,0,1,1,2,2,3,3,4,4,6,6],"right_children":[2,4,6,8,10,-1,12,-1,-1,-1,-1,-1,-1],"split_conditions":[9E0,9E0,2.1E1,2.3E1,6E0,2.6275482E-2,1E0,2.6038336E-2,6.1278134E-3,-1.2392735E-3,-2.2671917E-2,-1.6388106E-3,-3.1276118E-2],"split_indices":[0,1,4,4,15,0,15,0,0,0,0,0,0],"split_type":[0,0,0,0,0,0,0,0,0,0,0,0,0],"sum_hessian":[1.6686133E3,1.4263344E3,2.4227892E2,1.0537871E3,3.7254715E2,5.137788E0,2.3714113E2,1.8412483E2,8.6966235E2,2.6192828E2,1.1061889E2,1.0262113E1,2.2687901E2],"tree_param":{"num_deleted":"0","num_feature":"45","num_nodes":"13","size_leaf_vector":"1"}},{"base_weights":[7.6635084E-3,1.6763586E-1,-9.467644E-1,2.1231565E-1,-1.0106201E0,1.9723076E-2,-9.8914033E-1,2.0146452E-2,3.484954E-3,-4.3467417E-2,-8.335258E-3,1.6334896E-3,-3.1043658E-2],"categories":[],"categories_nodes":[],"categories_segments":[],"categories_sizes":[],"default_left":[0,0,0,0,0,0,0,0,0,0,0,0,0],"id":49,"left_children":[1,3,5,7,9,-1,11,-1,-1,-1,-1,-1,-1],"loss_changes":[2.521463E2,7.461935E1,1.679802E1,6.0074966E1,1.605627E1,0E0,1.1178299E1,0E0,0E0,0E0,0E0,0E0,0E0],"parents":[2147483647,0,0,1,1,2,2,3,3,4,4,6,6],"right_children":[2,4,6,8,10,-1,12,-1,-1,-1,-1,-1,-1],"split_conditions":[9E0,1E0,2.1E1,2.3E1,5E0,1.9723076E-2,1E0,2.0146452E-2,3.484954E-3,-4.3467417E-2,-8.335258E-3,1.6334896E-3,-3.1043658E-2],"split_indices":[0,2,4,4,10,0,15,0,0,0,0,0,0],"split_type":[0,0,0,0,0,0,0,0,0,0,0,0,0],"sum_hessian":[1.6499176E3,1.4138674E3,2.360502E2,1.3630836E3,5.078383E1,5.6406646E0,2.3040953E2,2.3476721E2,1.1283164E3,3.1080198E1,1.9703632E1,9.556227E0,2.208533E2],"tree_param":{"num_deleted":"0","num_feature":"45","num_nodes":"13","size_leaf_vector":"1"}},{"base_weights":[-1.1402402E-2,1.4329909E-1,-9.527872E-1,3.2501054E-1,-2.0742199E-1,2.2007156E-2,-9.9705744E-1,-4.1109562E-4,1.9956376E-2,-1.0039747E-2,1.909595E-2,-3.0993676E-2,1.7843752E-4],"categories":[],"categories_nodes":[],"categories_segments":[],"categories_sizes":[],"default_left":[0,0,0,0,0,0,0,0,0,0,0,0,0],"id":50,"left_children":[1,3,5,7,9,-1,11,-1,-1,-1,-1,-1,-1],"loss_changes":[2.3734799E2,8.925228E1,1.7931183E1,1.06348694E2,5.1506897E1,0E0,8.234589E0,0E0,0E0,0E0,0E0,0E0,0E0],"parents":[2147483647,0,0,1,1,2,2,3,3,4,4,6,6],"right_children":[2,4,6,8,10,-1,12,-1,-1,-1,-1,-1,-1],"split_conditions":[9E0,1E0,2.1E1,2E0,1E0,2.2007156E-2,1.2E1,-4.1109562E-4,1.9956376E-2,-1.0039747E-2,1.909595E-2,-3.0993676E-2,1.7843752E-4],"split_indices":[0,5,4,10,11,0,10,0,0,0,0,0,0],"split_type":[0,0,0,0,0,0,0,0,0,0,0,0,0],"sum_hessian":[1.6272676E3,1.398232E3,2.2903545E2,9.21272E2,4.7696008E2,5.402746E0,2.236327E2,4.6197943E2,4.5929257E2,4.151006E2,6.185949E1,2.1593791E2,7.6948013E0],"tree_param":{"num_deleted":"0","num_feature":"45","num_nodes":"13","size_leaf_vector":"1"}},{"base_weights":[6.071621E-3,1.6073073E-1,-9.834851E-1,2.1080561E-1,-1.1769509E0,-1.0370381E0,4.182338E-3,2.1696396E-2,3.024459E-3,-4.325819E-2,-1.8087886E-2,2.1864305E-4,-3.2054264E-2],"categories":[],"categories_nodes":[],"categories_segments":[],"categories_sizes":[],"default_left":[0,0,0,0,0,0,0,0,0,0,0,0,0],"id":51,"left_children":[1,3,5,7,9,11,-1,-1,-1,-1,-1,-1,-1],"loss_changes":[2.4851215E2,9.425313E1,1.3431931E1,7.621578E1,6.6488495E0,6.997925E0,0E0,0E0,0E0,0E0,0E0,0E0,0E0],"parents":[2147483647,0,0,1,1,2,2,3,3,4,4,5,5],"right_children":[2,4,6,8,10,12,-1,-1,-1,-1,-1,-1,-1],"split_conditions":[9E0,1E0,1.2E1,2.3E1,5E0,2.2E1,4.182338E-3,2.1696396E-2,3.024459E-3,-4.325819E-2,-1.8087886E-2,2.1864305E-4,-3.2054264E-2],"split_indices":[0,2,10,4,10,4,0,0,0,0,0,0,0],"split_type":[0,0,0,0,0,0,0,0,0,0,0,0,0],"sum_hessian":[1.6223005E3,1.4038324E3,2.1846815E2,1.3540615E3,4.9770878E1,2.0868129E2,9.78687E0,2.3814418E2,1.1159174E3,3.289785E1,1.687303E1,6.0278487E0,2.0265344E2],"tree_param":{"num_deleted":"0","num_feature":"45","num_nodes":"13","size_leaf_vector":"1"}},{"base_weights":[-7.161638E-3,1.3584654E-1,-9.392021E-1,3.0445734E-1,-1.9901668E-1,-9.875071E-1,7.394153E-3,4.4392156E-3,2.5290897E-2,-9.357171E-3,1.8539138E-2,-5.162473E-3,-3.0560052E-2],"categories":[],"categories_nodes":[],"categories_segments":[],"categories_sizes":[],"default_left":[0,0,0,0,0,0,0,0,0,0,0,0,0],"id":52,"left_children":[1,3,5,7,9,11,-1,-1,-1,-1,-1,-1,-1],"loss_changes":[2.1803801E2,8.01137E1,1.2781311E1,7.929036E1,4.398646E1,5.025879E0,0E0,0E0,0E0,0E0,0E0,0E0,0E0],"parents":[2147483647,0,0,1,1,2,2,3,3,4,4,5,5],"right_children":[2,4,6,8,10,12,-1,-1,-1,-1,-1,-1,-1],"split_conditions":[9E0,1E0,1.3E1,5E0,1E0,1E0,7.394153E-3,4.4392156E-3,2.5290897E-2,-9.357171E-3,1.8539138E-2,-5.162473E-3,-3.0560052E-2],"split_indices":[0,5,25,10,11,15,0,0,0,0,0,0,0],"split_type":[0,0,0,0,0,0,0,0,0,0,0,0,0],"sum_hessian":[1.6332642E3,1.4166471E3,2.1661714E2,9.4247845E2,4.7416864E2,2.0837912E2,8.2380085E0,7.314224E2,2.1105602E2,4.1725427E2,5.6914364E1,8.028253E0,2.0035088E2],"tree_param":{"num_deleted":"0","num_feature":"45","num_nodes":"13","size_leaf_vector":"1"}},{"base_weights":[-1.2718916E-2,1.224895E-1,-8.9378697E-1,1.6472638E-1,-1.1294103E0,-9.5731324E-1,8.906071E-2,1.1418357E-2,-1.0831646E-3,-3.907496E-2,4.0519717E-3,-2.1316487E-2,-3.1274315E-2,2.9321663E-2,-1.5694937E-2],"categories":[],"categories_nodes":[],"categories_segments":[],"categories_sizes":[],"default_left":[0,0,0,0,0,0,0,0,0,0,0,0,0,0,0],"id":53,"left_children":[1,3,5,7,9,11,13,-1,-1,-1,-1,-1,-1,-1,-1],"loss_changes":[1.954158E2,7.525692E1,1.37990265E1,5.9712326E1,1.0458103E1,3.3959808E0,8.208616E0,0E0,0E0,0E0,0E0,0E0,0E0,0E0,0E0],"parents":[2147483647,0,0,1,1,2,2,3,3,4,4,5,5,6,6],"right_children":[2,4,6,8,10,12,14,-1,-1,-1,-1,-1,-1,-1,-1],"split_conditions":[9E0,1E0,1.2E1,5.79E2,1E0,5.64E2,1E0,1.1418357E-2,-1.0831646E-3,-3.907496E-2,4.0519717E-3,-2.1316487E-2,-3.1274315E-2,2.9321663E-2,-1.5694937E-2],"split_indices":[0,2,25,20,14,20,24,0,0,0,0,0,0,0,0],"split_type":[0,0,0,0,0,0,0,0,0,0,0,0,0,0,0],"sum_hessian":[1.6378213E3,1.4205687E3,2.1725253E2,1.3751228E3,4.5445908E1,2.0418292E2,1.3069618E1,6.625322E2,7.1259064E2,4.0017155E1,5.4287543E0,5.5086506E1,1.490964E2,5.1556892E0,7.9139285E0],"tree_param":{"num_deleted":"0","num_feature":"45","num_nodes":"15","size_leaf_vector":"1"}},{"base_weights":[-1.6910141E-2,1.1630047E-1,-8.822035E-1,1.6226512E-1,-1.1343874E0,-9.4877815E-1,3.602332E-1,9.816508E-3,-3.207494E-3,-3.8983922E-2,-2.4527058E-4,4.0789815E-3,-3.0053403E-2,3.0675927E-2,-8.894113E-3],"categories":[],"categories_nodes":[],"categories_segments":[],"categories_sizes":[],"default_left":[0,0,0,0,0,0,0,0,0,0,0,0,0,0,0],"id":54,"left_children":[1,3,5,7,9,11,13,-1,-1,-1,-1,-1,-1,-1,-1],"loss_changes":[1.8475539E2,7.990563E1,1.8088928E1,5.9564083E1,9.017906E0,1.1912521E1,5.3880954E0,0E0,0E0,0E0,0E0,0E0,0E0,0E0,0E0],"parents":[2147483647,0,0,1,1,2,2,3,3,4,4,5,5,6,6],"right_children":[2,4,6,8,10,12,14,-1,-1,-1,-1,-1,-1,-1,-1],"split_conditions":[9E0,1E0,1.2E1,2.55E1,1E0,1E0,6.022E2,9.816508E-3,-3.207494E-3,-3.8983922E-2,-2.4527058E-4,4.0789815E-3,-3.0053403E-2,3.0675927E-2,-8.894113E-3],"split_indices":[0,2,10,4,33,15,20,0,0,0,0,0,0,0,0],"split_type":[0,0,0,0,0,0,0,0,0,0,0,0,0,0,0],"sum_hessian":[1.6003029E3,1.387456E3,2.1284674E2,1.3391891E3,4.8266987E1,2.0232236E2,1.05243845E1,8.3045215E2,5.0873694E2,4.188498E1,6.382005E0,9.264394E0,1.9305797E2,5.038337E0,5.4860473E0],"tree_param":{"num_deleted":"0","num_feature":"45","num_nodes":"15","size_leaf_vector":"1"}},{"base_weights":[4.1303462E-3,1.333106E-1,-8.504146E-1,2.8338543E-1,-3.0295524E-1,2.0194743E-2,-8.957316E-1,9.657569E-3,-2.9331999E-2,-1.5370379E-2,4.682892E-3,-2.795611E-2,-6.555192E-4],"categories":[],"categories_nodes":[],"categories_segments":[],"categories_sizes":[],"default_left":[0,0,0,0,0,0,0,0,0,0,0,0,0],"id":55,"left_children":[1,3,5,7,9,-1,11,-1,-1,-1,-1,-1,-1],"loss_changes":[1.7701143E2,9.132475E1,1.5162582E1,5.0670532E1,3.44309E1,0E0,6.3572083E0,0E0,0E0,0E0,0E0,0E0,0E0],"parents":[2147483647,0,0,1,1,2,2,3,3,4,4,6,6],"right_children":[2,4,6,8,10,-1,12,-1,-1,-1,-1,-1,-1],"split_conditions":[9E0,9E0,2.1E1,1E0,1E0,2.0194743E-2,1E0,9.657569E-3,-2.9331999E-2,-1.5370379E-2,4.682892E-3,-2.795611E-2,-6.555192E-4],"split_indices":[0,1,4,2,44,0,17,0,0,0,0,0,0],"split_type":[0,0,0,0,0,0,0,0,0,0,0,0,0],"sum_hessian":[1.6021274E3,1.392575E3,2.0955243E2,1.0365746E3,3.560005E2,5.5889645E0,2.0396347E2,1.00664056E3,2.9933947E1,2.4455258E2,1.114479E2,1.9569006E2,8.27341E0],"tree_param":{"num_deleted":"0","num_feature":"45","num_nodes":"13","size_leaf_vector":"1"}},{"base_weights":[-6.241275E-3,1.8585928E-1,-3.789891E-1,3.6548916E-1,-2.3716114E-1,-4.64553E-1,6.49723E-1,1.5105568E-2,2.086921E-3,-2.0763397E-3,-3.0297961E-2,-1.6877284E-2,1.311151E-2,2.9333713E-2,-1.2515462E-2],"categories":[],"categories_nodes":[],"categories_segments":[],"categories_sizes":[],"default_left":[0,0,0,0,0,0,0,0,0,0,0,0,0,0,0],"id":56,"left_children":[1,3,5,7,9,11,13,-1,-1,-1,-1,-1,-1,-1,-1],"loss_changes":[1.15052986E2,8.064493E1,4.838925E1,3.0321976E1,4.088508E1,4.491015E1,1.5267786E1,0E0,0E0,0E0,0E0,0E0,0E0,0E0,0E0],"parents":[2147483647,0,0,1,1,2,2,3,3,4,4,5,5,6,6],"right_children":[2,4,6,8,10,12,14,-1,-1,-1,-1,-1,-1,-1,-1],"split_conditions":[2E0,9E0,1E0,1E0,7E0,1E1,2E0,1.5105568E-2,2.086921E-3,-2.0763397E-3,-3.0297961E-2,-1.6877284E-2,1.311151E-2,2.9333713E-2,-1.2515462E-2],"split_indices":[3,1,14,5,15,10,35,0,0,0,0,0,0,0,0],"split_type":[0,0,0,0,0,0,0,0,0,0,0,0,0,0,0],"sum_hessian":[1.6045182E3,1.0589878E3,5.4553033E2,7.436004E2,3.1538745E2,5.0423578E2,4.1294567E1,5.0637164E2,2.3722874E2,2.6008167E2,5.530577E1,4.5522974E2,4.9006058E1,3.1718546E1,9.576022E0],"tree_param":{"num_deleted":"0","num_feature":"45","num_nodes":"15","size_leaf_vector":"1"}},{"base_weights":[4.946894E-3,1.3362497E-1,-8.768744E-1,2.7829203E-1,-2.8096825E-1,3.8224987E-3,-9.0774083E-1,1.327807E-2,1.1688924E-3,1.2050998E-2,-1.14266025E-2,-1.7499756E-2,-3.0646283E-2],"categories":[],"categories_nodes":[],"categories_segments":[],"categories_sizes":[],"default_left":[0,0,0,0,0,0,0,0,0,0,0,0,0],"id":57,"left_children":[1,3,5,7,9,-1,11,-1,-1,-1,-1,-1,-1],"loss_changes":[1.801528E2,8.321447E1,6.4604034E0,4.036949E1,2.463014E1,0E0,6.4927216E0,0E0,0E0,0E0,0E0,0E0,0E0],"parents":[2147483647,0,0,1,1,2,2,3,3,4,4,6,6],"right_children":[2,4,6,8,10,-1,12,-1,-1,-1,-1,-1,-1],"split_conditions":[9E0,9E0,2.2E1,2.55E1,2.25E1,3.8224987E-3,5.64E2,1.327807E-2,1.1688924E-3,1.2050998E-2,-1.14266025E-2,-1.7499756E-2,-3.0646283E-2],"split_indices":[0,1,4,4,4,0,20,0,0,0,0,0,0],"split_type":[0,0,0,0,0,0,0,0,0,0,0,0,0],"sum_hessian":[1.5862766E3,1.3851178E3,2.0115878E2,1.027244E3,3.5787387E2,5.8083043E0,1.9535048E2,6.083302E2,4.189138E2,4.5178955E1,3.1269492E2,5.2550144E1,1.4280032E2],"tree_param":{"num_deleted":"0","num_feature":"45","num_nodes":"13","size_leaf_vector":"1"}},{"base_weights":[1.8238839E-2,1.506952E-1,-9.19055E-1,1.8669437E-1,-1.0408245E0,6.241436E-3,-9.747059E-1,1.7693758E-2,2.9833561E-3,-3.7024956E-2,-0E0,-3.1069629E-2,4.3170913E-3],"categories":[],"categories_nodes":[],"categories_segments":[],"categories_sizes":[],"default_left":[0,0,0,0,0,0,0,0,0,0,0,0,0],"id":58,"left_children":[1,3,5,7,9,-1,11,-1,-1,-1,-1,-1,-1],"loss_changes":[1.9533867E2,5.926364E1,1.2498398E1,4.698554E1,8.186733E0,0E0,1.2912323E1,0E0,0E0,0E0,0E0,0E0,0E0],"parents":[2147483647,0,0,1,1,2,2,3,3,4,4,6,6],"right_children":[2,4,6,8,10,-1,12,-1,-1,-1,-1,-1,-1],"split_conditions":[9E0,2E1,1E0,2.3E1,1E0,6.241436E-3,1.2E1,1.7693758E-2,2.9833561E-3,-3.7024956E-2,-0E0,-3.1069629E-2,4.3170913E-3],"split_indices":[0,13,15,4,33,0,10,0,0,0,0,0,0],"split_type":[0,0,0,0,0,0,0,0,0,0,0,0,0],"sum_hessian":[1.571905E3,1.3781007E3,1.9380434E2,1.3385854E3,3.9515182E1,8.905477E0,1.8489886E2,2.3695052E2,1.101635E3,3.3190323E1,6.3248587E0,1.7550014E2,9.398722E0],"tree_param":{"num_deleted":"0","num_feature":"45","num_nodes":"13","size_leaf_vector":"1"}},{"base_weights":[-6.0563292E-3,1.1982036E-1,-9.084347E-1,2.5991124E-1,-2.6395282E-1,-9.589497E-1,1.2891149E-3,1.21142445E-2,-8.984263E-4,-1.3631177E-2,5.3559374E-3,-3.047819E-2,-1.8599724E-2],"categories":[],"categories_nodes":[],"categories_segments":[],"categories_sizes":[],"default_left":[0,0,0,0,0,0,0,0,0,0,0,0,0],"id":59,"left_children":[1,3,5,7,9,11,-1,-1,-1,-1,-1,-1,-1],"loss_changes":[1.7821939E2,7.406005E1,9.36441E0,4.213109E1,3.1144318E1,2.7327576E0,0E0,0E0,0E0,0E0,0E0,0E0,0E0],"parents":[2147483647,0,0,1,1,2,2,3,3,4,4,5,5],"right_children":[2,4,6,8,10,12,-1,-1,-1,-1,-1,-1,-1],"split_conditions":[9E0,9E0,1.3E1,1E0,1E0,1E0,1.2891149E-3,1.21142445E-2,-8.984263E-4,-1.3631177E-2,5.3559374E-3,-3.047819E-2,-1.8599724E-2],"split_indices":[0,1,25,5,7,7,0,0,0,0,0,0,0],"split_type":[0,0,0,0,0,0,0,0,0,0,0,0,0],"sum_hessian":[1.5663403E3,1.3752562E3,1.9108409E2,1.00791473E3,3.673415E2,1.8154225E2,9.541831E0,6.735105E2,3.3440424E2,2.5695984E2,1.1038164E2,1.5345001E2,2.809224E1],"tree_param":{"num_deleted":"0","num_feature":"45","num_nodes":"13","size_leaf_vector":"1"}},{"base_weights":[-5.4198545E-3,1.100666E-1,-8.5430145E-1,2.713616E-1,-1.9353133E-1,2.3953646E-2,-9.066035E-1,-9.214116E-4,1.7551005E-2,-8.890307E-3,1.6343229E-2,-2.8408099E-2,-0E0],"categories":[],"categories_nodes":[],"categories_segments":[],"categories_sizes":[],"default_left":[0,0,0,0,0,0,0,0,0,0,0,0,0],"id":60,"left_children":[1,3,5,7,9,-1,11,-1,-1,-1,-1,-1,-1],"loss_changes":[1.5539894E2,6.835176E1,1.7144867E1,8.642782E1,3.689244E1,0E0,6.834656E0,0E0,0E0,0E0,0E0,0E0,0E0],"parents":[2147483647,0,0,1,1,2,2,3,3,4,4,6,6],"right_children":[2,4,6,8,10,-1,12,-1,-1,-1,-1,-1,-1],"split_conditions":[9E0,1E0,2.1E1,2E0,1E0,2.3953646E-2,1.2E1,-9.214116E-4,1.7551005E-2,-8.890307E-3,1.6343229E-2,-2.8408099E-2,-0E0],"split_indices":[0,5,4,10,11,0,10,0,0,0,0,0,0],"split_type":[0,0,0,0,0,0,0,0,0,0,0,0,0],"sum_hessian":[1.5824297E3,1.3935906E3,1.8883908E2,9.103676E2,4.8322296E2,5.2963104E0,1.8354277E2,4.6405362E2,4.4631403E2,4.2480157E2,5.842138E1,1.7577911E2,7.7636566E0],"tree_param":{"num_deleted":"0","num_feature":"45","num_nodes":"13","size_leaf_vector":"1"}},{"base_weights":[-2.3065794E-2,1.8060371E-1,-2.9181466E-1,3.287544E-1,-1.1155052E-1,-4.0135655E-1,4.8797223E-1,6.148466E-3,2.0626139E-2,2.2034558E-4,-2.1522438E-2,-1.0281113E-2,-3.887471E-2,4.270937E-2,-3.5298057E-4],"categories":[],"categories_nodes":[],"categories_segments":[],"categories_sizes":[],"default_left":[0,0,0,0,0,0,0,0,0,0,0,0,0,0,0],"id":61,"left_children":[1,3,5,7,9,11,13,-1,-1,-1,-1,-1,-1,-1,-1],"loss_changes":[8.496473E1,3.8268234E1,5.735885E1,2.581017E1,2.1510542E1,3.0215431E1,3.886505E1,0E0,0E0,0E0,0E0,0E0,0E0,0E0,0E0],"parents":[2147483647,0,0,1,1,2,2,3,3,4,4,5,5,6,6],"right_children":[2,4,6,8,10,12,14,-1,-1,-1,-1,-1,-1,-1,-1],"split_conditions":[2.55E1,1E0,1E1,5E0,7E0,1.1E1,1E0,6.148466E-3,2.0626139E-2,2.2034558E-4,-2.1522438E-2,-1.0281113E-2,-3.887471E-2,4.270937E-2,-3.5298057E-4],"split_indices":[4,5,25,25,15,24,5,0,0,0,0,0,0,0,0],"split_type":[0,0,0,0,0,0,0,0,0,0,0,0,0,0,0],"sum_hessian":[1.5500997E3,8.81794E2,6.683057E2,5.8523816E2,2.9655582E2,5.86526E2,8.177971E1,4.36474E2,1.4876419E2,2.4859425E2,4.7961555E1,5.518355E2,3.4690495E1,2.7897602E1,5.388211E1],"tree_param":{"num_deleted":"0","num_feature":"45","num_nodes":"15","size_leaf_vector":"1"}},{"base_weights":[1.8909553E-2,1.308633E-1,-8.2157797E-1,2.6974946E-1,-2.500329E-1,1.5444585E-2,-8.992033E-1,2.243928E-2,5.2885828E-3,3.4456549E-3,-1.7879318E-2,2.5641395E-2,-2.8768027E-2],"categories":[],"categories_nodes":[],"categories_segments":[],"categories_sizes":[],"default_left":[0,0,0,0,0,0,0,0,0,0,0,0,0],"id":62,"left_children":[1,3,5,7,9,-1,11,-1,-1,-1,-1,-1,-1],"loss_changes":[1.4738849E2,7.3224266E1,1.959974E1,4.5099495E1,4.6800194E1,0E0,1.9103836E1,0E0,0E0,0E0,0E0,0E0,0E0],"parents":[2147483647,0,0,1,1,2,2,3,3,4,4,6,6],"right_children":[2,4,6,8,10,-1,12,-1,-1,-1,-1,-1,-1],"split_conditions":[9E0,9E0,1E0,2.3E1,3E0,1.5444585E-2,2.15E1,2.243928E-2,5.2885828E-3,3.4456549E-3,-1.7879318E-2,2.5641395E-2,-2.8768027E-2],"split_indices":[0,1,15,4,15,0,4,0,0,0,0,0,0],"split_type":[0,0,0,0,0,0,0,0,0,0,0,0,0],"sum_hessian":[1.564959E3,1.3818575E3,1.8310147E2,1.0130306E3,3.68827E2,9.671781E0,1.7342969E2,1.6429668E2,8.487339E2,1.7968332E2,1.8914368E2,5.218289E0,1.6821141E2],"tree_param":{"num_deleted":"0","num_feature":"45","num_nodes":"13","size_leaf_vector":"1"}},{"base_weights":[9.201589E-3,1.1409383E-1,-7.699402E-1,2.4749441E-1,-2.647573E-1,-8.430858E-1,1.4887827E-2,8.725291E-3,-3.193581E-2,-1.3645842E-2,4.748688E-3,-6.611725E-4,-2.6229676E-2],"categories":[],"categories_nodes":[],"categories_segments":[],"categories_sizes":[],"default_left":[0,0,0,0,0,0,0,0,0,0,0,0,0],"id":63,"left_children":[1,3,5,7,9,11,-1,-1,-1,-1,-1,-1,-1],"loss_changes":[1.2675787E2,6.918722E1,1.749591E1,5.7803524E1,2.87701E1,4.3641357E0,0E0,0E0,0E0,0E0,0E0,0E0,0E0],"parents":[2147483647,0,0,1,1,2,2,3,3,4,4,5,5],"right_children":[2,4,6,8,10,12,-1,-1,-1,-1,-1,-1,-1],"split_conditions":[9E0,9E0,1.2E1,1E1,1E0,2.2E1,1.4887827E-2,8.725291E-3,-3.193581E-2,-1.3645842E-2,4.748688E-3,-6.611725E-4,-2.6229676E-2],"split_indices":[0,1,10,24,7,4,0,0,0,0,0,0,0],"split_type":[0,0,0,0,0,0,0,0,0,0,0,0,0],"sum_hessian":[1.5497393E3,1.3667253E3,1.8301398E2,1.0112544E3,3.5547092E2,1.7340962E2,9.604355E0,9.797388E2,3.1515602E1,2.4537033E2,1.101006E2,6.5354085E0,1.6687422E2],"tree_param":{"num_deleted":"0","num_feature":"45","num_nodes":"13","size_leaf_vector":"1"}},{"base_weights":[1.3944404E-3,1.07628815E-1,-8.217667E-1,2.85988E-1,-2.4648538E-1,5.383148E-3,-8.7688106E-1,2.0150251E-3,1.8096674E-2,-1.1436825E-2,1.7632997E-2,5.320856E-3,-2.7453944E-2],"categories":[],"categories_nodes":[],"categories_segments":[],"categories_sizes":[],"default_left":[0,0,0,0,0,0,0,0,0,0,0,0,0],"id":64,"left_children":[1,3,5,7,9,-1,11,-1,-1,-1,-1,-1,-1],"loss_changes":[1.3508879E2,8.654186E1,9.969955E0,6.3139122E1,5.1790684E1,0E0,6.995224E0,0E0,0E0,0E0,0E0,0E0,0E0],"parents":[2147483647,0,0,1,1,2,2,3,3,4,4,6,6],"right_children":[2,4,6,8,10,-1,12,-1,-1,-1,-1,-1,-1],"split_conditions":[9E0,1E0,1E0,3E0,1E0,5.383148E-3,2.2E1,2.0150251E-3,1.8096674E-2,-1.1436825E-2,1.7632997E-2,5.320856E-3,-2.7453944E-2],"split_indices":[0,5,15,30,11,0,4,0,0,0,0,0,0],"split_type":[0,0,0,0,0,0,0,0,0,0,0,0,0],"sum_hessian":[1.5435951E3,1.3680322E3,1.7556287E2,9.1010706E2,4.579252E2,8.947785E0,1.6661508E2,5.395002E2,3.7060687E2,3.9481976E2,6.3105423E1,5.614667E0,1.6100041E2],"tree_param":{"num_deleted":"0","num_feature":"45","num_nodes":"13","size_leaf_vector":"1"}},{"base_weights":[6.4165043E-3,1.0901146E-1,-7.966861E-1,2.4564318E-1,-2.7563557E-1,-8.7413377E-1,1.2957143E-2,8.216292E-3,-3.7340745E-2,-3.145524E-3,-2.3663454E-2,-4.8422334E-3,-2.731563E-2],"categories":[],"categories_nodes":[],"categories_segments":[],"categories_sizes":[],"default_left":[0,0,0,0,0,0,0,0,0,0,0,0,0],"id":65,"left_children":[1,3,5,7,9,11,-1,-1,-1,-1,-1,-1,-1],"loss_changes":[1.27648964E2,7.2304E1,1.7118912E1,4.2951332E1,3.1426548E1,4.0374374E0,0E0,0E0,0E0,0E0,0E0,0E0,0E0],"parents":[2147483647,0,0,1,1,2,2,3,3,4,4,5,5],"right_children":[2,4,6,8,10,12,-1,-1,-1,-1,-1,-1,-1],"split_conditions":[9E0,9E0,1.2E1,1.4E1,7E0,1E0,1.2957143E-2,8.216292E-3,-3.7340745E-2,-3.145524E-3,-2.3663454E-2,-4.8422334E-3,-2.731563E-2],"split_indices":[0,1,10,24,15,15,0,0,0,0,0,0,0],"split_type":[0,0,0,0,0,0,0,0,0,0,0,0,0],"sum_hessian":[1.5480261E3,1.3735468E3,1.7447942E2,1.01398663E3,3.5956012E2,1.644808E2,9.998609E0,9.9600146E2,1.7985125E1,2.7082397E2,8.873614E1,8.386988E0,1.5609383E2],"tree_param":{"num_deleted":"0","num_feature":"45","num_nodes":"13","size_leaf_vector":"1"}},{"base_weights":[1.0671687E-3,1.0040775E-1,-8.092828E-1,2.3336211E-1,-2.781941E-1,-8.6844456E-1,7.937515E-3,8.018033E-3,-2.5104143E-2,2.8982305E-3,-1.3527823E-2,3.7266223E-3,-2.7994111E-2],"categories":[],"categories_nodes":[],"categories_segments":[],"categories_sizes":[],"default_left":[0,0,0,0,0,0,0,0,0,0,0,0,0],"id":66,"left_children":[1,3,5,7,9,11,-1,-1,-1,-1,-1,-1,-1],"loss_changes":[1.25470436E2,6.9993576E1,1.1102798E1,3.750226E1,2.3472658E1,1.057621E1,0E0,0E0,0E0,0E0,0E0,0E0,0E0],"parents":[2147483647,0,0,1,1,2,2,3,3,4,4,5,5],"right_children":[2,4,6,8,10,12,-1,-1,-1,-1,-1,-1,-1],"split_conditions":[9E0,9E0,1.2E1,1E0,2E0,1E0,7.937515E-3,8.018033E-3,-2.5104143E-2,2.8982305E-3,-1.3527823E-2,3.7266223E-3,-2.7994111E-2],"split_indices":[0,1,10,2,15,15,0,0,0,0,0,0,0],"split_type":[0,0,0,0,0,0,0,0,0,0,0,0,0],"sum_hessian":[1.5574978E3,1.3883053E3,1.6919247E2,1.0279617E3,3.6034363E2,1.6062755E2,8.564929E0,9.972112E2,3.0750523E1,1.1363561E2,2.4670801E2,9.676826E0,1.5095071E2],"tree_param":{"num_deleted":"0","num_feature":"45","num_nodes":"13","size_leaf_vector":"1"}},{"base_weights":[-2.258036E-2,1.1598221E-1,-3.6530912E-1,3.759477E-1,-9.8851986E-2,-6.841607E-1,-1.335608E-1,2.2837413E-2,7.1225963E-3,-8.350773E-4,-3.12977E-2,-4.120866E-3,-2.7446203E-2,1.2878638E-2,-9.247808E-3],"categories":[],"categories_nodes":[],"categories_segments":[],"categories_sizes":[],"default_left":[0,0,0,0,0,0,0,0,0,0,0,0,0,0,0],"id":67,"left_children":[1,3,5,7,9,11,13,-1,-1,-1,-1,-1,-1,-1,-1],"loss_changes":[7.265899E1,6.088845E1,3.2378742E1,2.6043297E1,3.989481E1,2.3106667E1,2.534484E1,0E0,0E0,0E0,0E0,0E0,0E0,0E0,0E0],"parents":[2147483647,0,0,1,1,2,2,3,3,4,4,5,5,6,6],"right_children":[2,4,6,8,10,12,14,-1,-1,-1,-1,-1,-1,-1,-1],"split_conditions":[9E0,5.89E2,1E0,2.3E1,1E1,2E0,1E0,2.2837413E-2,7.1225963E-3,-8.350773E-4,-3.12977E-2,-4.120866E-3,-2.7446203E-2,1.2878638E-2,-9.247808E-3],"split_indices":[1,20,22,4,24,15,35,0,0,0,0,0,0,0,0],"split_type":[0,0,0,0,0,0,0,0,0,0,0,0,0,0,0],"sum_hessian":[1.5275879E3,1.0880625E3,4.395254E2,4.9219055E2,5.95872E2,1.8399359E2,2.555318E2,1.2878171E2,3.6340884E2,5.552541E2,4.0617893E1,5.5198856E1,1.2879474E2,6.004581E1,1.95486E2],"tree_param":{"num_deleted":"0","num_feature":"45","num_nodes":"15","size_leaf_vector":"1"}},{"base_weights":[-3.276576E-2,6.3373E-2,-8.102654E-1,2.2161293E-1,-2.9945907E-1,1.4807329E-2,-8.9438516E-1,1.0368107E-2,-3.1625298E-3,-1.1924487E-2,1.5405561E-2,-2.8820634E-2,1.1925538E-3],"categories":[],"categories_nodes":[],"categories_segments":[],"categories_sizes":[],"default_left":[0,0,0,0,0,0,0,0,0,0,0,0,0],"id":68,"left_children":[1,3,5,7,9,-1,11,-1,-1,-1,-1,-1,-1],"loss_changes":[1.13763214E2,7.7785736E1,1.8851006E1,3.831555E1,3.2973816E1,0E0,9.901337E0,0E0,0E0,0E0,0E0,0E0,0E0],"parents":[2147483647,0,0,1,1,2,2,3,3,4,4,6,6],"right_children":[2,4,6,8,10,-1,12,-1,-1,-1,-1,-1,-1],"split_conditions":[9E0,2E0,1E0,9E0,1.1E1,1.4807329E-2,1.2E1,1.0368107E-2,-3.1625298E-3,-1.1924487E-2,1.5405561E-2,-2.8820634E-2,1.1925538E-3],"split_indices":[0,3,15,1,25,0,25,0,0,0,0,0,0],"split_type":[0,0,0,0,0,0,0,0,0,0,0,0,0],"sum_hessian":[1.5192733E3,1.3527892E3,1.6648413E2,9.4243506E2,4.1035416E2,9.722982E0,1.5676114E2,6.8352997E2,2.589051E2,3.6676587E2,4.3588287E1,1.4644545E2,1.0315696E1],"tree_param":{"num_deleted":"0","num_feature":"45","num_nodes":"13","size_leaf_vector":"1"}},{"base_weights":[1.5851367E-2,1.0752586E-1,-7.43265E-1,1.46344E-1,-9.176178E-1,2.4343904E-2,-8.0022985E-1,8.452208E-3,-3.3394997E-3,-4.0950198E-2,-5.235466E-3,-2.5903681E-2,4.417852E-3],"categories":[],"categories_nodes":[],"categories_segments":[],"categories_sizes":[],"default_left":[0,0,0,0,0,0,0,0,0,0,0,0,0],"id":69,"left_children":[1,3,5,7,9,-1,11,-1,-1,-1,-1,-1,-1],"loss_changes":[1.06106766E2,5.4224895E1,1.5197128E1,4.5836357E1,1.6132942E1,0E0,9.725861E0,0E0,0E0,0E0,0E0,0E0,0E0],"parents":[2147483647,0,0,1,1,2,2,3,3,4,4,6,6],"right_children":[2,4,6,8,10,-1,12,-1,-1,-1,-1,-1,-1],"split_conditions":[9E0,1E0,2.1E1,1E0,5E0,2.4343904E-2,1.2E1,8.452208E-3,-3.3394997E-3,-4.0950198E-2,-5.235466E-3,-2.5903681E-2,4.417852E-3],"split_indices":[0,2,4,5,10,0,10,0,0,0,0,0,0],"split_type":[0,0,0,0,0,0,0,0,0,0,0,0,0],"sum_hessian":[1.5234714E3,1.3601976E3,1.6327383E2,1.3114915E3,4.870621E1,5.2406816E0,1.5803316E2,8.5991534E2,4.5157608E2,2.9795935E1,1.8910276E1,1.4832936E2,9.703805E0],"tree_param":{"num_deleted":"0","num_feature":"45","num_nodes":"13","size_leaf_vector":"1"}},{"base_weights":[1.0425479E-3,1.584283E-1,-2.8529096E-1,1.1388228E-2,7.1571326E-1,-3.865072E-1,4.67701E-1,-4.6372963E-3,1.2737766E-2,1.7448254E-2,3.4057252E-2,-2.127596E-2,-3.72375E-3,1.7400134E-2,-1.193168E-2],"categories":[],"categories_nodes":[],"categories_segments":[],"categories_sizes":[],"default_left":[0,0,0,0,0,0,0,0,0,0,0,0,0,0,0],"id":70,"left_children":[1,3,5,7,9,11,13,-1,-1,-1,-1,-1,-1,-1,-1],"loss_changes":[6.828202E1,8.007304E1,4.1123802E1,5.324781E1,1.0648079E1,3.9987648E1,6.4692793E0,0E0,0E0,0E0,0E0,0E0,0E0,0E0,0E0],"parents":[2147483647,0,0,1,1,2,2,3,3,4,4,5,5,6,6],"right_children":[2,4,6,8,10,12,14,-1,-1,-1,-1,-1,-1,-1,-1],"split_conditions":[1E0,5E0,1E0,1E0,1E1,5E0,3E0,-4.6372963E-3,1.2737766E-2,1.7448254E-2,3.4057252E-2,-2.127596E-2,-3.72375E-3,1.7400134E-2,-1.193168E-2],"split_indices":[5,10,11,9,10,10,24,0,0,0,0,0,0,0,0],"split_type":[0,0,0,0,0,0,0,0,0,0,0,0,0,0,0],"sum_hessian":[1.5134745E3,9.771637E2,5.363108E2,7.741132E2,2.0305049E2,4.7330872E2,6.3002068E1,5.5255963E2,2.2155356E2,1.5585516E2,4.7195335E1,2.1132547E2,2.6198325E2,5.6159733E1,6.842334E0],"tree_param":{"num_deleted":"0","num_feature":"45","num_nodes":"15","size_leaf_vector":"1"}},{"base_weights":[2.2589337E-2,1.0937821E-1,-7.2257507E-1,1.6312134E-1,-7.509943E-1,3.4077746E-1,-8.025368E-1,8.154958E-3,-4.2607505E-3,-1.5611275E-2,-3.9987218E-2,5.2093256E-2,-3.2384586E-2,3.7148602E-3,-2.5266487E-2],"categories":[],"categories_nodes":[],"categories_segments":[],"categories_sizes":[],"default_left":[0,0,0,0,0,0,0,0,0,0,0,0,0,0,0],"id":71,"left_children":[1,3,5,7,9,11,13,-1,-1,-1,-1,-1,-1,-1,-1],"loss_changes":[9.8486916E1,6.316842E1,1.3826065E1,4.2693066E1,9.898109E0,2.5179667E1,5.620796E0,0E0,0E0,0E0,0E0,0E0,0E0,0E0,0E0],"parents":[2147483647,0,0,1,1,2,2,3,3,4,4,5,5,6,6],"right_children":[2,4,6,8,10,12,14,-1,-1,-1,-1,-1,-1,-1,-1],"split_conditions":[9E0,2.77E1,1E0,9E0,1E1,7.062E2,2.2E1,8.154958E-3,-4.2607505E-3,-1.5611275E-2,-3.9987218E-2,5.2093256E-2,-3.2384586E-2,3.7148602E-3,-2.5266487E-2],"split_indices":[0,4,15,1,24,20,4,0,0,0,0,0,0,0,0],"split_type":[0,0,0,0,0,0,0,0,0,0,0,0,0,0,0],"sum_hessian":[1.5215945E3,1.3637471E3,1.5784743E2,1.2844412E3,7.930593E1,1.0724028E1,1.471234E2,9.473705E2,3.3707065E2,5.8276436E1,2.1029493E1,5.332085E0,5.3919425E0,5.8523464E0,1.4127106E2],"tree_param":{"num_deleted":"0","num_feature":"45","num_nodes":"15","size_leaf_vector":"1"}},{"base_weights":[7.4616185E-4,9.3419366E-2,-8.153134E-1,1.324156E-1,-9.815295E-1,2.0440508E-2,-8.7562126E-1,8.0125695E-3,-3.992871E-3,-4.026267E-2,-1.07888635E-2,2.2627546E-3,-2.8241836E-2],"categories":[],"categories_nodes":[],"categories_segments":[],"categories_sizes":[],"default_left":[0,0,0,0,0,0,0,0,0,0,0,0,0],"id":72,"left_children":[1,3,5,7,9,-1,11,-1,-1,-1,-1,-1,-1],"loss_changes":[1.1509625E2,5.737562E1,1.4623718E1,4.7274075E1,1.0089458E1,0E0,9.520744E0,0E0,0E0,0E0,0E0,0E0,0E0],"parents":[2147483647,0,0,1,1,2,2,3,3,4,4,6,6],"right_children":[2,4,6,8,10,-1,12,-1,-1,-1,-1,-1,-1],"split_conditions":[9E0,1E0,2.1E1,1E0,5E0,2.0440508E-2,1E0,8.0125695E-3,-3.992871E-3,-4.026267E-2,-1.07888635E-2,2.2627546E-3,-2.8241836E-2],"split_indices":[0,2,4,5,10,0,15,0,0,0,0,0,0],"split_type":[0,0,0,0,0,0,0,0,0,0,0,0,0],"sum_hessian":[1.5208441E3,1.3666527E3,1.541915E2,1.3197457E3,4.690695E1,5.5093594E0,1.4868213E2,8.758675E2,4.4387823E2,2.8857428E1,1.8049526E1,9.50971E0,1.3917242E2],"tree_param":{"num_deleted":"0","num_feature":"45","num_nodes":"13","size_leaf_vector":"1"}},{"base_weights":[7.404598E-3,9.4729E-2,-7.7114224E-1,1.349184E-1,-9.795876E-1,-8.574855E-1,3.6283526E-1,7.7599897E-3,-4.3742154E-3,-3.9907243E-2,-6.887689E-3,-2.722007E-2,-7.617664E-3,3.3119094E-2,-1.3583181E-2],"categories":[],"categories_nodes":[],"categories_segments":[],"categories_sizes":[],"default_left":[0,0,0,0,0,0,0,0,0,0,0,0,0,0,0],"id":73,"left_children":[1,3,5,7,9,11,13,-1,-1,-1,-1,-1,-1,-1,-1],"loss_changes":[1.0196668E2,5.8313538E1,1.5169151E1,4.5272408E1,1.2344723E1,3.8935242E0,7.408817E0,0E0,0E0,0E0,0E0,0E0,0E0,0E0,0E0],"parents":[2147483647,0,0,1,1,2,2,3,3,4,4,5,5,6,6],"right_children":[2,4,6,8,10,12,14,-1,-1,-1,-1,-1,-1,-1,-1],"split_conditions":[9E0,1E0,1.2E1,2E0,6E0,1E0,2E0,7.7599897E-3,-4.3742154E-3,-3.9907243E-2,-6.887689E-3,-2.722007E-2,-7.617664E-3,3.3119094E-2,-1.3583181E-2],"split_indices":[0,2,10,3,10,23,3,0,0,0,0,0,0,0,0],"split_type":[0,0,0,0,0,0,0,0,0,0,0,0,0,0,0],"sum_hessian":[1.4987363E3,1.3484917E3,1.5024455E2,1.3007974E3,4.769438E1,1.3992258E2,1.0321967E1,9.0312256E2,3.9767477E2,3.1881514E1,1.5812868E1,1.2862967E2,1.1292912E1,5.286884E0,5.0350833E0],"tree_param":{"num_deleted":"0","num_feature":"45","num_nodes":"15","size_leaf_vector":"1"}},{"base_weights":[-1.1333507E-2,3.590076E-1,-1.2129969E-1,5.107657E-1,1.2465973E-2,-2.3194756E-1,4.2441446E-1,2.1132551E-2,9.8364E-4,-3.4013311E-3,2.8224047E-2,-1.6456773E-3,-1.4449849E-2,1.4954232E-2,-3.606749E-2],"categories":[],"categories_nodes":[],"categories_segments":[],"categories_sizes":[],"default_left":[0,0,0,0,0,0,0,0,0,0,0,0,0,0,0],"id":74,"left_children":[1,3,5,7,9,11,13,-1,-1,-1,-1,-1,-1,-1,-1],"loss_changes":[6.1040993E1,1.798491E1,6.989758E1,2.1968029E1,1.253973E1,4.246854E1,2.4035519E1,0E0,0E0,0E0,0E0,0E0,0E0,0E0,0E0],"parents":[2147483647,0,0,1,1,2,2,3,3,4,4,5,5,6,6],"right_children":[2,4,6,8,10,12,14,-1,-1,-1,-1,-1,-1,-1,-1],"split_conditions":[2.35E1,9E0,8E0,6.39E2,9.29E2,6E0,1E0,2.1132551E-2,9.8364E-4,-3.4013311E-3,2.8224047E-2,-1.6456773E-3,-1.4449849E-2,1.4954232E-2,-3.606749E-2],"split_indices":[4,1,10,20,20,15,2,0,0,0,0,0,0,0,0],"split_type":[0,0,0,0,0,0,0,0,0,0,0,0,0,0,0],"sum_hessian":[1.4973724E3,3.420962E2,1.1552762E3,2.3737991E2,1.0471628E2,9.61153E2,1.9412317E2,1.6844958E2,6.893032E1,9.289389E1,1.1822394E1,5.6329614E2,3.9785687E2,1.8639201E2,7.7311525E0],"tree_param":{"num_deleted":"0","num_feature":"45","num_nodes":"15","size_leaf_vector":"1"}},{"base_weights":[2.2430385E-3,8.429743E-2,-7.314862E-1,1.2780029E-1,-1.1340137E0,2.2864554E-2,-7.91473E-1,1.6223086E-2,1.2370254E-3,-3.966706E-2,-1.723808E-2,4.946397E-3,-2.5779089E-2],"categories":[],"categories_nodes":[],"categories_segments":[],"categories_sizes":[],"default_left":[0,0,0,0,0,0,0,0,0,0,0,0,0],"id":75,"left_children":[1,3,5,7,9,-1,11,-1,-1,-1,-1,-1,-1],"loss_changes":[9.0243256E1,7.1552635E1,1.4113312E1,4.652479E1,3.9507065E0,0E0,9.648743E0,0E0,0E0,0E0,0E0,0E0,0E0],"parents":[2147483647,0,0,1,1,2,2,3,3,4,4,6,6],"right_children":[2,4,6,8,10,-1,12,-1,-1,-1,-1,-1,-1],"split_conditions":[9E0,1E0,2.1E1,2.3E1,7.5E-1,2.2864554E-2,1E0,1.6223086E-2,1.2370254E-3,-3.966706E-2,-1.723808E-2,4.946397E-3,-2.5779089E-2],"split_indices":[0,2,4,4,42,0,15,0,0,0,0,0,0],"split_type":[0,0,0,0,0,0,0,0,0,0,0,0,0],"sum_hessian":[1.4979658E3,1.3482139E3,1.4975203E2,1.3026758E3,4.5538116E1,5.2657347E0,1.444863E2,2.2463544E2,1.0780403E3,3.2919506E1,1.2618608E1,9.376698E0,1.3510959E2],"tree_param":{"num_deleted":"0","num_feature":"45","num_nodes":"13","size_leaf_vector":"1"}},{"base_weights":[1.828224E-2,9.348015E-2,-6.8562424E-1,2.2899225E-1,-1.6684155E-1,1.5578154E-2,-7.743172E-1,-1.8291626E-4,1.4659773E-2,-2.7083785E-3,-3.0784367E-2,-2.5408596E-2,8.889836E-3],"categories":[],"categories_nodes":[],"categories_segments":[],"categories_sizes":[],"default_left":[0,0,0,0,0,0,0,0,0,0,0,0,0],"id":76,"left_children":[1,3,5,7,9,-1,11,-1,-1,-1,-1,-1,-1],"loss_changes":[7.95028E1,4.794773E1,1.5917862E1,5.460841E1,3.0401829E1,0E0,1.0842819E1,0E0,0E0,0E0,0E0,0E0,0E0],"parents":[2147483647,0,0,1,1,2,2,3,3,4,4,6,6],"right_children":[2,4,6,8,10,-1,12,-1,-1,-1,-1,-1,-1],"split_conditions":[9E0,1E0,1E0,2E0,1.2392E3,1.5578154E-2,1.2E1,-1.8291626E-4,1.4659773E-2,-2.7083785E-3,-3.0784367E-2,-2.5408596E-2,8.889836E-3],"split_indices":[0,5,15,10,20,0,10,0,0,0,0,0,0],"split_type":[0,0,0,0,0,0,0,0,0,0,0,0,0],"sum_hessian":[1.5008796E3,1.356929E3,1.4395065E2,8.927216E2,4.6420737E2,9.459601E0,1.3449104E2,4.6884448E2,4.238771E2,4.2735254E2,3.6854824E1,1.2622956E2,8.261483E0],"tree_param":{"num_deleted":"0","num_feature":"45","num_nodes":"13","size_leaf_vector":"1"}},{"base_weights":[-9.740196E-3,5.079751E-1,-1.0696572E-1,6.619106E-1,1.4328448E-1,3.3837743E-2,-4.5870224E-1,2.0984482E-2,-5.00397E-3,1.23265805E-2,-2.4058294E-2,3.2965983E-3,-1.574757E-2,-1.5624221E-2,1.05891405E-2],"categories":[],"categories_nodes":[],"categories_segments":[],"categories_sizes":[],"default_left":[0,0,0,0,0,0,0,0,0,0,0,0,0,0,0],"id":77,"left_children":[1,3,5,7,9,11,13,-1,-1,-1,-1,-1,-1,-1,-1],"loss_changes":[7.5056564E1,1.3057892E1,6.226877E1,5.3164215E0,1.8359516E1,3.816478E1,1.831585E1,0E0,0E0,0E0,0E0,0E0,0E0,0E0,0E0],"parents":[2147483647,0,0,1,1,2,2,3,3,4,4,5,5,6,6],"right_children":[2,4,6,8,10,12,14,-1,-1,-1,-1,-1,-1,-1,-1],"split_conditions":[2.3E1,9E0,9E0,2E0,2.25E1,5E0,1.3E1,2.0984482E-2,-5.00397E-3,1.23265805E-2,-2.4058294E-2,3.2965983E-3,-1.574757E-2,-1.5624221E-2,1.05891405E-2],"split_indices":[4,1,1,24,4,3,30,0,0,0,0,0,0,0,0],"split_type":[0,0,0,0,0,0,0,0,0,0,0,0,0,0,0],"sum_hessian":[1.4898538E3,2.3472353E2,1.2551302E3,1.6428838E2,7.0435135E1,8.9676587E2,3.583644E2,1.5742752E2,6.8608656E0,5.5417187E1,1.5017952E1,7.9019916E2,1.0656675E2,3.3334042E2,2.502396E1],"tree_param":{"num_deleted":"0","num_feature":"45","num_nodes":"15","size_leaf_vector":"1"}},{"base_weights":[-2.0092774E-2,7.029684E-2,-8.593689E-1,-4.1471515E-2,3.1659377E-1,-9.339307E-1,1.06617445E-2,-3.9756475E-3,2.1409225E-2,1.0472588E-2,-5.373902E-2,-2.9586801E-2,3.011164E-3],"categories":[],"categories_nodes":[],"categories_segments":[],"categories_sizes":[],"default_left":[0,0,0,0,0,0,0,0,0,0,0,0,0],"id":78,"left_children":[1,3,5,7,9,11,-1,-1,-1,-1,-1,-1,-1],"loss_changes":[1.1144216E2,3.652498E1,1.3326912E1,6.275636E1,2.8842796E1,7.485779E0,0E0,0E0,0E0,0E0,0E0,0E0,0E0],"parents":[2147483647,0,0,1,1,2,2,3,3,4,4,5,5],"right_children":[2,4,6,8,10,12,-1,-1,-1,-1,-1,-1,-1],"split_conditions":[9E0,1E0,1E0,1E1,3E0,1E0,1.06617445E-2,-3.9756475E-3,2.1409225E-2,1.0472588E-2,-5.373902E-2,-2.9586801E-2,3.011164E-3],"split_indices":[0,9,17,10,3,11,0,0,0,0,0,0,0],"split_type":[0,0,0,0,0,0,0,0,0,0,0,0,0],"sum_hessian":[1.4661781E3,1.324344E3,1.4183409E2,9.112492E2,4.1309488E2,1.3392717E2,7.906927E0,8.140495E2,9.7199684E1,4.0769226E2,5.4026165E0,1.2761777E2,6.309399E0],"tree_param":{"num_deleted":"0","num_feature":"45","num_nodes":"13","size_leaf_vector":"1"}},{"base_weights":[-1.003561E-2,6.863542E-2,-7.4288785E-1,6.216609E-1,9.5283444E-4,-8.326987E-1,1.2318349E-2,1.1852542E-2,2.56652E-2,3.6340745E-3,-1.0348678E-2,7.686636E-3,-2.6458055E-2],"categories":[],"categories_nodes":[],"categories_segments":[],"categories_sizes":[],"default_left":[0,0,0,0,0,0,0,0,0,0,0,0,0],"id":79,"left_children":[1,3,5,7,9,11,-1,-1,-1,-1,-1,-1,-1],"loss_changes":[8.467315E1,4.9539684E1,1.5134438E1,7.184555E0,4.915221E1,7.392868E0,0E0,0E0,0E0,0E0,0E0,0E0,0E0],"parents":[2147483647,0,0,1,1,2,2,3,3,4,4,5,5],"right_children":[2,4,6,8,10,12,-1,-1,-1,-1,-1,-1,-1],"split_conditions":[9E0,2.25E1,1.2E1,5E0,9E0,2.2E1,1.2318349E-2,1.1852542E-2,2.56652E-2,3.6340745E-3,-1.0348678E-2,7.686636E-3,-2.6458055E-2],"split_indices":[0,4,10,25,1,4,0,0,0,0,0,0,0],"split_type":[0,0,0,0,0,0,0,0,0,0,0,0,0],"sum_hessian":[1.4655833E3,1.3242013E3,1.4138193E2,1.4333855E2,1.1808628E3,1.3150761E2,9.8743105E0,7.438404E1,6.8954506E1,8.77071E2,3.0379178E2,5.4192767E0,1.2608834E2],"tree_param":{"num_deleted":"0","num_feature":"45","num_nodes":"13","size_leaf_vector":"1"}},{"base_weights":[-4.6675422E-4,7.182482E-2,-6.9855005E-1,2.1513678E-1,-1.9341E-1,-7.8785163E-1,1.1912025E-2,1.514739E-3,2.1744777E-2,-1.0459517E-2,9.692198E-3,3.2629461E-3,-2.4977406E-2],"categories":[],"categories_nodes":[],"categories_segments":[],"categories_sizes":[],"default_left":[0,0,0,0,0,0,0,0,0,0,0,0,0],"id":80,"left_children":[1,3,5,7,9,11,-1,-1,-1,-1,-1,-1,-1],"loss_changes":[7.377915E1,5.0352943E1,1.3775978E1,7.205324E1,3.736293E1,5.26754E0,0E0,0E0,0E0,0E0,0E0,0E0,0E0],"parents":[2147483647,0,0,1,1,2,2,3,3,4,4,5,5],"right_children":[2,4,6,8,10,12,-1,-1,-1,-1,-1,-1,-1],"split_conditions":[9E0,1E0,1.2E1,5E0,1E0,2.2E1,1.1912025E-2,1.514739E-3,2.1744777E-2,-1.0459517E-2,9.692198E-3,3.2629461E-3,-2.4977406E-2],"split_indices":[0,5,10,25,16,4,0,0,0,0,0,0,0],"split_type":[0,0,0,0,0,0,0,0,0,0,0,0,0],"sum_hessian":[1.4587347E3,1.322531E3,1.3620378E2,8.5897473E2,4.6355624E2,1.262829E2,9.920886E0,6.5022656E2,2.0874818E2,3.5682352E2,1.0673271E2,5.8261495E0,1.2045675E2],"tree_param":{"num_deleted":"0","num_feature":"45","num_nodes":"13","size_leaf_vector":"1"}},{"base_weights":[2.2055496E-2,9.759549E-2,-7.415032E-1,-3.3374045E-2,3.3849716E-1,4.941941E-3,-8.0924547E-1,1.2264698E-2,-5.144774E-3,2.19993E-2,1.6222836E-3,4.4317064E-3,-2.5725288E-2],"categories":[],"categories_nodes":[],"categories_segments":[],"categories_sizes":[],"default_left":[0,0,0,0,0,0,0,0,0,0,0,0,0],"id":81,"left_children":[1,3,5,7,9,-1,11,-1,-1,-1,-1,-1,-1],"loss_changes":[8.507008E1,4.2413986E1,8.34803E0,5.3221153E1,5.3034946E1,0E0,5.9156036E0,0E0,0E0,0E0,0E0,0E0,0E0],"parents":[2147483647,0,0,1,1,2,2,3,3,4,4,6,6],"right_children":[2,4,6,8,10,-1,12,-1,-1,-1,-1,-1,-1],"split_conditions":[9E0,5E0,1E0,2.35E1,1E0,4.941941E-3,2.2E1,1.2264698E-2,-5.144774E-3,2.19993E-2,1.6222836E-3,4.4317064E-3,-2.5725288E-2],"split_indices":[0,10,15,4,5,0,4,0,0,0,0,0,0],"split_type":[0,0,0,0,0,0,0,0,0,0,0,0,0],"sum_hessian":[1.4737446E3,1.3419834E3,1.3176126E2,8.696386E2,4.7234473E2,8.962045E0,1.2279921E2,2.063401E2,6.632985E2,1.9698059E2,2.7536414E2,5.69752E0,1.1710169E2],"tree_param":{"num_deleted":"0","num_feature":"45","num_nodes":"13","size_leaf_vector":"1"}},{"base_weights":[8.194103E-3,7.561575E-2,-6.763451E-1,1.0786104E-1,-1.1695434E0,2.4902795E-2,-7.4406475E-1,7.0875823E-3,-3.993266E-3,-3.958302E-2,-1.977863E-2,-2.4602547E-2,5.7193995E-3],"categories":[],"categories_nodes":[],"categories_segments":[],"categories_sizes":[],"default_left":[0,0,0,0,0,0,0,0,0,0,0,0,0],"id":82,"left_children":[1,3,5,7,9,-1,11,-1,-1,-1,-1,-1,-1],"loss_changes":[6.818199E1,5.4065105E1,1.4120205E1,4.0666477E1,1.5314674E0,0E0,9.2673645E0,0E0,0E0,0E0,0E0,0E0,0E0],"parents":[2147483647,0,0,1,1,2,2,3,3,4,4,6,6],"right_children":[2,4,6,8,10,-1,12,-1,-1,-1,-1,-1,-1],"split_conditions":[9E0,5E0,2.15E1,1E0,4E0,2.4902795E-2,1.2E1,7.0875823E-3,-3.993266E-3,-3.958302E-2,-1.977863E-2,-2.4602547E-2,5.7193995E-3],"split_indices":[0,8,4,5,3,0,10,0,0,0,0,0,0],"split_type":[0,0,0,0,0,0,0,0,0,0,0,0,0],"sum_hessian":[1.4765049E3,1.3450626E3,1.314423E2,1.312078E3,3.2984577E1,5.106763E0,1.2633554E2,8.562775E2,4.5580048E2,2.411797E1,8.866609E0,1.1704581E2,9.289731E0],"tree_param":{"num_deleted":"0","num_feature":"45","num_nodes":"13","size_leaf_vector":"1"}},{"base_weights":[-4.075249E-2,3.275854E-2,-7.974823E-1,6.664047E-2,-9.180718E-1,3.6014274E-3,-8.704681E-1,9.8711895E-3,-1.075941E-3,-3.864083E-2,-4.7273654E-3,-1.3337988E-2,-2.8802235E-2],"categories":[],"categories_nodes":[],"categories_segments":[],"categories_sizes":[],"default_left":[0,0,0,0,0,0,0,0,0,0,0,0,0],"id":83,"left_children":[1,3,5,7,9,-1,11,-1,-1,-1,-1,-1,-1],"loss_changes":[8.0774216E1,4.2586006E1,8.788971E0,3.4420135E1,1.2446892E1,0E0,3.985695E0,0E0,0E0,0E0,0E0,0E0,0E0],"parents":[2147483647,0,0,1,1,2,2,3,3,4,4,6,6],"right_children":[2,4,6,8,10,-1,12,-1,-1,-1,-1,-1,-1],"split_conditions":[9E0,1E0,1E0,3.79E2,6E0,3.6014274E-3,1E0,9.8711895E-3,-1.075941E-3,-3.864083E-2,-4.7273654E-3,-1.3337988E-2,-2.8802235E-2],"split_indices":[0,2,15,20,10,0,3,0,0,0,0,0,0],"split_type":[0,0,0,0,0,0,0,0,0,0,0,0,0],"sum_hessian":[1.4491982E3,1.3216353E3,1.27563095E2,1.2771599E3,4.4475285E1,9.250974E0,1.1831212E2,3.5841983E2,9.187401E2,2.9364977E1,1.5110309E1,2.179685E1,9.6515274E1],"tree_param":{"num_deleted":"0","num_feature":"45","num_nodes":"13","size_leaf_vector":"1"}},{"base_weights":[2.5553448E-2,9.142024E-2,-6.403497E-1,2.133178E-1,-1.7475085E-1,1.5458947E-2,-7.37113E-1,4.660682E-3,2.5311809E-2,-8.7762615E-3,2.1336127E-2,1.6761849E-2,-2.4219614E-2],"categories":[],"categories_nodes":[],"categories_segments":[],"categories_sizes":[],"default_left":[0,0,0,0,0,0,0,0,0,0,0,0,0],"id":84,"left_children":[1,3,5,7,9,-1,11,-1,-1,-1,-1,-1,-1],"loss_changes":[6.3626163E1,4.2901745E1,1.5000996E1,3.29018E1,4.3499207E1,0E0,1.1480362E1,0E0,0E0,0E0,0E0,0E0,0E0],"parents":[2147483647,0,0,1,1,2,2,3,3,4,4,6,6],"right_children":[2,4,6,8,10,-1,12,-1,-1,-1,-1,-1,-1],"split_conditions":[9E0,2E0,1E0,1E0,1E1,1.5458947E-2,2.1E1,